tree
num_class=1
num_tree_per_iteration=1
label_index=0
max_feature_idx=33
objective=binary sigmoid:1
feature_names=Column_0 Column_1 Column_2 Column_3 Column_4 Column_5 Column_6 Column_7 Column_8 Column_9 Column_10 Column_11 Column_12 Column_13 Column_14 Column_15 Column_16 Column_17 Column_18 Column_19 Column_20 Column_21 Column_22 Column_23 Column_24 Column_25 Column_26 Column_27 Column_28 Column_29 Column_30 Column_31 Column_32 Column_33
feature_infos=[27:992928] [1:63] [0:790] [9:5116183] [-1:22] [-51:1820] [-1:13] [0:20170326] [0:20251002] [2004:2017] [1:12] [1:31] [2015:2025] [1:12] [1:31] [3:41] [0:450] [0:2000] [0:2000] [0:1] [20150123:20170228] [19700101:20170331] [0:1] [20150101:20170228] [0:518] [0:227] [0:91] [0:263] [0:2168] [1:480] [0.022000000000000002:591401.14500000002] [-894:180] [0:1] [0:inf]

Tree=0
num_leaves=6
split_feature=0 0 7 22 18
split_gain=171092.09612316056 0.14592243044171482 3.1163370646331714 1.2546537919915863 0.75591449608646144
threshold=63456 67212.5 20160318.5 9.9999996826552254e-21 912
decision_type=0 0 0 0 0
default_value=0 0 0 0 1.7976931348623157e+308
left_child=-1 2 3 4 -2
right_child=1 -3 -4 -5 -6
leaf_parent=0 4 1 2 3 4
leaf_value=0.10000000000000001 -0.10000000000000001 -0.10000000000000001 -0.06774193548387096 -0.07857142857142857 -0.080952380952380956
leaf_count=45695 2650 666484 31 28 21
internal_value=0 -1.999940228387332 -1.9853479853479854 -1.9925898480918858 -1.9970048670909772
internal_count=714909 669214 2730 2699 2671
shrinkage=0.05
has_categorical=0


Tree=1
num_leaves=16
split_feature=0 0 1 22 7 18 0 1 0 1 2 1 8 1 2
split_gain=154810.51797794132 0.13319540221709758 6.8458194952836493 0.46791902819268216 0.0052029769180990115 0.00034078502585543902 1.1641532182693481e-10 7.2759576141834259e-12 1.8189894035458565e-12 9.0949470177292824e-13 9.0949470177292824e-13 4.5474735088646412e-13 4.5474735088646412e-13 5.6843418860808015e-14 2.8421709430404007e-14
threshold=63456 67212.5 2.5 9.9999996826552254e-21 20160318.5 240 977253 24.5 989042 27.5 754.5 5.5 20170325.5 4.5 62.5
decision_type=0 0 0 0 0 0 0 0 0 0 0 0 0 0 0
default_value=0 0 0 0 0 1.7976931348623157e+308 0 0 0 0 0 0 0 0 0
left_child=7 2 -2 4 5 12 -3 -1 9 -8 -9 13 -4 14 -10
right_child=1 6 3 -5 -6 -7 8 10 11 -11 -12 -13 -14 -15 -16
leaf_parent=7 2 6 12 3 4 5 9 10 14 9 10 11 12 13 14
leaf_value=0.095241872246060344 -0.05117787363452652 -0.095241872246060344 -0.095241872246060344 -0.082477596229468583 -0.096725083203628992 -0.095637515437726736 -0.095241872246060344 0.095241872246060344 -0.095241872246060344 -0.095241872246060344 0.095241872246060344 -0.095241872246060344 -0.095241872246060344 -0.095241872246060344 -0.095241872246060344
leaf_count=40950 36 655224 306 29 24 22 8064 4660 195 365 85 2459 2313 103 74
internal_value=0 -1.9047802670372673 -1.8908216834915479 -1.902415938066331 -1.9051702936600483 -1.9049033860810842 -1.9048374449212067 1.9048374449212067 -1.9048374449212067 -1.9048374449212067 1.9048374449212067 -1.9048374449212067 -1.9048374449212067 -1.9048374449212067 -1.9048374449212067
internal_count=714909 669214 2730 2694 2665 2641 666484 45695 11260 8429 4745 2831 2619 372 269
shrinkage=0.05
has_categorical=0


Tree=2
num_leaves=14
split_feature=0 0 1 7 22 18 0 0 1 1 1 8 1
split_gain=140746.38473069429 0.124182841158472 6.3084636429039165 0.46690822900745843 0.0050164907775069878 0.00025512647653158638 1.1641532182693481e-10 7.2759576141834259e-12 3.637978807091713e-12 9.0949470177292824e-13 9.0949470177292824e-13 9.0949470177292824e-13 4.5474735088646412e-13
threshold=63456 67212.5 2.5 20160318.5 9.9999996826552254e-21 240 985152 51448 34.5 33.5 34.5 20171014.5 32.5
decision_type=0 0 0 0 0 0 0 0 0 0 0 0 0
default_value=0 0 0 0 0 1.7976931348623157e+308 0 0 0 0 0 1.7976931348623157e+308 0
left_child=7 2 -2 4 5 12 -3 8 -1 -8 11 -9 -4
right_child=1 6 3 -5 -6 -7 9 10 -10 -11 -12 -13 -14
leaf_parent=8 2 6 12 3 4 5 9 11 8 9 10 11 12
leaf_value=0.091131780775723592 -0.048765948795454428 -0.091131780775723592 -0.091131780775723592 -0.078124084077324865 -0.092562513730661752 -0.091475247125447648 -0.091131780775723592 0.091131780775723592 0.091131780775723592 -0.091131780775723592 0.091131780775723592 0.091131780775723592 -0.091131780775723592
leaf_count=36901 36 660875 2596 28 25 22 5585 6831 159 24 51 1753 23
internal_value=0 -1.8225802094095591 -1.8090554069948188 -1.8202464509529261 -1.8229614794922053 -1.8226928816712686 -1.8226356155144718 1.8226356155144718 1.8226356155144718 -1.8226356155144718 1.8226356155144718 1.8226356155144718 -1.8226356155144718
internal_count=714909 669214 2730 2694 2666 2641 666484 45695 37060 5609 8635 8584 2619
shrinkage=0.05
has_categorical=0


Tree=3
num_leaves=29
split_feature=0 8 0 1 7 21 21 20 8 8 21 27 33 26 5 24 7 1 0 0 1 1 3 7 1 1 1 1
split_gain=128486.95333095122 0.1246404837584123 0.09298292821040377 5.9132979608002643 0.088210643487173002 0.00067548519382398808 0.00014060436001273047 0.00032711955450537289 0.0001369184890336328 1.5989166058716364e-05 7.3427604547759984e-06 2.1696152344929942e-05 4.9150505674333544e-06 1.6635243696327962e-05 3.2369008323485104e-05 1.4919903605914442e-06 6.1659337262653935e-06 7.1105990429032317e-08 5.8207660913467407e-11 7.2759576141834259e-12 4.5474735088646412e-13 2.2737367544323206e-13 2.2737367544323206e-13 2.2737367544323206e-13 1.4210854715202004e-14 1.4210854715202004e-14 7.1054273576010019e-15 7.1054273576010019e-15
threshold=63456 20170227.5 67212.5 2.5 20160318.5 20170212.5 20170225.5 20170121.5 20170325.5 20171226.5 20170301.5 4.5 5.1500000000000004 1.5 23.5 21.5 20111007.5 14.5 989042 39841.5 27.5 29.5 988683 20120620.5 23.5 31.5 18.5 23.5
decision_type=0 0 0 0 0 0 0 0 0 0 0 0 0 0 0 0 0 0 0 0 0 0 0 0 0 0 0 0
default_value=0 1.7976931348623157e+308 0 0 0 0 0 0 1.7976931348623157e+308 0 0 1.7976931348623157e+308 1.7976931348623157e+308 1.7976931348623157e+308 -9.9999996826552254e-21 0 0 0 0 0 0 0 0 1.7976931348623157e+308 0 0 0 1.7976931348623157e+308
left_child=19 -2 3 -3 5 -5 7 17 -8 10 11 -10 15 14 -14 21 -17 -7 -4 -1 23 22 -12 -20 -15 -22 -13 -18
right_child=1 2 18 4 -6 6 8 -9 9 -11 12 26 13 24 -16 16 27 -19 20 -21 25 -23 -24 -25 -26 -27 -28 -29
leaf_parent=19 1 3 18 5 4 17 8 7 11 9 22 26 14 24 14 16 27 17 23 19 25 21 22 23 24 25 26 27
leaf_value=0.087549100739152091 -0.081242180963045543 -0.046518934934029949 -0.087549100739152091 -0.088147658247430247 -0.081776725273696255 -0.08754077750881073 -0.087781516166695939 -0.088033205129329661 -0.087646269853424344 -0.087640683917126358 -0.087549100739152091 -0.087549100739152022 -0.087549100739152078 -0.087549100739152091 -0.087716136214813709 -0.087611890270419143 -0.087549100739152091 -0.087549100739152078 -0.087549100739152091 0.087549100739152091 -0.087549100739152078 -0.087549100739152091 -0.087549100739152091 -0.087549100739152091 -0.087549100739152091 -0.087549100739152091 -0.087549100739152091 -0.087549100739152064
leaf_count=28717 32 36 663622 20 27 20 27 21 33 21 361 37 29 116 20 20 48 22 223 16978 108 36 1733 2480 27 20 44 31
internal_value=0 -1.75092778159445 -1.7509338122836844 -1.7391652666752515 -1.7501001306923365 -1.7512672535496845 -1.7511787409503734 -1.7541602700479322 -1.7511059816244148 -1.7510581509367584 -1.7510436035386994 -1.7515447101081527 -1.7510200052558198 -1.7513301920789635 -1.7523460529625932 -1.7509932849918617 -1.7512357544519095 -1.7509027472336514 -1.7509820147830417 1.7509820147830417 -1.7509820147830417 -1.7509820147830417 -1.7509820147830417 -1.7509820147830417 -1.7509820147830417 -1.7509820147830417 -1.7509820147830415 -1.7509820147830417
internal_count=714909 669214 669182 2729 2693 2666 2646 63 2583 2556 2535 114 2421 192 49 2229 99 42 666453 45695 2831 2130 2094 2703 143 128 81 79
shrinkage=0.05
has_categorical=0


Tree=4
num_leaves=31
split_feature=0 8 0 1 7 21 21 20 8 8 21 27 18 23 7 5 7 21 5 7 25 2 25 2 29 30 8 21 2 2
split_gain=117716.30141131347 0.11806634184904397 0.089524730283301324 5.5864886530939657 0.087885172352571317 0.0005180774078326067 0.00010791763020279177 0.00025096243327737966 0.0001051659417043993 1.2281523140700301e-05 5.6416761253785808e-06 1.666785510678892e-05 3.7734594116045628e-06 1.1566380777594532e-05 4.6831499815880306e-06 8.6559316514467355e-07 5.419517776772409e-06 5.7778184014978251e-08 6.9819918735447573e-09 3.0810838325123768e-09 9.1404217528179288e-10 4.8345327741117217e-10 1.0436451702844352e-10 5.8207660913467407e-11 4.2064129956997931e-11 1.5644729955965886e-10 2.0918378140777349e-11 7.2759576141834259e-12 1.4921397450962104e-11 3.637978807091713e-12
threshold=63456 20170227.5 67212.5 2.5 20160318.5 20170212.5 20170225.5 20170121.5 20170325.5 20171226.5 20170301.5 4.5 165 20161123.5 20150908.5 22.5 20101018.5 20170213.5 27.5 20110728.5 7.5 667.5 5.5 742.5 70.5 18875.317999999999 20170504.5 20170302.5 170.5 695.5
decision_type=0 0 0 0 0 0 0 0 0 0 0 0 0 0 0 0 0 0 0 0 0 0 0 0 0 0 0 0 0 0
default_value=0 1.7976931348623157e+308 0 0 0 0 0 0 1.7976931348623157e+308 0 0 1.7976931348623157e+308 1.7976931348623157e+308 0 0 1.7976931348623157e+308 0 0 -9.9999996826552254e-21 0 0 0 0 0 0 0 1.7976931348623157e+308 0 1.7976931348623157e+308 0
left_child=29 -2 3 -3 5 -5 7 17 -8 10 11 -10 15 -14 18 16 -12 -7 21 -20 22 -15 24 -4 26 -26 -17 28 -28 -1
right_child=1 2 23 4 -6 6 8 -9 9 -11 12 -13 13 14 -16 20 -18 -19 19 -21 -22 -23 -24 -25 25 -27 27 -29 -30 -31
leaf_parent=29 1 3 23 5 4 17 8 7 11 9 16 11 13 21 14 26 16 17 19 19 20 21 22 23 25 25 28 27 28 29
leaf_value=0.084401502427522396 -0.078222831967747222 -0.044417072159167535 -0.084401502427522396 -0.084929327325278123 -0.078604894469554737 -0.084401605430372673 -0.084606635236006117 -0.08482850903232543 -0.084487279700520598 -0.084482341371538205 -0.084458776320292792 -0.084401502427522368 -0.084490087042135731 -0.084401502427522368 -0.08444641931757832 -0.084401399477761596 -0.084401502427522396 -0.084394048747241199 -0.08439891696784324 -0.084400681654450638 -0.08440099038679863 -0.084400955246278567 -0.084401322265366382 -0.084401502427522396 -0.084401178135390678 -0.084401502427522396 -0.084401394330270579 -0.084401502427522396 -0.084401502427522396 0.084401502427522396
leaf_count=44407 32 36 652832 20 27 22 27 21 33 21 20 81 20 82 28 21 118 20 20 21 38 21 36 13621 20 67 20 1850 39 1288
internal_value=0 -1.6879764917760871 -1.6879824070719873 -1.6763527818561677 -1.6871067897621259 -1.6882817814745641 -1.6882036867538155 -1.690834331325282 -1.6881394809577066 -1.6880972561229994 -1.6880844143397111 -1.6885268071594559 -1.6880635805126309 -1.6883373184053692 -1.6881669658686995 -1.6880399996762518 -1.6881961008429573 -1.687960141729564 -1.6880188769327025 -1.6879964167178794 -1.6880296970148403 -1.6880278173311785 -1.688029880059936 -1.6880300485504478 -1.6880299413643374 -1.6880285575541396 -1.6880300037433222 -1.6880300259004342 -1.6880293156880046 1.6880300485504478
internal_count=714909 669214 669182 2729 2693 2666 2646 63 2583 2556 2535 114 2421 192 172 2229 138 42 144 41 2091 103 2053 666453 2017 87 1930 1909 59 45695
shrinkage=0.05
has_categorical=0


Tree=5
num_leaves=31
split_feature=0 16 7 8 0 7 22 16 21 8 8 18 4 25 3 20 7 5 10 24 11 23 24 14 24 7 7 7 8 26
split_gain=108334.54223410704 0.12760720116784796 1.640546064301617 0.10600241064094007 0.019359074591193348 1.9070988197886436 0.10068699063754138 0.037401192641709713 0.0005055574765719939 0.00105312097748822 0.00040456056058246759 0.0001820938402943284 0.00041147304546029773 0.00058365657887193834 0.00012776783415802129 0.00012138522835414278 8.2986470033574733e-05 0.00051468520310038457 5.1833397947120829e-05 0.00015537965826695199 0.00043364647756760633 3.5832905950883287e-05 0.00012089077660704106 2.9876248845539521e-05 8.1272784655084251e-05 0.00018050639860689444 0.00036427163892582826 2.837718079717888e-05 0.00013709526099603409 5.7586209294413493e-06
threshold=63456 8.5 20081021.5 20170227.5 67212.5 20160318.5 9.9999996826552254e-21 150 20170264.5 20170905.5 20171117.5 165 2 6.5 4647193 20170126.5 20060802.5 27.5 11.5 2.5 17.5 20170227.5 28.5 29.5 2.5 20140605.5 20150926.5 20090617.5 20170914.5 1.5
decision_type=0 0 0 0 0 0 0 0 0 0 0 0 0 0 0 0 0 0 0 0 0 0 0 0 0 0 0 0 0 0
default_value=0 0 0 1.7976931348623157e+308 0 0 0 0 0 0 0 1.7976931348623157e+308 -9.9999996826552254e-21 1.7976931348623157e+308 0 0 1.7976931348623157e+308 -9.9999996826552254e-21 0 1.7976931348623157e+308 0 0 1.7976931348623157e+308 0 1.7976931348623157e+308 0 0 1.7976931348623157e+308 0 1.7976931348623157e+308
left_child=-1 2 -2 -3 5 6 7 8 9 -5 11 16 13 -13 29 -11 17 -10 21 20 -20 23 -23 27 25 -25 -27 28 -18 -14
right_child=1 3 -4 4 -6 -7 -8 -9 10 15 -12 12 14 -15 -16 -17 18 -19 19 -21 -22 22 -24 24 -26 26 -28 -29 -30 -31
leaf_parent=0 2 3 2 9 4 5 6 7 17 15 10 13 29 13 14 15 28 17 20 19 20 22 22 25 24 26 26 27 28 29
leaf_value=0.081617122023786348 -0.051175702900618174 -0.075893904084848571 -0.081621402263346077 -0.082553705804833302 -0.081617122023786348 -0.055352860180175482 -0.075635054960346115 -0.086061937087766244 -0.082180669202637072 -0.081606778301789321 -0.082037483668098654 -0.081616325377222729 -0.081664201639373643 -0.082356575611865934 -0.081898649911414878 -0.081911574472796109 -0.081913700119101096 -0.081617056235104041 -0.081617122054982588 -0.081617070577471501 -0.082209708857349892 -0.081617122233325581 -0.081913881828825308 -0.081617003668750951 -0.081617075055204935 -0.082209708377352669 -0.081617122023786348 -0.081616923840202041 -0.081616808824578668 -0.0816164085890278
leaf_count=45761 20 34 257 20 666106 29 29 20 21 44 28 21 35 24 21 20 20 90 37 111 20 52 20 64 205 20 24 1556 90 110
internal_value=0 -1.6322959903382317 -1.5882550631182446 -1.6323142362483953 -1.6323200717632294 -1.6268676123350514 -1.6325248779000607 -1.6338346921847395 -1.6331603895488687 -1.6381120540669802 -1.6329982615911156 -1.6329126695844223 -1.6347381081349908 -1.6402369765377249 -1.6332447106138259 -1.6340426769056413 -1.6327472725345511 -1.6344788831648558 -1.6326606112841422 -1.6337565923350021 -1.6365094301415111 -1.6325708098824603 -1.6339929817506307 -1.6325190481979637 -1.6331008709703589 -1.6345414282318178 -1.6377388227498157 -1.6324097181265937 -1.6334171714569568 -1.6325589546098798
internal_count=714909 669148 277 668871 668837 2731 2702 2673 2653 84 2569 2541 211 45 166 64 2330 111 2219 168 57 2051 72 1979 313 108 44 1666 110 145
shrinkage=0.05
has_categorical=0


Tree=6
num_leaves=31
split_feature=0 16 2 8 0 7 22 1 7 15 30 23 1 1 21 10 8 17 4 8 8 7 7 5 26 23 11 10 1 10
split_gain=99843.691651029978 0.12311259657144547 1.6618460194763145 0.10330571950180456 0.019973053655121475 1.8381804836565152 0.099951147446745381 0.089726207388366674 0.00095737545430552018 3.3138885555672459e-06 1.1357121820765315e-06 1.0958474661038053e-06 9.9418161880748812e-07 3.4860063351516146e-06 6.0507613852678332e-07 8.6884498529116172e-07 5.2743689593626186e-07 2.2583935788134113e-07 2.5156498395517701e-07 1.5465684555238113e-07 2.7125361157231964e-07 1.1015802030556188e-06 6.0906586440978572e-08 3.2437539942975491e-07 3.7254693552313256e-08 3.6638766687246971e-08 2.3624806999578141e-08 3.2137904781848192e-08 1.7823651887738379e-08 1.1066930483139004e-08
threshold=63456 8.5 22.5 20170227.5 67212.5 20160318.5 9.9999996826552254e-21 2.5 20090912.5 26.5 36170.322499999995 20161209.5 3.5 4.5 20170264.5 4.5 20171115.5 165 3.5 20170407.5 20170724.5 20150908.5 20060802.5 28.5 1.5 20170227.5 25.5 11.5 25.5 6.5
decision_type=0 0 0 0 0 0 0 0 0 0 0 0 0 0 0 0 0 0 0 0 0 0 0 0 0 0 0 0 0 0
default_value=0 0 0 1.7976931348623157e+308 0 0 0 0 0 0 0 0 0 0 0 0 0 0 -9.9999996826552254e-21 1.7976931348623157e+308 1.7976931348623157e+308 1.7976931348623157e+308 1.7976931348623157e+308 -9.9999996826552254e-21 1.7976931348623157e+308 0 0 0 0 0
left_child=-1 2 -2 -3 5 6 7 -5 -4 -9 12 -10 -11 -14 15 -15 17 19 -19 -16 21 -21 23 -22 -20 26 -24 29 -27 -28
right_child=1 3 8 4 -6 -7 -8 9 11 10 -12 -13 13 14 16 -17 -18 18 24 20 22 -23 25 -25 -26 28 27 -29 -30 -31
leaf_parent=0 2 3 8 7 4 5 6 9 11 12 10 11 13 15 19 15 16 18 24 21 23 21 26 23 24 28 29 27 28 29
leaf_value=0.079139124155677046 -0.04828318987738181 -0.073438221186429301 -0.079885796716838584 -0.084558241651137692 -0.079139124155677046 -0.053198320036801597 -0.073119746810234088 -0.079178665792369346 -0.079164349562297065 -0.079120707258513501 -0.079160715221775563 -0.079138992544961859 -0.079179380297131785 -0.079140753552002868 -0.07912980689075505 -0.079118080152012965 -0.079123236675198064 -0.079127268956441441 -0.079133930679406397 -0.079138438645108916 -0.079124882069262728 -0.079165779986980211 -0.079138861736898519 -0.079139096441091086 -0.07913770859993409 -0.079137747653132154 -0.079138874825127214 -0.079134287653720714 -0.079134532155454892 -0.079137514011404939
leaf_count=45761 20 34 20 32 666106 29 29 22 20 35 24 217 22 34 21 39 25 37 37 76 22 20 1673 80 116 44 126 25 32 131
internal_value=0 -1.5827356010143268 -1.5390571323413362 -1.5827537080421452 -1.5827595324586288 -1.5771662898493235 -1.5827995892101285 -1.5841195071839094 -1.583988584847724 -1.5827721305432281 -1.5827653980694589 -1.5828226563114038 -1.5827612455051421 -1.5827659902573232 -1.5827588656851173 -1.5825728302947748 -1.5827643745657241 -1.5827674442380779 -1.5826988012860195 -1.5827732405590289 -1.5827749089560468 -1.5828827168816098 -1.5827700566005942 -1.5827206181155133 -1.5827359001766805 -1.5827725394204459 -1.5827742756739842 -1.5827567204967992 -1.5827278756434333 -1.5827636236993738
internal_count=714909 669148 277 668871 668837 2731 2702 2673 257 2641 2619 237 2595 2560 2538 73 2465 2440 190 2250 2229 96 2133 102 153 2031 1955 282 76 257
shrinkage=0.05
has_categorical=0


Tree=7
num_leaves=31
split_feature=0 16 8 8 0 7 22 1 2 7 15 3 30 1 1 21 3 8 19 17 4 8 8 3 3 7 5 23 24 10
split_gain=92246.606185143231 0.12020194949582219 1.6935243011270131 0.10177237424068153 0.020718403626233339 1.7872793612616533 0.10010540738085183 0.070185702573780873 0.00084302242123612814 0.00059367587718384129 2.6112154500879114e-06 8.9757929799816338e-07 8.9526179181120824e-07 7.8184893936850131e-07 2.7460457658889936e-06 4.7570551942044403e-07 8.1823856135088135e-07 4.1471480471955147e-07 3.2820066309113827e-07 1.7749857761373278e-07 1.9773057147176587e-07 1.2152531780884601e-07 2.1422215468192007e-07 9.1348082520426033e-07 7.9578612144359795e-08 4.7681169235147536e-08 2.5549090310050815e-07 2.882848093577195e-08 5.3309278769120283e-08 1.7003003449644893e-08
threshold=63456 8.5 20180326.5 20170227.5 67212.5 20160318.5 9.9999996826552254e-21 2.5 24.5 20091129.5 26.5 4647193 36170.322499999995 3.5 4.5 20170264.5 3590662.5 20171115.5 9.9999996826552254e-21 165 3.5 20170407.5 20170724.5 3912488.5 4606183.5 20060802.5 28.5 20170227.5 28.5 11.5
decision_type=0 0 0 0 0 0 0 0 0 0 0 0 0 0 0 0 0 0 0 0 0 0 0 0 0 0 0 0 0 0
default_value=0 0 1.7976931348623157e+308 1.7976931348623157e+308 0 0 0 0 0 0 0 0 0 0 0 0 0 0 0 0 -9.9999996826552254e-21 1.7976931348623157e+308 1.7976931348623157e+308 1.7976931348623157e+308 1.7976931348623157e+308 1.7976931348623157e+308 -9.9999996826552254e-21 0 1.7976931348623157e+308 0
left_child=-1 2 8 -3 5 6 7 -5 -2 -10 -9 -11 13 -12 -15 16 18 19 -16 21 -21 -17 23 -23 -22 26 -24 29 -29 -27
right_child=1 3 -4 4 -6 -7 -8 10 9 11 12 -13 -14 14 15 17 -18 -19 -20 20 24 22 25 -25 -26 27 -28 28 -30 -31
leaf_parent=0 8 3 2 7 4 5 6 10 9 11 13 11 12 14 18 21 16 17 18 20 24 23 26 23 24 29 26 28 28 29
leaf_value=0.076921967446682823 -0.077683262238040202 -0.071206837881624463 -0.045506499916311373 -0.081756265349077289 -0.076921967446682823 -0.051176680532371038 -0.070832650557618212 -0.076957460491750951 -0.077494131008845141 -0.076921808261638705 -0.076905450977460141 -0.07694512435406041 -0.076941352126968454 -0.076958096250707611 -0.076896515729136319 -0.076913614085789214 -0.07693003001933528 -0.076907720176684707 -0.076913223241453305 -0.076911337733089918 -0.076920805055734176 -0.076921224213693185 -0.076909191215346159 -0.076946400999443998 -0.076913712499175654 -0.076921683573848626 -0.076921947897134482 -0.076921175540720407 -0.076914870406435146 -0.076920488502570189
leaf_count=45761 20 34 20 32 666106 29 29 22 22 195 35 20 24 22 24 21 21 25 28 37 133 76 22 20 20 1814 80 56 20 141
internal_value=0 -1.5383917571802062 -1.494765476180393 -1.5384098565239108 -1.5384157093490463 -1.532655764311746 -1.5383003177541821 -1.5396381530186245 -1.5406505335600869 -1.5395439513814126 -1.5384300570056946 -1.5384795539886162 -1.5384240136323983 -1.5384202853734812 -1.5384245402079342 -1.5384181457868102 -1.5382513419576653 -1.5384230851371912 -1.5381102571626348 -1.5384258376057662 -1.5383643002657512 -1.5384310338989189 -1.538432529411651 -1.5385294102807843 -1.5383975597578323 -1.538428168851971 -1.5383839352571387 -1.5384303902746883 -1.5383903276164055 -1.5384319476615151
internal_count=714909 669148 277 668871 668837 2731 2702 2673 257 237 2641 215 2619 2595 2560 2538 73 2465 52 2440 190 2250 2229 96 153 2133 102 2031 76 1955
shrinkage=0.05
has_categorical=0


Tree=8
num_leaves=31
split_feature=21 13 21 21 12 19 20 2 4 13 15 23 13 13 15 21 15 13 13 15 15 21 13 21 20 14 20 12 13 21
split_gain=37749.323731084121 6153.450593393969 2329.3635855280854 2264.8766567571638 1114.8766303952043 791.42033834324684 1150.884383881541 758.83741315278257 746.88614522112493 639.952515842602 628.35044326480647 518.78724826731991 469.71704921877244 296.45653744849608 238.5969522794519 288.52977448065144 200.56157513414212 191.0898957466718 210.67345541266951 176.72203474889022 258.75094406472584 160.73958317811503 157.82759571063102 164.41487351436604 148.17148467684285 143.06608507208858 105.6926709563968 98.211300506096222 96.911359496908062 79.406210448888942
threshold=20170227.5 2.5 20170212.5 20170213.5 2017.5 9.9999996826552254e-21 20170201.5 24.5 9.9999996826552254e-21 8.5 40.5 20161221.5 3.5 5.5 40.5 20170264.5 40.5 8.5 5.5 38.5 39.5 20170128.5 3.5 20170303.5 20170127.5 18.5 20170211.5 2017.5 7.5 20170221.5
decision_type=0 0 0 0 0 0 0 0 0 0 0 0 0 0 0 0 0 0 0 0 0 0 0 0 0 0 0 0 0 0
default_value=0 0 0 0 0 0 0 0 -9.9999996826552254e-21 0 0 0 0 0 0 0 0 0 0 0 0 0 0 0 0 0 0 0 0 0
left_child=1 4 7 10 -1 6 22 -3 -5 13 -4 21 14 -10 19 -16 29 18 -13 -7 27 -9 -2 -24 -19 -15 -12 -21 -20 -11
right_child=5 2 3 8 -6 12 -8 11 9 16 26 17 -14 25 15 -17 -18 24 28 20 -22 -23 23 -25 -26 -27 -28 -29 -30 -31
leaf_parent=4 22 7 10 8 4 19 6 21 13 29 26 18 12 25 15 15 16 24 28 27 20 21 23 23 24 25 26 27 28 29
leaf_value=0.074775622786599036 0.047708593500561593 0.065802615437229747 0.012271897589615416 0.068702208536234224 -0.0036048117590456487 -0.050660129274115777 -0.065073397250279247 0.0703274864214921 -0.014383157530077108 -0.010766656645175211 -0.073723581133935651 -0.010829567651409782 -0.074466448826882983 0.033972761587462388 0.07138980401612835 -0.069386352456862352 -0.065025292238249696 -0.0080503962029905146 0.05148392365347685 0.072204037089165604 -0.032906665094658734 0.027043674312452273 -0.03330806489320217 0.011296094209902692 -0.053386047159885021 -0.0082446944361986626 0.0067976465293707409 -0.06208379469391867 0.0076089451436602111 -0.032080646277438167
leaf_count=15444 512 3644 1098 1459 2355 1815 39879 1434 3427 3515 9948 2368 596352 4408 170 4596 1497 3287 1419 495 1091 2961 2268 1578 1078 1137 187 70 944 4473
internal_value=0 0.22142582037785116 -0.17177426943647686 -0.51751039657903131 1.2880923649164404 -1.4623263544433085 -1.1883037177862283 0.45671894374935129 -0.087731369291699696 -0.20328363333157978 -1.2795332965976491 0.22459947081100068 -1.4823764993672417 0.20302953543482335 -0.97903598190506669 -1.2872944515263833 -0.5876389272181034 -0.064689667020631683 0.23078004005468747 -0.55578785233177508 -0.054451775244499179 0.82332114578634641 -0.15278823035465205 -0.30014660629109108 -0.38493724241137883 0.50632017788631023 -1.4447552759396256 1.1113321320553156 0.67911044261011433 -0.45403512925742218
internal_count=714909 66083 48284 31149 17799 648826 44237 17135 19916 18457 11233 13491 604589 8972 8237 4766 9485 9096 4731 3471 1656 4395 4358 3846 4365 5545 10135 565 2363 7988
shrinkage=0.05
has_categorical=0


Tree=9
num_leaves=31
split_feature=21 8 15 8 21 21 8 19 20 8 15 21 15 19 15 15 14 21 20 20 8 23 18 8 23 8 8 2 8 8
split_gain=35249.181901420176 8772.042170623623 1882.0154193680905 1663.3971801217913 900.37232027407333 1382.8784311268644 826.75012378807878 717.68269297882216 867.3866177071468 336.62808113195933 330.05798893144026 286.8117799599172 283.08708779059884 247.0229991551272 239.1822781423439 214.90826696344672 183.20767931386916 180.48227193827836 162.51584928867405 161.74131853018048 123.83520351378357 117.3215206629327 85.109422287321649 72.603391379680943 69.320407257892526 68.797666281747723 56.135496265857732 53.998039151689213 52.36362693301794 52.179934728127819
threshold=20170227.5 20170818.5 40.5 20170311.5 20170212.5 20170213.5 20170301.5 9.9999996826552254e-21 20170201.5 20170328.5 40.5 20170128.5 40.5 9.9999996826552254e-21 38.5 39.5 2.5 20170303.5 20170123.5 20170211.5 20170529.5 20170213.5 52.5 20170606.5 20161216.5 20170619.5 20170913.5 72.5 20170619.5 20170606.5
decision_type=0 0 0 0 0 0 0 0 0 0 0 0 0 0 0 0 0 0 0 0 0 0 0 0 0 0 0 0 0 0
default_value=0 0 0 1.7976931348623157e+308 0 0 1.7976931348623157e+308 0 0 1.7976931348623157e+308 0 0 0 0 0 0 0 0 0 0 1.7976931348623157e+308 0 0 1.7976931348623157e+308 0 0 0 0 0 1.7976931348623157e+308
left_child=1 3 18 -1 21 10 16 8 17 12 -6 26 14 20 -9 -16 -2 -8 24 -12 -7 23 -11 -5 -3 -22 -4 -26 -25 -15
right_child=6 2 11 4 5 13 7 9 -10 22 19 -13 -14 29 15 -17 -18 -19 -20 -21 25 -23 -24 28 27 -27 -28 -29 -30 -31
leaf_parent=3 16 24 26 23 10 20 17 14 8 22 19 11 12 29 15 15 16 17 18 19 25 21 22 28 27 25 26 27 28 29
leaf_value=0.073010003857063355 -0.040339589563644564 0.0095479707759288986 -0.030911317772417332 0.018332857318531712 0.039822362694965446 -0.02416038456232094 -0.030750207688190069 -0.050692141436038056 -0.063101559176690858 -0.03549604186994551 -0.071066649690990455 -0.070149317185921628 -0.067611499215247353 -0.019925110153067915 0.072845533102855603 -0.020590321789844251 0.069036790711330565 0.014318825466330558 -0.027492250331621254 0.070006564560941245 0.044621944336508776 -0.018802445486790314 -0.072696086237110977 0.069369690837090492 0.0099574522624053252 0.014799532213319179 0.056966442962582992 -0.011469208085002309 0.048856226921761892 0.063432326505461378
leaf_count=16853 252 2640 126 474 377 682 2397 1395 39874 703 2712 9972 3387 88 454 744 571 1726 5374 95 1327 230 597323 3743 1483 2580 236 12556 2288 2247
internal_value=0 0.21344278857742316 -0.57624875116310004 0.98115630098758499 0.50787340274898596 0.10507761593988561 -1.4258082731179287 -1.4285607847751443 -1.1645354213514465 -1.4479406300972646 -1.067711875112912 -1.3342812832949307 -0.9423882209133857 0.63705732674626836 -0.41267418608646839 0.28680802593320348 0.71289239704522733 -0.2369626694979832 -0.22815703632457987 -1.3236935762301234 0.3517336589160055 1.1135600728343311 -1.453036400104369 1.1669918512465391 -0.124801124472203 0.49787995489324632 0.52556408910739549 -0.18414509770922274 1.230742499077313 1.2048323045625489
internal_count=714909 66083 32387 33696 16843 10108 648826 648003 43997 604006 3184 10334 5980 6924 2593 1198 823 4123 22053 2807 4589 6735 598026 6505 16679 3907 362 14039 6031 2335
shrinkage=0.05
has_categorical=0


Tree=10
num_leaves=31
split_feature=21 8 22 15 8 22 15 19 20 21 8 8 8 20 8 21 18 20 15 8 8 20 1 8 8 8 17 8 13 8
split_gain=32976.48666340916 8016.3092420256589 1836.2800914102118 1776.4274776007896 1584.5010466441736 995.83068097226874 1644.9058233252088 830.97909530811012 942.93019211464343 245.3807676563797 244.29562561926966 197.48273368908036 168.63578629379435 156.91780857141615 146.2227895978225 139.59696063559281 119.74299240030814 92.005917961917589 77.828143740775005 69.66876334698236 62.189699928101618 82.335976711072362 58.738378240922998 56.545984844498804 75.602815603642085 57.919733144054234 89.871967331209021 51.364748628986945 46.120023255561961 45.4439159802399
threshold=20170227.5 20170818.5 9.9999996826552254e-21 40.5 20170311.5 9.9999996826552254e-21 40.5 9.9999996826552254e-21 20170201.5 20170128.5 20170818.5 20170328.5 20170606.5 20170121.5 20170619.5 20170309.5 52.5 20170119.5 39.5 20170606.5 20170325.5 20170130.5 25.5 20180429.5 20180401.5 20170912.5 448.5 20170913.5 8.5 20170328.5
decision_type=0 0 0 0 0 0 0 0 0 0 0 0 0 0 0 0 0 0 0 0 0 0 0 0 0 0 0 0 0 0
default_value=0 0 0 0 1.7976931348623157e+308 0 0 0 0 0 0 0 1.7976931348623157e+308 0 0 0 0 0 0 1.7976931348623157e+308 1.7976931348623157e+308 0 0 0 0 0 0 0 0 1.7976931348623157e+308
left_child=1 4 7 13 -1 6 12 8 11 27 22 -2 -6 23 -14 28 29 -16 -12 -7 21 -18 -4 24 25 26 -3 -5 -13 -9
right_child=2 3 10 9 5 19 -8 16 -10 -11 18 15 14 -15 17 -17 20 -19 -20 -21 -22 -23 -24 -25 -26 -27 -28 -29 -30 -31
leaf_parent=4 11 26 22 27 12 19 6 29 8 9 18 28 14 13 17 15 21 17 18 19 20 21 22 23 24 25 26 27 28 29
leaf_value=0.071421198543133224 0.070795539426489959 0.00087300335118817686 0.049102337602243494 -0.031710376524286814 -0.0069464141096539159 -0.0090314297484922427 -0.067085805098033385 0.070752993200739786 -0.061036900812673781 -0.068198191414818796 0.0024738282850476304 -0.0081887797949888961 0.055414982091078216 -0.025126877613298876 0.035308966046336064 0.023810698811540271 0.062167299961766488 0.003800300761592676 -0.051834983075065871 0.064431834800703844 -0.071259764454862026 -0.060517688163514632 -0.0048349199081383406 0.021181174705073955 -0.026360631386249056 0.0001469120275334563 -0.035734385306075991 0.052442574266220426 -0.034905211073582403 -0.035172783093100062
leaf_count=16855 337 1585 1448 129 1244 150 2763 48 39931 9930 663 1140 2696 6131 2919 824 62 1641 564 5317 596318 4696 274 873 1909 10049 1449 230 2042 692
internal_value=0 0.20808892537905427 -1.3927660420407457 -0.54884602305441443 0.95367324540294174 0.48726174853832932 0.12405418449802939 -1.4007342125132474 -1.1149894840835683 -1.2991501682255993 0.29246638765344096 -0.17333955928071526 0.58361284006774461 -0.21294271446386831 0.70915570179313758 -0.30331421604441194 -1.4221010366938041 0.47786047585246061 -0.44058359151847476 1.246838775622148 -1.4231988514353899 -1.1769002630208516 0.81032523539917323 -0.10165147059203047 -0.13225875580729077 -0.074662077356259127 -0.33199160224251567 0.43775703407550087 -0.5059454569830103 -0.56077598222642377
internal_count=714909 65870 649039 32285 33585 16730 11263 646090 44274 10289 2949 4343 8500 21996 7256 4006 601816 4560 1227 5467 601076 4758 1722 15865 14992 13083 3034 359 3182 740
shrinkage=0.05
has_categorical=0


Tree=11
num_leaves=31
split_feature=0 8 21 15 21 8 8 19 13 8 21 22 14 21 0 8 0 8 13 22 8 21 22 21 15 15 21 21 22 8
split_gain=74882.958253770164 25.216264488994057 14.829145095136482 9.0787794285060954 7.0510703143590945 3.7299519675361807 2.2544286688444117 1.8369561726576649 1.1954085251782089 1.0004348366037448 0.92734516423661262 0.84620249167926431 0.69037673010330991 0.63642820309178205 0.48415099083626956 0.47230906965978647 0.43052863773573335 0.35246044013183564 0.34081682922624168 0.31923273580287059 0.83505967879523268 0.25477667998620745 0.22666220771361623 0.22013906913343817 0.21963188253363342 0.20742942823972044 0.18722874605282414 0.17640053475372497 0.15847493424053027 0.16140076956708072
threshold=63456 20170301.5 20170227.5 40.5 20170227.5 20170818.5 20170205.5 9.9999996826552254e-21 3.5 20170818.5 20170227.5 9.9999996826552254e-21 16.5 20170303.5 71207.5 20170602.5 67212.5 20170328.5 5.5 9.9999996826552254e-21 20170818.5 20170221.5 9.9999996826552254e-21 20170220.5 39.5 39.5 20170305.5 20170128.5 9.9999996826552254e-21 20170619.5
decision_type=0 0 0 0 0 0 0 0 0 0 0 0 0 0 0 0 0 0 0 0 0 0 0 0 0 0 0 0 0 0
default_value=0 0 0 0 0 0 0 0 0 0 0 0 0 0 0 0 0 1.7976931348623157e+308 0 0 0 0 0 0 0 0 0 0 0 0
left_child=1 10 3 6 5 15 -2 13 11 14 -1 -6 -12 -4 -8 -3 -5 22 -16 -18 -21 -11 -9 -7 -13 26 -10 -22 29 -17
right_child=2 4 7 16 8 23 9 17 25 21 12 24 -14 -15 18 28 19 -19 -20 20 27 -23 -24 -25 -26 -27 -28 -29 -30 -31
leaf_parent=10 6 15 13 16 11 23 14 22 26 21 12 24 12 13 18 29 19 17 18 20 27 21 22 23 24 25 26 27 28 29
leaf_value=0.070140579583353596 -0.039911464839959637 0.075011807676278075 -0.072793293397941466 -0.058334348781564488 0.077703927771035741 0.075243084821315337 -0.063434218209417512 -0.070778435733430553 0.077368298914070113 -0.074338699248081105 0.077922704144912189 0.071340560053982552 0.071435696807792909 -0.070722147090917481 -0.074368150923518117 0.071557868297775204 -0.070183130290246767 -0.070040796772208883 -0.077123432559903948 -0.079161782144332254 -0.074980264116739068 -0.073324914991719239 -0.073975971419754372 0.076382458230732198 0.07601610208762094 0.080405407074470414 0.07893226157945564 -0.070803698657087868 0.071185069284406127 0.072851391621136144
leaf_count=20732 20 678 1811 35 766 7187 32 4851 1078 8418 285 501 526 37891 686 1798 10195 596422 1919 146 121 4294 268 2552 147 775 3718 2167 1799 3091
internal_value=0 1.4616613977025672 -1.4041659569680387 -1.4528212892741943 1.5078441238942635 1.4841079992321833 -1.486982483781174 -1.4019431898176296 1.5633845051717019 -1.4879496308626272 1.405758447519686 1.5078955022096259 1.4769783387705522 -1.4164009472571646 -1.5251523442249546 1.4469504066352832 -1.4084563771925387 -1.4009742281518314 -1.5283225217569432 -1.4091397016023817 -1.4315686568353705 -1.4799927428290205 -1.419093087101891 1.5108969028560129 1.4492595607051213 1.5768371519505235 1.5716907724538571 -1.4207735619004225 1.4413039459221353 1.4476468402574489
internal_count=714909 45633 669276 28033 24090 17105 15369 641243 6985 15349 21543 1414 811 39702 2637 7366 12664 601541 2605 12629 2434 12712 5119 9739 648 5571 4796 2288 6688 4889
shrinkage=0.05
has_categorical=0


Tree=12
num_leaves=31
split_feature=21 13 21 21 22 12 19 20 2 4 15 13 23 13 15 21 13 13 14 13 18 21 14 15 20 13 21 14 14 15
split_gain=28862.174358048796 4608.9064067417503 1672.9028163597054 1749.6205797046512 1615.6487199231342 851.2251295160977 786.6904412683798 825.74713540218181 593.51379199483279 546.59910512819283 469.53505737127489 455.47290260080132 414.75396115389401 199.27389757439403 142.16439831235289 117.50355893438996 115.1947996618903 112.66195632662701 111.069492598214 109.81793170826458 109.47387947328389 108.60763334561869 104.62544734409407 93.879767730420852 80.789826823454405 67.592510079304688 59.092142779176299 58.684511604408449 56.164489518600334 56.326085816809986
threshold=20170227.5 2.5 20170212.5 20170213.5 9.9999996826552254e-21 2017.5 9.9999996826552254e-21 20170201.5 36.5 9.9999996826552254e-21 40.5 8.5 20161226.5 4.5 40.5 20170128.5 3.5 8.5 18.5 8.5 52.5 20170315.5 18.5 40.5 20170211.5 5.5 20170223.5 22.5 7.5 40.5
decision_type=0 0 0 0 0 0 0 0 0 0 0 0 0 0 0 0 0 0 0 0 0 0 0 0 0 0 0 0 0 0
default_value=0 0 0 0 0 0 0 0 0 -9.9999996826552254e-21 0 0 0 0 0 0 0 0 0 0 0 0 0 0 0 0 0 0 0 0
left_child=1 5 8 10 6 -1 7 16 -3 -5 -4 13 15 27 26 -10 -2 22 -15 -6 -8 -18 25 -19 -12 -14 -13 -11 29 -17
right_child=4 2 3 9 19 -7 20 -9 12 11 24 14 17 18 -16 28 21 23 -20 -21 -22 -23 -24 -25 -26 -27 -28 -29 -30 -31
leaf_parent=5 16 8 10 9 19 5 20 7 15 27 24 26 25 18 14 29 21 23 18 19 20 21 22 23 24 25 26 27 28 29
leaf_value=0.068545343162414979 0.040819653766838111 0.056766432805123182 0.0096422429682514674 0.062665445903366077 0.03133956976798654 -0.0012981055545374504 -0.026331745324486833 -0.058056196568509938 0.062295995287003594 -0.022279519848496177 -0.0674896750917474 -0.011924999415053521 -0.001176304941907334 0.027397492511765487 -0.057495081948382057 0.013243159663324506 -0.021942168378520945 -0.01056015352637007 -0.0071180330655174805 -0.011353582680444979 -0.068312901769914211 0.030253044409355386 -0.013788468116117912 -0.052441516955539169 0.0066493966930213271 0.03498459799223478 -0.03081888704770246 0.019969041464489468 0.031419835614320435 -0.061146590587734667
leaf_count=15472 513 4120 1061 1432 1731 2359 740 39931 1408 2312 9949 4600 993 4832 1457 516 3288 3241 1401 1218 601076 542 1730 814 181 1560 3334 455 2484 159
internal_value=0 0.19669871353408369 -0.15119900600627798 -0.45517245358513009 -1.3358407089332294 1.1719546443853479 -1.3436313691076096 -1.0587520916749507 0.39846719807219383 -0.074696198607754755 -1.1684455394212734 -0.17259348462114404 0.17255073641228366 0.1749876518740606 -0.50724891940658656 0.70510398410574859 -0.16374191658815826 -0.1128602513348462 0.39080087956753301 0.2733662942543123 -1.3651631388374497 -0.29079622864987548 0.13220186763649611 -0.37163122804122961 -1.3222422353257608 0.41325820224543586 -0.39636084669338678 -0.30574210489984061 0.47690780835642965 -0.076788344058135602
internal_count=714909 65870 48039 31014 649039 17831 646090 44274 17025 19823 11191 18391 12905 9000 9391 4567 4343 8338 6233 2949 601816 3830 4283 4055 10130 2553 7934 2767 3159 675
shrinkage=0.05
has_categorical=0


Tree=13
num_leaves=31
split_feature=0 8 21 15 21 8 19 20 8 22 20 8 21 19 8 14 22 0 20 13 0 22 0 8 20 13 21 21 21 8
split_gain=67259.533879025083 33.134142099668679 20.20474516149261 11.724285437874642 9.8710381401506311 4.5289090495298296 2.3828308504598681 2.3990905513837788 1.9420373210887192 1.882929319707273 2.3593939147053788 1.4550790306129784 1.3923444543142978 1.0846536502075423 0.97048809164527938 0.81630133795977144 0.69519722671248019 0.78985093851008514 0.54624109303131263 0.52824449704166909 0.47781180210608909 0.45662185032506386 0.63019611487425209 1.0829288940627748 0.44243660968459153 0.41150279230851083 0.39500432301110777 0.28880094223677588 0.2082961406404138 0.20573532644789339
threshold=63456 20170301.5 20170227.5 40.5 20170227.5 20170818.5 9.9999996826552254e-21 20170201.5 20170205.5 9.9999996826552254e-21 20170166 20170818.5 20170227.5 9.9999996826552254e-21 20170328.5 27.5 9.9999996826552254e-21 71207.5 20170122.5 5.5 71207.5 9.9999996826552254e-21 71207.5 20170818.5 20170122.5 5.5 20170303.5 20170303.5 20170128.5 20170817.5
decision_type=0 0 0 0 0 0 0 0 0 0 0 0 0 0 0 0 0 0 0 0 0 0 0 0 0 0 0 0 0 0
default_value=0 0 0 0 0 0 0 0 0 0 0 0 0 0 0 0 0 0 0 0 0 0 0 0 0 0 0 0 0 1.7976931348623157e+308
left_child=1 12 3 8 5 19 7 27 -2 10 13 20 -1 26 -11 -14 -8 -18 -7 -3 -10 -5 -23 -24 -13 -22 -6 -4 -25 -19
right_child=2 4 6 21 9 18 16 -9 11 14 -12 24 15 -15 -16 -17 17 29 -20 -21 25 22 23 28 -26 -27 -28 -29 -30 -31
leaf_parent=12 8 19 27 21 26 18 16 7 20 14 10 24 15 13 14 15 17 29 18 19 25 22 23 28 24 25 26 27 28 29
leaf_value=0.067586014728187371 -0.040603576182636443 0.07310168460621673 -0.070890016281901502 -0.067600323310992166 0.075361465989204582 0.073389486482342711 -0.06745637203803706 -0.068132395839417811 -0.061974307788587125 0.070161086497321751 0.079289299837275215 -0.072487235053196805 0.076521341668808612 0.08020984832945377 0.076096455911415964 0.069424432817216469 -0.049085087162931224 -0.072485758989977278 0.075333122802882818 0.069923178077521117 -0.072690498336374587 -0.05158122299537457 -0.078190104826100754 -0.073210445090574089 -0.071096880273769356 -0.075754456533554115 0.071897603729597512 -0.073475084074334701 -0.068581909253007889 -0.069438554909536501
leaf_count=20732 20 671 1732 10217 678 7665 600279 37259 32 637 3852 8763 296 311 653 515 21 381 2074 6695 686 24 145 120 3949 1919 854 711 2158 860
internal_value=0 1.4220477006404662 -1.3530896855934436 -1.4110653997415212 1.4751946452682507 1.4464989565451223 -1.3503867291702856 -1.3673115118999257 -1.4501277515076167 1.5412387145566664 1.5571675761941151 -1.4510538144107383 1.3554971465576566 1.4937995504376818 1.4663092647518841 1.4441265331562667 -1.3492438723190563 -1.4009851753148501 1.476243342360827 1.4045641458068538 -1.4962941147021571 -1.3588069185476872 -1.3861381470802703 -1.3897697876116575 -1.4412536617566738 -1.4994780870674655 1.4695264229842098 -1.4333287130834367 -1.3769270833396698 -1.4082559436570476
internal_count=714909 45633 669276 28033 24090 17105 641243 39702 15369 6985 5695 15349 21543 1843 1290 811 601541 1262 9739 7366 2637 12664 2447 2423 12712 2605 1532 2443 2278 1241
shrinkage=0.05
has_categorical=0


Tree=14
num_leaves=31
split_feature=0 21 21 15 13 2 12 13 19 20 13 0 2 12 20 12 22 20 19 22 0 13 13 22 0 22 4 14 20 21
split_gain=62834.650967795635 20.789982439484447 16.359918330563232 9.4636052099049266 6.8358754720302386 3.0887441006543668 2.7391470344136906 2.459803610380277 1.9394569317228161 1.947424148220307 1.8249618792842739 1.6956453347811475 5.1814554351053275 1.5278723556421028 1.2127404552325061 0.83772776767409596 0.83400394835882707 1.1921218721691957 0.71712283046531411 0.54868857489782386 0.78180581633176871 0.5236246267113529 0.73088909759553644 0.4836649494491212 0.44330292880567868 0.45644159896255587 0.70951347540972165 0.43984630064915109 0.43810533731311807 0.39547461244910664
threshold=63456 20170227.5 20170227.5 40.5 2.5 3.5 2017.5 3.5 9.9999996826552254e-21 20170201.5 8.5 67212.5 131.5 2017.5 20170166 2016.5 9.9999996826552254e-21 20170129.5 9.9999996826552254e-21 9.9999996826552254e-21 71207.5 8.5 5.5 9.9999996826552254e-21 67212.5 9.9999996826552254e-21 9.9999996826552254e-21 18.5 20170122.5 20170128.5
decision_type=0 0 0 0 0 0 0 0 0 0 0 0 0 0 0 0 0 0 0 0 0 0 0 0 0 0 0 0 0 0
default_value=0 0 0 0 0 0 0 0 0 0 0 0 0 0 0 0 0 0 0 0 0 0 0 0 0 0 -9.9999996826552254e-21 0 0 0
left_child=1 4 3 11 6 -6 -1 16 9 -4 13 12 -2 29 18 -12 17 -3 -9 -10 -21 22 -13 -16 -5 -26 -27 -24 -17 -7
right_child=2 7 8 24 5 10 -8 14 19 -11 15 21 -14 -15 23 28 -18 -19 -20 20 -22 -23 27 -25 25 26 -28 -29 -30 -31
leaf_parent=6 12 17 9 24 5 29 6 18 19 9 15 22 12 13 23 28 16 17 18 20 20 21 27 23 25 26 26 27 28 29
leaf_value=0.066289843493302358 -0.0086053223085525692 0.068597905199955164 -0.070169046011987576 -0.054017593306583706 0.067004144021205678 0.06693414208300906 0.071834497613246492 0.07213376872444914 -0.066317683821024681 -0.066937465442261507 0.066525676033071593 -0.070817868972432488 -0.072342826314591463 0.071951392463120753 0.077186862407825768 0.071659198164412144 0.068752334470328691 0.076078478399259256 0.077505306102683344 -0.047592737129526719 -0.069025724134237215 -0.070366252073261262 -0.074048698758124559 0.074138084256091641 -0.066449489159701114 -0.077480839842625618 -0.06778272393198867 -0.07121178804280294 0.073773971755250078 0.069155529095508289
leaf_count=15460 20 433 2443 35 4239 1231 1142 1371 600279 37259 360 4777 54 2452 3367 4079 930 635 346 21 1241 7755 1745 714 10195 86 2348 1018 1572 7302
internal_value=0 1.3930933819790816 -1.3299844769369249 -1.382948316819169 1.3701197571146455 1.3960402707788324 1.3344168942390642 1.4926313256403059 -1.3275078652562076 -1.3430270684368522 1.4089381833437769 -1.4185023109249071 -1.0926622532463515 1.3915797896172037 1.5140381070987228 1.4391668613865589 1.4252312007268171 1.4656706670392179 1.465636655347974 -1.3264590131239655 -1.3731305234818334 -1.4201314352629146 -1.4329956374981456 1.5334026459642103 -1.3351741292671713 -1.3359059283024488 -1.3637475893616131 -1.460699630935012 1.4452442102415541 1.3770046294614962
internal_count=714909 45633 669276 28033 37837 21235 16602 7796 641243 39702 16996 15369 74 10985 5798 6011 1998 1068 1717 601541 1262 15295 7540 4081 12664 12629 2434 2763 5651 8533
shrinkage=0.05
has_categorical=0


Tree=15
num_leaves=31
split_feature=0 8 21 15 21 8 8 19 20 22 20 19 21 8 8 0 14 22 0 22 8 20 13 20 13 21 4 21 21 18
split_gain=58901.019604814879 21.825043873257528 13.344062823045533 7.5681252125177707 6.3113325294307288 2.9691751046220816 1.8541589791047954 1.6174921070341952 1.5880247090281046 1.249013933653714 1.5445482580753378 1.0076011987778202 0.93864842307084473 0.91213451359817554 0.6388848511900278 0.57952187118416987 0.53055390879825381 0.51756355637917295 0.40510085639198223 0.40926954775204649 0.77902945742266638 0.36668446726980619 0.3554878218005797 0.29699204843109328 0.26590701753934809 0.26088331912944795 0.22320995268495381 0.1941478103336749 0.15336031722381449 0.15025620278902352
threshold=63456 20170301.5 20170227.5 40.5 20170227.5 20170818.5 20170203.5 9.9999996826552254e-21 20170201.5 9.9999996826552254e-21 20170201.5 9.9999996826552254e-21 20170227.5 20170818.5 20170328.5 71207.5 27.5 9.9999996826552254e-21 67212.5 9.9999996826552254e-21 20170818.5 20170123.5 5.5 20170122.5 5.5 20170303.5 9.9999996826552254e-21 20170303.5 20170128.5 52.5
decision_type=0 0 0 0 0 0 0 0 0 0 0 0 0 0 0 0 0 0 0 0 0 0 0 0 0 0 0 0 0 0
default_value=0 0 0 0 0 0 0 0 0 0 0 0 0 0 0 0 0 0 0 0 0 0 0 0 0 0 -9.9999996826552254e-21 0 0 0
left_child=1 12 3 6 5 22 -2 8 27 10 11 25 -1 15 -11 -8 -14 29 -5 -20 -21 -7 -3 -15 -17 -6 -19 -4 -22 -9
right_child=2 4 7 18 9 21 13 17 -10 14 -12 -13 16 23 -16 24 -18 26 19 20 28 -23 -24 -25 -26 -27 -28 -29 -30 -31
leaf_parent=12 6 22 27 18 25 21 15 29 8 14 10 11 16 23 14 24 16 26 19 20 28 21 22 23 24 25 26 27 28 29
leaf_value=0.065380295438516159 -0.038699133818171368 0.070048933701531715 -0.068143293856737217 -0.0539870244070767 0.071878329183136649 0.070248232847840236 -0.055357194806768539 -0.067151407876645308 -0.065847303442089888 0.067503678814194473 0.075205854751924095 0.075817400886355954 0.072821455617386607 -0.069488617061652533 0.07241194688459078 -0.069667984794093793 0.066938219813230435 -0.055990397358855595 -0.065394525807247458 -0.074396494954139275 -0.070379417823734206 0.071922758283611943 0.067344201584333865 -0.068310719397089922 -0.07219069136705912 0.06910383081766161 -0.067756532501585087 -0.070316814297567462 -0.066253704895719454 -0.065268983596967714
leaf_count=20812 21 659 1773 39 686 7707 26 558 37134 654 3592 474 299 8780 663 696 508 21 10136 153 117 1950 6718 3911 1905 1020 1261 712 2163 599761
internal_value=0 1.3666794201434516 -1.3087711375597713 -1.3574385567464051 1.4109096623860902 1.3870020027825374 -1.3896893164700239 -1.3064956530429492 -1.3209242156776084 1.4644632382366831 1.4776597481471894 1.4311487465969159 1.3108082320569121 -1.3906626961940718 1.4022532633106679 -1.4275242437817988 1.3859204948824839 -1.3055218108126712 -1.3138389779896567 -1.3145951420934103 -1.3413551935606918 1.4118987481600156 1.3520079974901895 -1.3826518106107748 -1.4308044281726646 1.4051626216558677 -1.3512284991105561 -1.3757703319977188 -1.3297257481249813 -1.3054168036553977
internal_count=714909 45742 669167 27947 24123 17034 15339 641220 39619 7089 5772 2180 21619 15318 1317 2627 807 601601 12608 12569 2433 9657 7377 12691 2601 1706 1282 2485 2280 600319
shrinkage=0.05
has_categorical=0


Tree=16
num_leaves=31
split_feature=0 8 21 15 21 8 0 2 19 20 8 21 13 20 19 14 0 20 13 21 20 8 13 15 15 20 8 21 21 33
split_gain=55152.024882917525 17.773904689227493 10.870708610687871 6.1560810571972979 5.0907872521074751 2.4098483621100968 1.8777249466411376 5.129689354682494 1.3275694064795971 1.2984690656430757 0.89872694039058842 0.76923882622577366 0.73960538634173645 0.81929066862312538 0.47777545507358354 0.43058993177749016 0.41306187400368799 0.29649002540872971 0.28972418894909424 0.28836552156144535 0.23879516309079918 0.23782089431784925 0.21403311177073192 0.20225601474032828 0.60470283797798174 0.27606774226873654 0.19697670542518608 0.19639711715035446 0.15766864043018813 0.12032942593214102
threshold=63456 20170301.5 20170227.5 40.5 20170227.5 20170818.5 67212.5 167.5 9.9999996826552254e-21 20170201.5 20170818.5 20170227.5 3.5 20170166 9.9999996826552254e-21 27.5 67212.5 20170123.5 5.5 20170212.5 20170122.5 20170818.5 5.5 39.5 38.5 20170130.5 20170325.5 20170309.5 20170303.5 3.1388888888888893
decision_type=0 0 0 0 0 0 0 0 0 0 0 0 0 0 0 0 0 0 0 0 0 0 0 0 0 0 0 0 0 0
default_value=0 0 0 0 0 0 0 0 0 0 0 0 0 0 0 0 0 0 0 0 0 0 0 0 0 0 1.7976931348623157e+308 0 0 0
left_child=1 11 3 6 5 18 7 -2 9 28 22 -1 23 14 27 -13 -5 -7 -3 21 -12 -18 -8 24 25 -6 -10 -14 -4 -28
right_child=2 4 8 16 12 17 10 -9 26 -11 20 15 13 -15 -16 -17 19 -19 -20 -21 -22 -23 -24 -25 -26 -27 29 -29 -30 -31
leaf_parent=11 7 18 28 16 25 17 22 7 26 9 20 15 27 13 14 15 21 17 18 19 20 21 22 23 24 25 29 27 28 29
leaf_value=0.064407161310878661 -0.0042181746409698743 0.068696077148847901 -0.066948872107879615 -0.052712420117492054 0.067099787434260802 0.068876002127711486 -0.06841142650028402 -0.069286766001683847 -0.065075672814331229 -0.064837417833605249 -0.068175096008646643 0.071226791025256114 0.070176538920167564 0.072965887931236831 0.073902488094030633 0.065844876361784779 -0.072723871470398577 0.070404138851399581 0.066215877856035457 -0.064539655153676309 -0.067099467457979317 -0.066019402495824872 -0.070696460774865091 0.071353618654978163 0.065184810467775731 0.072379920307362719 -0.066022587277681455 0.067424553297585108 -0.068938494697831032 -0.064302865013339025
leaf_count=20812 20 659 1773 39 189 7707 703 52 4701 37134 8739 299 876 3942 303 508 66 1950 6718 11384 3896 1119 1929 401 469 379 554 530 712 596346
internal_value=0 1.3424688599187249 -1.2892063077444342 -1.3338590217957471 1.3829430689322053 1.3611011914359292 -1.3633746577222696 -1.0064524308670124 -1.2871132877735367 -1.3004137247763323 -1.365129307296054 1.2910991196786097 1.4316893012587735 1.4425789509182751 1.4016485565104941 1.3601783503695857 -1.2938107135581134 1.3838558406613359 1.3290269685726841 -1.2945910118565265 -1.3570005942393373 -1.3290636978877841 -1.4021860946372244 1.3857828399815588 1.3685143714613095 1.4151570969000848 -1.2862149310419586 1.3836318465057522 -1.3508071799539594 -1.2860912200347361
internal_count=714909 45742 669167 27947 24123 17034 15339 72 641220 39619 15267 21619 7089 5651 1709 807 12608 9657 7377 12569 12635 1185 2632 1438 1037 568 601601 1406 2485 596900
shrinkage=0.05
has_categorical=0


Tree=17
num_leaves=31
split_feature=21 8 22 15 8 19 20 22 15 8 21 8 8 8 21 18 20 15 8 20 20 1 23 8 8 13 2 8 13 21
split_gain=20992.921679143008 4927.134015764399 1196.1983197078516 1135.0277810408159 1028.7719096444021 662.15402008465026 617.93692874218505 614.30029691780214 989.24209315322582 158.85473612270835 158.75824751608934 120.48819949089703 108.4045044338514 98.436161953672524 88.660583266302325 77.73176353884628 74.913586195711389 54.508594142528075 53.816416902816854 52.118385687563006 49.015678504579 46.383535457193915 42.540599245748851 40.060086490598223 32.918012354716637 35.099609812726868 46.521475707836771 30.497896666272609 29.73936684490404 30.898244139413976
threshold=20170227.5 20170818.5 9.9999996826552254e-21 40.5 20170311.5 9.9999996826552254e-21 20170201.5 9.9999996826552254e-21 39.5 20170818.5 20170128.5 20170328.5 20170606.5 20170619.5 20170308.5 52.5 20170123.5 39.5 20170328.5 20170118.5 20170130.5 25.5 20161213.5 20170606.5 20180429.5 3.5 72.5 20170913.5 8.5 20170301.5
decision_type=0 0 0 0 0 0 0 0 0 0 0 0 0 0 0 0 0 0 0 0 0 0 0 0 0 0 0 0 0 0
default_value=0 0 0 0 1.7976931348623157e+308 0 0 0 0 0 0 0 1.7976931348623157e+308 0 0 0 0 0 1.7976931348623157e+308 0 0 0 0 1.7976931348623157e+308 0 0 0 0 0 0
left_child=1 4 5 16 -1 6 11 8 12 21 27 -2 -6 -14 28 -7 22 -11 20 -15 -17 -4 -3 -9 25 -24 -27 -5 -13 -30
right_child=2 3 9 10 7 15 -8 23 -10 17 -12 14 13 19 -16 18 -18 -19 -20 -21 -22 -23 24 -25 -26 26 -28 -29 29 -31
leaf_parent=4 11 22 21 27 12 15 6 23 8 17 10 28 13 19 14 20 16 17 18 19 20 21 25 23 24 26 26 27 29 29
leaf_value=0.063275022508966397 0.061984404595901946 0.0086786803178085584 0.042790813830310331 -0.027500655157300869 -0.0068434100807825572 -0.02573386746271546 -0.052690315185573537 -0.0055566677870588534 -0.05882476317644908 0.001587657933956823 -0.060041143430541281 -0.0067037831715568187 0.048069047143058943 0.029730072961032028 0.019057669098584279 0.054620607510180302 -0.020863061078324002 -0.047482062533534146 -0.063140583795936775 0.0044120130297250759 -0.052285878395255114 -0.0081866178186689627 0.00063321302539410033 0.056058801495112165 0.015866511939017568 0.0079238319428128739 -0.015633463698477155 0.044203583289573654 -0.042426523165793727 -0.01362995291143141
leaf_count=16922 339 2459 1466 121 1232 760 39831 142 2730 675 9913 1139 2713 2801 923 56 5375 568 595748 1753 5299 282 3620 5338 739 1265 8434 236 1162 868
internal_value=0 0.17870119175407334 -1.2303425441168754 -0.46437422986427607 0.83284953324140465 -1.2378448158444684 -0.95565136410128582 0.4233265934001702 0.11257072761010821 0.23613024457489207 -1.1412838279361208 -0.14032918605667638 0.49047859170697039 0.60051889435595951 -0.24555996121813753 -1.2595364277458603 -0.18047889817797558 -0.39986862444071897 -1.2605753105682873 0.39633877983682642 -1.0206812536781062 0.68747123776228014 -0.10444656943764029 1.0860346991963983 -0.15302596214772135 -0.17912778360897499 -0.25117072641433241 0.38661242833360454 -0.42906960388414378 -0.59813373948293735
internal_count=714909 65793 649116 32162 33631 646125 44262 16709 11229 2991 10270 4431 8499 7267 4092 601863 21892 1243 601103 4554 5355 1748 16517 5480 14058 13319 9699 357 3169 2030
shrinkage=0.05
has_categorical=0


Tree=18
num_leaves=31
split_feature=0 8 21 15 21 8 0 7 22 20 8 21 22 8 14 18 15 0 20 8 22 8 15 15 20 20 13 21 8 0
split_gain=50042.153607268468 21.311378459751722 13.047432207968086 7.2121252677407028 6.4509490860400547 3.0171863671712345 1.857655516284467 4.9610320053504697 1.5969863626137339 1.6344813001610419 1.1455625566268282 0.84172755648705788 0.63088381924899295 0.48051504137077927 0.45096028838793245 0.44022342388052493 0.43866282113822308 0.43050397234082993 0.41591206856173812 0.37937344321198907 0.34529535272213252 0.88081730845306083 0.31410053337458521 0.61732796534488443 0.82860512166462286 0.28261939433377847 0.28052137980205316 0.23533740950722404 0.21852549740282257 0.24093065307178563
threshold=63456 20170301.5 20170227.5 40.5 20170227.5 20170818.5 67212.5 20150703.5 9.9999996826552254e-21 20170166 20170818.5 20170227.5 9.9999996826552254e-21 20170328.5 27.5 240 38.5 67212.5 20170123.5 20170606.5 9.9999996826552254e-21 20170818.5 38.5 37.5 20170201.5 20170123.5 5.5 20170308.5 20170817.5 82861.5
decision_type=0 0 0 0 0 0 0 0 0 0 0 0 0 0 0 0 0 0 0 0 0 0 0 0 0 0 0 0 0 0
default_value=0 0 0 0 0 0 0 1.7976931348623157e+308 0 0 0 0 0 0 0 1.7976931348623157e+308 0 0 0 0 0 0 0 0 0 0 0 0 1.7976931348623157e+308 0
left_child=1 11 3 6 5 19 7 -2 9 16 26 -1 15 -10 -13 22 27 -5 -7 -3 -19 -22 23 -4 -25 -12 -8 -6 -14 -30
right_child=2 4 12 17 8 18 10 -9 13 -11 25 14 28 -15 -16 -17 -18 20 -20 -21 21 -23 -24 24 -26 -27 -28 -29 29 -31
leaf_parent=11 7 19 23 17 27 18 26 7 13 9 25 14 28 13 14 15 16 20 18 19 21 21 22 24 24 25 26 27 29 29
leaf_value=0.062709756658315782 -0.067996523215394664 0.06744965936817969 -0.062691864419247761 -0.050441635984871884 0.069277235908124554 0.067677385548800484 -0.067111830811678333 -0.0034325059695110328 0.064757272492551657 0.072782073710829093 -0.066852112468856056 0.06990206786978008 -0.067486741092540881 0.06918429673324622 0.064272648960831638 -0.065072457817263077 0.073909336191028838 -0.062735284747602496 0.069507770564060309 0.064636952480813012 -0.072261346807038981 -0.063679058987669318 -0.062592680711874876 -0.066237638165259752 -0.063192208898723443 -0.065634065668457059 -0.069769647420776237 0.066553615164054017 -0.051361185962627398 -0.064500292056447778
leaf_count=20812 52 700 133485 39 1017 7707 703 20 654 3881 8980 299 391 663 508 1053 172 10136 1950 6677 153 2280 482573 1293 21534 3655 1929 702 20 871
internal_value=0 1.3162166504853199 -1.2554609376544235 -1.3055958452762524 1.3607839129924 1.3355523472652362 -1.3378083218746717 -0.97810515543136978 1.4160400885335815 1.4310557610350618 -1.3395939467960198 1.2574371228514487 -1.2530570826219154 1.342716557961094 1.3314438943927156 -1.2529403637639114 1.3758360407282255 -1.2603962906168251 1.3612024683916295 1.2985215516290034 -1.261226540398364 -1.287001450025498 -1.2528523230587616 -1.2559089900240024 -1.2676687726710794 -1.3301823618537536 -1.3818876717452708 1.3642805926873993 -1.3053775270130521 -1.2839536390134203
internal_count=714909 45742 669167 27947 24123 17034 15339 72 7089 5772 15267 21619 641220 1317 807 639938 1891 12608 9657 7377 12569 2433 638885 156312 22827 12635 2632 1719 1282 891
shrinkage=0.05
has_categorical=0


Tree=19
num_leaves=31
split_feature=0 8 21 15 21 8 0 2 19 20 8 13 20 21 19 0 13 20 8 20 21 8 13 8 21 1 15 15 20 21
split_gain=46980.87984495546 17.497098486137475 10.714641183643835 5.9140844020657823 5.2481610335034929 2.4682554712471756 1.8554471843153806 4.9038657258062841 1.3006505110824946 1.2271636904188199 0.93582275247354119 0.7069550730152514 0.82533364046912538 0.69646212553288933 0.534135138836632 0.44196823309130195 0.36350135430836872 0.338936813476721 0.31170553904485132 0.23157278833059536 0.23075778919746881 0.26966783288565921 0.22791800711195265 0.21691537057631649 0.20331913796775325 0.19624738949107723 0.32716077197778759 0.29003921643658259 0.28638698755156611 0.16918096063295707
threshold=63456 20170301.5 20170227.5 40.5 20170227.5 20170818.5 67212.5 167.5 9.9999996826552254e-21 20170201.5 20170818.5 3.5 20170166 20170227.5 9.9999996826552254e-21 67212.5 2.5 20170123.5 20170606.5 20170123.5 20170212.5 20170818.5 5.5 20170328.5 20170308.5 25.5 38.5 39.5 20170130.5 20170303.5
decision_type=0 0 0 0 0 0 0 0 0 0 0 0 0 0 0 0 0 0 0 0 0 0 0 0 0 0 0 0 0 0
default_value=0 0 0 0 0 0 0 0 0 0 0 0 0 0 0 0 0 0 0 0 0 0 0 1.7976931348623157e+308 0 0 0 0 0 0
left_child=1 13 3 6 5 18 7 -2 9 29 22 25 14 -1 24 -5 -15 -7 -3 -12 21 -17 -8 -10 -13 26 28 -28 -6 -4
right_child=2 4 8 15 11 17 10 -9 23 -11 19 12 -14 16 -16 20 -18 -19 -20 -21 -22 -23 -24 -25 -26 -27 27 -29 -30 -31
leaf_parent=13 7 18 29 15 28 17 22 7 23 9 19 24 12 16 14 21 16 17 18 19 20 21 22 23 24 25 27 27 28 29
leaf_value=0.061937536264222229 -0.00231299417721214 0.06631525995679495 -0.06447726667309181 -0.049298847521303181 0.064445975120755006 0.066522110598715864 -0.066004148541982069 -0.067000553565810181 -0.062639927014295035 -0.062386863699722989 -0.065763144051256051 0.067895720733008688 0.070775290159782081 0.063511933398914464 0.071899106102433455 -0.070675420160925401 0.068705813243378711 0.068200990572259187 0.063722335301024058 -0.064641208908425701 -0.062083499507928588 -0.063381119494669069 -0.068439864822447252 -0.061829966431648453 0.065034454958967647 0.070039890314430961 0.062794458373998094 0.068005510086947205 0.070221477528543144 -0.066610863536542261
leaf_count=20812 20 700 1773 39 177 7707 703 52 5198 37134 8980 842 3942 527 303 66 280 1950 6677 3655 11384 1119 1929 596403 564 225 468 214 354 712
internal_value=0 1.2960942315616093 -1.2399117337874614 -1.2861522484688526 1.3370890334757237 1.3139095874253277 -1.3157873433407772 -0.95206317385547479 -1.2376888445808256 -1.2515359262966148 -1.3176118049991872 1.3876582309119279 1.3984598858393438 1.2417613135140875 1.3560623161756349 -1.2444134312525699 1.3102410915825569 1.3374729064092408 1.2797900147886776 -1.3089495037454182 -1.2452748798295812 -1.2776269252455874 -1.3564439716583021 -1.2367444435330619 1.3361520104836921 1.3411495029591185 1.3287449319480966 1.2926085468783974 1.369978003767149 -1.3024083353643681
internal_count=714909 45742 669167 27947 24123 17034 15339 72 641220 39619 15267 7089 5651 21619 1709 12608 807 9657 7377 12635 12569 1185 2632 601601 1406 1438 1213 682 531 2485
shrinkage=0.05
has_categorical=0


Tree=20
num_leaves=31
split_feature=0 8 21 15 21 8 8 22 19 8 0 21 0 7 22 0 21 8 14 8 19 22 8 21 13 21 0 7 21 15
split_gain=43952.033508686451 14.25120548382074 8.8787187087291386 4.9919988573692535 4.1699893430486554 2.012264675771803 1.8425823176712584 1.0471132403768024 1.0153092071705032 0.62961831776829058 0.57292133974817716 0.5504599370615324 0.43974615620118129 0.53211351687673325 0.36990057717775926 0.98628611002641264 0.35688774595655559 0.3265763938895816 0.29511473869098381 0.25710619535357182 0.25182835676514514 0.21986433493293589 0.60675435693019608 0.21867691629381625 0.18263093556174681 0.16181700217475736 0.15666212960968551 1.0750008579806298 0.14901622443994711 0.15963555570147037
threshold=63456 20170301.5 20170227.5 40.5 20170227.5 20170818.5 20170205.5 9.9999996826552254e-21 9.9999996826552254e-21 20170818.5 71207.5 20170227.5 67212.5 20150619.5 9.9999996826552254e-21 71207.5 20170303.5 20170328.5 19.5 20170606.5 9.9999996826552254e-21 9.9999996826552254e-21 20170818.5 20170305.5 5.5 20170221.5 67212.5 20151109.5 20170214.5 40.5
decision_type=0 0 0 0 0 0 0 0 0 0 0 0 0 0 0 0 0 0 0 0 0 0 0 0 0 0 0 0 0 0
default_value=0 0 0 0 0 0 0 0 0 0 0 0 0 1.7976931348623157e+308 0 0 0 0 0 0 0 0 0 0 0 0 0 0 0 0
left_child=1 11 3 6 5 19 -2 20 16 10 -8 -1 13 -5 -10 -16 -4 -9 -13 -3 23 -14 -23 -6 -12 -11 27 -18 -7 -30
right_child=2 4 8 12 7 28 9 17 14 25 24 18 21 -15 15 -17 26 -19 -20 -21 -22 22 -24 -25 -26 -27 -28 -29 29 -31
leaf_parent=11 6 19 16 13 23 28 10 17 14 25 24 18 21 13 15 15 27 17 18 19 20 22 22 23 24 25 26 27 29 29
leaf_value=0.061224136656407274 -0.033394912263967992 0.065259968148257547 -0.063473498205592768 -0.06293259415190644 0.066712854396111021 0.065338822884091041 -0.049863427183722789 0.062939065742587591 -0.061121793867660174 -0.064782855740930442 -0.064922803262148235 0.067367171856012167 -0.061239485402781284 -0.034487302366018151 -0.037085344109983882 -0.063654152938341577 -0.061787316822057181 0.066740081492983813 0.062580280724775533 0.062880410008299026 0.070024639635878891 -0.069492795686557182 -0.062005997925992151 0.068701708420583596 -0.067169383982119218 -0.063869950105026718 -0.06172230903364722 -0.030408435213903368 0.066146009505648709 0.070477441853291065
leaf_count=20774 21 712 1799 20 939 5125 26 647 600309 8450 676 284 10241 20 20 1249 135 655 505 6630 1353 146 2282 3317 1969 4244 37725 20 4510 106
internal_value=0 1.2772582555391996 -1.2254569828649819 -1.2682025650427977 1.3149842260993587 1.2941750869195527 -1.2958599725320545 1.361557445435891 -1.2233865504464001 -1.2969426825331214 -1.3290487098175283 1.227189867635412 -1.2292588677272438 -0.97112758716157954 -1.2225349936172345 -1.2642021830986212 -1.2358468557439477 1.2997866472682544 1.2899081992756851 1.2626260602437065 1.3743147216946157 -1.2301439946552215 -1.2515523817732745 1.3655799572083112 -1.3325140844505985 -1.2896940287069196 -1.2341128004340465 -1.1533831818127829 1.3156219863906429 1.3251374873669208
internal_count=714909 45557 669352 28095 23994 17083 15386 6911 641257 15365 2671 21563 12709 40 601578 1269 39679 1302 789 7342 5609 12669 2428 4256 2645 12694 37880 155 9741 4616
shrinkage=0.05
has_categorical=0


Tree=21
num_leaves=31
split_feature=0 8 21 15 21 8 8 22 20 19 20 8 21 0 7 19 22 0 8 4 20 8 22 8 0 7 20 21 13 0
split_gain=41327.621332317707 11.773902370645374 7.3184210160688963 4.1148153936292147 3.4231823659365546 1.8937942619459136 1.656444597256268 0.85625639697900624 0.84600380025403865 0.84122271472006105 0.84355016793415416 0.55182826036343613 0.45763756897576968 0.45235237603037604 0.52717534076209915 0.43094133884801522 0.29405513034726027 0.98714410891557236 0.26831879778546863 0.23950695015858514 0.23086644076329321 0.21249901034525465 0.18311925390435135 0.49947557152870559 0.16355983669291163 1.0594098449542884 0.15828270301381053 0.15214785017303711 0.14308319227404809 0.17241713320743202
threshold=63456 20170301.5 20170227.5 40.5 20170227.5 20170328.5 20170818.5 9.9999996826552254e-21 20170166 9.9999996826552254e-21 20170201.5 20170818.5 20170227.5 67212.5 20150619.5 9.9999996826552254e-21 9.9999996826552254e-21 71207.5 20170328.5 9.9999996826552254e-21 20170123.5 20170606.5 9.9999996826552254e-21 20170818.5 67212.5 20151022.5 20170122.5 20170303.5 5.5 71207.5
decision_type=0 0 0 0 0 0 0 0 0 0 0 0 0 0 0 0 0 0 0 0 0 0 0 0 0 0 0 0 0 0
default_value=0 0 0 0 0 0 0 0 0 0 0 0 0 0 1.7976931348623157e+308 0 0 0 0 -9.9999996826552254e-21 0 0 0 0 0 1.7976931348623157e+308 0 0 0 0
left_child=1 12 3 5 6 -2 21 8 15 10 -4 28 -1 14 -5 27 -11 -18 -9 -14 -8 -3 -15 -24 25 -12 -13 -6 -7 -30
right_child=2 4 9 13 7 11 20 18 -10 16 24 26 19 22 -16 -17 17 -19 -20 -21 -22 -23 23 -25 -26 -27 -28 -29 29 -31
leaf_parent=12 5 21 10 14 27 28 20 18 8 16 25 26 19 22 14 15 17 17 18 19 20 21 23 23 24 25 26 27 29 29
leaf_value=0.060557865060753224 -0.037914888844841468 0.064299011855540975 -0.063303349935191502 -0.062145364695295552 0.065777992369112109 -0.063910003351644706 0.06447992731422604 0.062153450727865336 0.06841711522229757 -0.060462377979220432 -0.060970227623628671 -0.063860822690098559 0.06686700859806731 -0.060571896201839948 -0.033422816706250781 0.069040499721919849 -0.035963256604723104 -0.062815243784470912 0.065661521163096356 0.062180667662037642 0.065911341899090439 0.062096656524799676 -0.068188861080444405 -0.06128625483954267 -0.060940784413991402 -0.029445031259636698 -0.062916986696288299 0.063368051495244146 -0.055675059106935147 -0.066055656890130585
leaf_count=20774 33 712 2416 20 664 669 7792 647 3761 600309 133 8820 209 10241 20 322 20 1249 655 580 1949 6630 146 2282 37110 20 3874 862 21 1969
internal_value=0 1.2601296998486116 -1.2120477526548739 -1.2515814695503045 1.2949855307057159 -1.2771210352595912 1.2757679075371962 1.3378615364845017 1.3495685010303917 -1.2101286019949673 -1.2216922595755604 -1.278517019764674 1.2136783413430716 -1.2155035334902493 -0.94995358195207991 1.3073086430536907 -1.2093378104333103 -1.2471778765561403 1.2809774415440991 1.2719086174609631 1.2955553159432995 1.2465866047964369 -1.2164238263748859 -1.2363346007668632 -1.2184638938997572 -1.1337616617382964 -1.2716148921478874 1.2894335638101311 -1.3091758208079374 -1.3188153159322502
internal_count=714909 45557 669352 28095 23994 15386 17083 6911 5609 641257 39679 15353 21563 12709 40 1848 601578 1269 1302 789 9741 7342 12669 2428 37263 153 12694 1526 2659 1990
shrinkage=0.05
has_categorical=0


Tree=22
num_leaves=31
split_feature=0 8 21 15 21 8 8 19 20 0 29 8 13 20 21 19 14 20 8 0 2 0 13 8 20 21 8 21 15 15
split_gain=38886.809634122823 9.7476354043501487 6.0404152460687328 3.3988559490626358 2.8129698170905613 1.9398821973400118 1.3674008132657036 0.69719584590347949 0.70258990431830171 0.46567406867370664 0.54725364160407519 0.44982279859686969 0.39418024267615692 0.42721010857417241 0.38134598537362763 0.29120889568696384 0.20210461858758322 0.19003199543158189 0.17608164148191463 0.16683962630486349 1.0832006877578593 0.13836925535338196 0.13216121187929275 0.13152371767500881 0.13083728271521977 0.1231790807478319 0.15520788168805666 0.11699688118238782 0.10964990218616322 0.17180034506071706
threshold=63456 20170301.5 20170227.5 40.5 20170227.5 20170328.5 20170818.5 9.9999996826552254e-21 20170201.5 67212.5 14.5 20170818.5 3.5 20170166 20170227.5 9.9999996826552254e-21 19.5 20170123.5 20170606.5 67212.5 121.5 71207.5 5.5 20170328.5 20170122.5 20170212.5 20170818.5 20170308.5 40.5 38.5
decision_type=0 0 0 0 0 0 0 0 0 0 0 0 0 0 0 0 0 0 0 0 0 0 0 0 0 0 0 0 0 0
default_value=0 0 0 0 0 0 0 0 0 0 0 0 0 0 0 0 0 0 0 0 0 0 0 1.7976931348623157e+308 0 0 0 0 0 0
left_child=1 14 3 5 6 -2 18 8 -4 10 -5 21 28 15 -1 27 -16 -8 -3 20 -10 -7 -23 -9 -13 26 -11 -14 29 -6
right_child=2 4 7 9 12 11 17 23 19 25 -12 24 13 -15 16 -17 -18 -19 -20 -21 -22 22 -24 -25 -26 -27 -28 -29 -30 -31
leaf_parent=14 5 18 8 10 29 21 17 23 20 26 10 24 27 13 16 15 16 17 18 19 20 22 22 23 24 25 26 27 28 29
leaf_value=0.059937748130591099 -0.036548201818577493 0.063411318230778932 -0.062489160320185512 -0.061608857642234276 0.065108007001279999 -0.055721712415057079 0.063576783322830371 -0.060515889992749074 -0.028383855516796813 -0.066804559692439841 -0.031922979890568651 -0.063003938641799803 0.064675931348917845 0.066886570930780556 0.065216908561146134 0.06773721618915983 0.061111041831605366 0.064898502056924642 0.061369446220119486 -0.060293953724870578 -0.060412890490767049 -0.063036992268939315 -0.065030829062791437 -0.059846657156004394 -0.06212959929355355 -0.06004570101725272 -0.061030680944448815 0.062340500105251086 0.067079420530488751 0.062258089456592058
leaf_count=20774 33 712 2416 20 572 24 7792 5181 21 67 20 8820 813 3818 284 306 505 1949 6630 37110 132 666 1969 596397 3874 11505 1097 542 134 726
internal_value=0 1.2442577670957133 -1.1995682387025151 -1.2361703880705721 1.2765132513816613 -1.2597908780666867 1.258749931764876 -1.1977876925001958 -1.2085244300846341 -1.2027032079273599 -0.92939635269384946 -1.2612462042060213 1.3160279679267606 1.3246859617795885 1.2011059083555524 1.2921093438741589 1.2552549084933449 1.2770418035410009 1.2317112905685899 -1.2055161338962612 -1.118387050639025 -1.2894128534734097 -1.2911221535981638 -1.1970530020819115 -1.2548929201561732 -1.2036609756817058 -1.2289558956347131 1.2759349803315394 1.2793960635045605 1.2719754930728286
internal_count=714909 45557 669352 28095 23994 15386 17083 641257 39679 12709 40 15353 6911 5479 21563 1661 789 9741 7342 37263 153 2659 2635 601578 12694 12669 1164 1355 1432 1298
shrinkage=0.05
has_categorical=0


Tree=23
num_leaves=31
split_feature=0 21 21 15 13 0 2 2 12 22 20 13 19 20 0 24 12 19 12 13 22 0 13 13 0 27 20 14 22 22
split_gain=36613.776939181887 6.1718676960445009 4.9923986232315656 2.8116599505374325 2.1563553681871781 1.9926957969437353 5.2743158396951699 0.89977948435262078 0.78556380009331406 0.75738086587307407 0.79350236929440143 0.59655719560305442 0.5785281563148601 0.58654253671738843 0.4799227736971261 0.55983000100386349 0.45744233230698228 0.2739403734157122 0.27039866327709206 0.21956200694870631 0.18727768017561175 1.0392116485301699 0.1717311350394084 0.2258035551390094 0.17086546591781371 1.0820553304434419 0.14248743379584994 0.13833988147337095 0.1328308302915957 0.12950714478620284
threshold=63456 20170227.5 20170227.5 40.5 2.5 67212.5 155.5 2.5 2017.5 9.9999996826552254e-21 20170130.5 8.5 9.9999996826552254e-21 20170201.5 67212.5 2.5 2017.5 9.9999996826552254e-21 2016.5 3.5 9.9999996826552254e-21 71207.5 8.5 5.5 67212.5 2.5 20170123.5 18.5 9.9999996826552254e-21 9.9999996826552254e-21
decision_type=0 0 0 0 0 0 0 0 0 0 0 0 0 0 0 0 0 0 0 0 0 0 0 0 0 0 0 0 0 0
default_value=0 0 0 0 0 0 0 0 0 0 0 0 0 0 0 1.7976931348623157e+308 0 0 0 0 0 0 0 0 0 0 0 0 0 0
left_child=1 4 3 5 8 6 -2 -6 -1 10 17 16 13 -4 15 -5 28 -3 -13 -11 -14 -22 23 -7 25 -15 -20 -25 -9 -16
right_child=2 9 12 14 7 22 -8 11 -10 19 -12 18 20 24 29 -17 -18 -19 26 -21 21 -23 -24 27 -26 -27 -28 -29 -30 -31
leaf_parent=8 6 17 13 15 7 23 6 28 8 19 10 18 20 25 29 15 16 17 26 19 21 21 22 27 24 25 26 27 28 29
leaf_value=0.059251839273688336 0.006034934908527168 0.062343270626520411 -0.061734270419950416 -0.030577292411367807 0.05976948078648589 -0.062171634968643023 -0.063364157270160829 0.061204014946130994 0.062739329805463331 0.0607360766941199 0.066035500523190349 0.059390565852761049 -0.059276390284123161 -0.059864968637090836 -0.059370737133804266 -0.061036992729476769 0.062841879778132145 0.066131940855641821 0.062737028302528683 0.063626850796120696 -0.033026933285637841 -0.061338809293293488 -0.06186428839729511 -0.0641912619141915 -0.059691625791645234 -0.027793742273089006 0.064123433097297539 -0.062390177269477848 0.060034476573664869 -0.060459538660398229
leaf_count=15444 20 1642 2416 20 4231 4801 56 6140 1085 936 4040 387 600309 131 10241 20 2449 320 4253 762 20 1249 7691 1790 37110 22 1484 1028 2384 2428
internal_value=0 1.2295419661014668 -1.1879396376964033 -1.2218632260124305 1.2146061205521266 -1.2437353163735407 -0.85492210853518702 1.2311615733893917 1.190571359390159 1.2908574350064892 1.3028034524369714 1.2390001182783676 -1.1862861853128506 -1.196264299739034 -1.1907865290153621 -0.90933337611721465 1.2272958143646482 1.260884922958827 1.2583642020468295 1.2428297154745183 -1.1856030161121651 -1.2169518381750701 -1.2458462934165213 -1.2541540480520634 -1.1934571660426867 -1.1036364480485854 1.2622292362640244 -1.2713405218447866 1.2178571206698834 -1.191784443479889
internal_count=714909 45557 669352 28095 37857 15386 76 21328 16529 7700 6002 17097 641257 39679 12709 40 10973 1962 6124 1698 601578 1269 15310 7619 37263 153 5737 2818 8524 12669
shrinkage=0.05
has_categorical=0


Tree=24
num_leaves=31
split_feature=0 8 21 0 7 19 21 8 22 19 20 20 22 8 8 21 19 0 7 8 22 7 14 20 8 21 13 21 21 8
split_gain=34494.289562430844 6.7385185445164097 4.1313111220806604 2.3895963356771972 11.233596738167027 1.9575025386729976 1.9199137369141681 0.93996976822882061 0.4839754489742063 0.48060311286826618 0.49072473339765565 0.46888755973554908 0.3950677134430407 0.47433795271092549 0.27486174408477382 0.2637191218686894 0.24093639957067126 0.1755167633846213 1.1365667668583121 0.14996791100247719 0.14647058382979594 1.0604167638292097 0.1399135573522301 0.13047401329276909 0.12465883015647705 0.088629686383512762 0.077220398110625865 0.076658560246414709 0.074189769282952511 0.069069841679379351
threshold=63456 20170301.5 20170227.5 67212.5 20160126.5 9.9999996826552254e-21 20170227.5 20170818.5 9.9999996826552254e-21 9.9999996826552254e-21 20170201.5 20170166 9.9999996826552254e-21 20170818.5 20170818.5 20170227.5 9.9999996826552254e-21 67212.5 20151022.5 20170328.5 9.9999996826552254e-21 20170114.5 19.5 20170123.5 20170606.5 20170303.5 5.5 20170221.5 20170303.5 20170818.5
decision_type=0 0 0 0 0 0 0 0 0 0 0 0 0 0 0 0 0 0 0 0 0 0 0 0 0 0 0 0 0 0
default_value=0 0 0 0 1.7976931348623157e+308 0 0 0 0 0 0 0 0 0 0 0 0 0 1.7976931348623157e+308 0 0 1.7976931348623157e+308 0 0 0 0 0 0 0 0
left_child=1 15 3 4 -2 14 7 24 11 10 28 16 -7 -14 26 -1 25 18 -12 -10 -11 29 -17 -9 -3 -8 -5 -16 -4 -22
right_child=2 6 9 5 -6 12 8 23 19 20 17 -13 13 -15 27 22 -18 -19 -20 -21 21 -23 -24 -25 -26 -27 -28 -29 -30 -31
leaf_parent=15 4 24 28 26 4 12 25 23 19 20 18 11 13 13 27 22 16 17 18 19 29 21 22 23 24 25 26 27 28 29
leaf_value=0.058820150204577704 -0.062156208897451284 0.061846137312280162 -0.060550546498546277 -0.061489943574931538 0.034324508852486876 -0.05887846934266075 0.063010164216103712 0.061967958390267641 0.060100695313434704 -0.058742501850475248 -0.059229961323925773 0.065066469396013585 -0.064677092220284366 -0.059957986642953646 -0.06152188641848088 0.063375572846236169 0.065553928029931652 -0.059130047136715838 -0.025073222129103869 0.062877524726867792 -0.062030813100561355 -0.032800803356371262 0.05982775832481544 0.063103845680631973 0.060062520331223196 0.061066049597425426 -0.063136379278505558 -0.060801197544956512 -0.062112057486931965 -0.059971713899688618
leaf_count=20774 96 712 1713 613 20 10432 664 7792 647 600309 133 3761 345 3502 7499 284 322 37110 20 655 401 23 505 1949 6630 862 1850 3738 703 845
internal_value=0 1.2158703179530519 -1.1770904967406348 -1.2085616988307446 -0.85143710126538164 -1.2102441720615804 1.2436515936252579 1.228379374872498 1.2774476437114468 -1.1755537943496099 -1.1848348526534405 1.2866750473016604 -1.1868117952065826 -1.2096004158371783 -1.231348455107228 1.178443934615045 1.2534091811468984 -1.1822120172015667 -1.0894612110226694 1.2321444540736508 -1.1749180113702613 -1.2031863939777123 1.2252417352330847 1.2441006224432785 1.2050422131844691 1.239205335418718 -1.255016490242816 -1.22577225943775 -1.2206652138778307 -1.2137849966262457
internal_count=714909 45557 669352 28095 116 27979 23994 17083 6911 641257 39679 5609 14279 3847 13700 21563 1848 37263 153 1302 601578 1269 789 9741 7342 1526 2463 11237 2416 1246
shrinkage=0.05
has_categorical=0


Tree=25
num_leaves=31
split_feature=0 8 21 0 7 15 21 8 19 20 22 20 8 19 21 0 2 8 14 22 7 20 8 22 8 20 21 8 8 21
split_gain=32582.755397105924 5.6417269157645933 3.4048660325497622 2.6634598486607501 10.140556497282184 1.980304858548152 1.6211914821687969 0.78389851183828796 0.39893642874085344 0.40625472908141091 0.39495159173748107 0.3942401613498987 0.30536302014297689 0.2962318606744816 0.23313611486219088 0.17044287350654486 1.1364013410257563 0.12273807089809452 0.12026208619295176 0.11183077315217815 1.1170413653314313 0.10787522938426264 0.10283032284996807 0.09247732615995119 0.25023924717976342 0.074955585514544509 0.074501316557189057 0.068376812530573261 0.075081875519231289 0.061733352215128434
threshold=63456 20170301.5 20170227.5 67212.5 20160113.5 40.5 20170227.5 20170818.5 9.9999996826552254e-21 20170201.5 9.9999996826552254e-21 20170201.5 20170818.5 9.9999996826552254e-21 20170227.5 67212.5 119.5 20170818.5 27.5 9.9999996826552254e-21 20170114.5 20170123.5 20170606.5 9.9999996826552254e-21 20170818.5 20170123.5 20170303.5 20170319.5 20170602.5 20170303.5
decision_type=0 0 0 0 0 0 0 0 0 0 0 0 0 0 0 0 0 0 0 0 0 0 0 0 0 0 0 0 0 0
default_value=0 0 0 0 1.7976931348623157e+308 0 0 0 0 0 0 0 0 0 0 0 0 0 0 0 1.7976931348623157e+308 0 0 0 0 0 0 0 0 0
left_child=1 14 3 4 -2 12 7 22 9 29 11 13 27 26 -1 16 -11 -12 -16 -10 -21 -9 -3 -7 -25 -14 -8 -5 -29 -4
right_child=2 6 8 5 -6 23 10 21 19 15 17 -13 25 -15 18 -17 -18 -19 -20 20 -22 -23 -24 24 -26 -27 -28 28 -30 -31
leaf_parent=14 4 22 29 27 4 23 26 21 19 16 17 11 25 13 18 15 16 17 18 20 20 21 22 24 24 25 26 28 28 29
leaf_value=0.058315801716065853 -0.061558425143202526 0.061134977182158101 -0.05993183017621026 -0.068093159647608856 0.031313009094721837 -0.058326145636422522 0.062193172174666703 0.061251020782916492 -0.058243743940648955 -0.024733627338739437 0.060051690557496144 0.064196842535633764 -0.060774245595607471 0.064610196458144156 0.062541115564694091 -0.058605850644461305 -0.058815235632958041 0.062755146095775621 0.059234344852526058 -0.060062175014258291 -0.030495350695585767 0.062312703919289371 0.059475412465920308 -0.064079635835523049 -0.058873102826248996 -0.060057488566080591 0.060437503534484009 -0.060842109161341563 -0.062407530113388177 -0.061398410631429617
leaf_count=20808 83 704 1743 24 20 10021 667 7767 600499 21 924 3539 8982 484 303 37089 136 387 495 1238 22 1908 6660 147 2312 3630 1001 700 1917 678
internal_value=0 1.203238284984903 -1.1669458396399266 -1.1962288625646633 -0.79292472668899072 -1.1979726695603887 1.2290991692179289 1.2146740539567515 -1.1655266935253656 -1.1741598420781201 1.2604273107389841 1.2688252561608748 -1.2170675907064095 1.2411006516290137 1.1682873072385391 -1.1717190263699369 -1.0799481990407143 1.2188464808850747 1.2128425043824873 -1.1649353625572456 -1.1902162001165193 1.2293934475301218 1.1929931735371737 -1.1704701250666349 -1.1856318249002671 -1.2114882215650544 1.2236384726120628 -1.2416587758314119 -1.2402766909044969 -1.2073852888403838
internal_count=714909 45647 669262 27836 103 27733 24041 17039 641426 39667 7002 5691 15253 2152 21606 37246 157 1311 798 601759 1260 9675 7364 12480 2459 12612 1668 2641 2617 2421
shrinkage=0.05
has_categorical=0


Tree=26
num_leaves=31
split_feature=0 21 21 0 7 15 13 2 12 22 13 19 12 13 0 2 12 13 21 13 13 22 7 19 22 14 22 4 21 21
split_gain=30729.777079253196 3.6170459185777872 2.8209145123546477 2.6806066396075039 9.5750966786462488 1.6544708171986713 1.2468195853780344 0.51882640398525837 0.46732932586246534 0.42542988533614334 0.34658098257068559 0.3318633520975709 0.26092952422550297 0.17951014554682843 0.16302958722917538 1.2044304474061001 0.15235464742272598 0.12315307980026091 0.1165606734184621 0.098538758219092415 0.12356666991445309 0.085533505494822748 1.1214882465939695 0.080035226571453677 0.078969642675474461 0.078575336881272051 0.07771660168168637 0.16051715934992217 0.063199496785045994 0.055590688978327307
threshold=63456 20170227.5 20170227.5 67212.5 20160113.5 40.5 2.5 2.5 2017.5 9.9999996826552254e-21 8.5 9.9999996826552254e-21 2017.5 2.5 67212.5 113.5 2016.5 3.5 20170303.5 8.5 5.5 9.9999996826552254e-21 20170114.5 9.9999996826552254e-21 9.9999996826552254e-21 18.5 9.9999996826552254e-21 9.9999996826552254e-21 20170305.5 20170221.5
decision_type=0 0 0 0 0 0 0 0 0 0 0 0 0 0 0 0 0 0 0 0 0 0 0 0 0 0 0 0 0 0
default_value=0 0 0 0 1.7976931348623157e+308 0 0 0 0 0 0 0 0 0 0 0 0 0 0 0 0 0 1.7976931348623157e+308 0 0 0 0 -9.9999996826552254e-21 0 0
left_child=1 6 3 4 -2 19 8 -8 -1 13 12 14 24 -3 15 -4 -12 -11 -16 20 -5 -13 -23 28 -9 -22 -7 -28 -15 -21
right_child=2 9 11 5 -6 26 7 10 -10 17 16 21 -14 23 18 -17 -18 -19 -20 29 25 22 -24 -25 -26 -27 27 -29 -30 -31
leaf_parent=8 4 13 15 20 4 26 7 24 8 17 16 21 12 28 18 15 16 17 18 29 25 22 22 23 24 25 27 27 28 29
leaf_value=0.057755753072209294 -0.060873495528456147 0.059431183389256785 -0.022581348764151108 -0.06012859518221704 0.029371638609951824 -0.057854448305833264 0.058182345252499434 0.059348044314797323 0.060562107326606676 0.058998544483085259 0.057871096069285234 -0.057777318849726339 0.060661004615048392 0.061403084924306885 -0.059305220579034049 -0.058433001650447437 0.060885047618449421 0.061281690409559421 -0.058172170971010601 -0.060162181936916616 -0.061735404128130313 -0.059477449426317885 -0.02955579699245341 0.063411105160904979 0.058390684100408555 -0.060290921160369632 -0.063780375379843254 -0.05848827484776821 0.062608688142188604 -0.059419989375402264
leaf_count=15496 83 350 20 4790 20 10021 4235 6149 1124 933 376 600499 2420 909 1810 147 5655 780 37690 4565 1745 1238 22 1501 2392 1028 89 2370 3327 3125
internal_value=0 1.1913790987317223 -1.1574716327060195 -1.1846702511181975 -0.77464310240280332 -1.1864679187351681 1.179108201089847 1.1925241152296431 1.159737036146465 1.2405480419830359 1.1988626112042449 -1.1561514016807195 1.1894132568574736 1.2498946850907262 -1.1641911631512534 -1.075813974295255 1.2146424711296924 1.2025326678148633 -1.1645750816048608 -1.2042595521960413 -1.2109626008870751 -1.1556004568135532 -1.1781573228893585 1.2529432241585658 1.1818741016508869 -1.2245622678267705 -1.1607857255786098 -1.1749728205046233 1.2472213870266697 -1.1973869803054222
internal_count=714909 45647 669262 27836 103 27733 37847 21227 16620 7800 16992 641426 10961 6087 39667 167 6031 1713 39500 15253 7563 601759 1260 5737 8541 2773 12480 2459 4236 7690
shrinkage=0.05
has_categorical=0


Tree=27
num_leaves=31
split_feature=0 8 21 0 7 21 18 8 22 20 8 21 20 18 8 14 20 8 22 7 20 22 8 8 20 4 20 21 8 21
split_gain=28996.343115423762 3.9447390052991977 2.3384179017011775 2.6974356387381704 9.0535247554852951 1.1213464987940824 1.038991834794615 0.54594750323485641 0.27157936108733338 0.27379315164876061 0.26041230784403524 0.16384534306598653 0.11378029600018635 0.090912031548214145 0.085684983677651871 0.083926078823708394 0.076484079795591242 0.073345975322354207 0.06151898400275968 1.1274988221346405 0.061188634976815592 0.057328298390302734 0.13590511616004619 0.049617479048947644 0.046409395387627228 0.045913123856621496 0.044055501974071376 0.051506442415529818 0.041599030852637497 0.038416464890758562
threshold=63456 20170301.5 20170227.5 67212.5 20160113.5 20170227.5 130 20170818.5 9.9999996826552254e-21 20170201.5 20170818.5 20170227.5 20170112.5 240 20170818.5 27.5 20170123.5 20170606.5 9.9999996826552254e-21 20170114.5 20170113.5 9.9999996826552254e-21 20170818.5 20170606.5 20170123.5 9.9999996826552254e-21 20170129.5 20170303.5 20170818.5 20170308.5
decision_type=0 0 0 0 0 0 0 0 0 0 0 0 0 0 0 0 0 0 0 0 0 0 0 0 0 0 0 0 0 0
default_value=0 0 0 0 1.7976931348623157e+308 0 1.7976931348623157e+308 0 0 0 1.7976931348623157e+308 0 0 1.7976931348623157e+308 0 0 0 0 0 1.7976931348623157e+308 0 0 0 0 0 -9.9999996826552254e-21 0 0 0 0
left_child=1 11 3 4 -2 7 21 17 9 29 23 -1 -12 18 -10 -13 -9 -3 26 28 -14 -5 -23 -8 -22 -26 27 -4 -20 -7
right_child=2 5 13 6 -6 8 10 16 14 -11 12 15 20 -15 -16 -17 -18 -19 19 -21 24 22 -24 -25 25 -27 -28 -29 -30 -31
leaf_parent=11 4 17 27 21 4 29 23 16 14 9 12 15 20 13 14 15 16 17 28 19 24 22 22 23 25 25 26 27 28 29
leaf_value=0.057403839828078965 -0.060235935983807602 0.059875182832567764 -0.058424468817909608 -0.057428738201762281 0.027581675401052077 0.06107467301416513 -0.05966182839474498 0.059960465068784691 0.058920055159852262 0.062504663642331898 -0.059545095407565557 0.061080916894883819 -0.057744471271848966 -0.058703145005099523 0.061268581017010659 0.058206150414097262 0.060889665461092105 0.058417054365412113 -0.060056284362717587 -0.028635123977403878 -0.059508259939166086 -0.062833950356158172 -0.057954078130888577 -0.060915996122758866 -0.063983007069847816 -0.058655429993663404 -0.057359305224139789 -0.057521600788013709 -0.058346097654170814 0.059913159039633568
leaf_count=20808 83 704 1553 8973 20 1324 810 7767 924 3539 7107 303 1086 1013 387 495 1908 6660 389 22 1831 99 1114 1946 24 4743 629479 8121 849 828
internal_value=0 1.1803272927971065 -1.1486048003354992 -1.1738813949732165 -0.75699673949762614 1.2027853393665069 -1.1757352055788652 1.1902797076900693 1.2298317595255506 1.2370489602630106 -1.1879519773451901 1.1498041273957886 -1.1831557704090083 -1.1473760326835591 1.1939340321741954 1.1886899921116758 1.2030444017866924 1.1714139047839693 -1.147328586077488 -1.1668522886005361 -1.1755211778213266 -1.1512607633422549 -1.1697077700275498 -1.2113764596237913 -1.1785819458254616 -1.1738335569283651 -1.1472846218134825 -1.1535380362901648 -1.178636816977686 1.2129997359983131
internal_count=714909 45647 669262 27836 103 24041 27733 17039 7002 5691 17547 21606 14791 641426 1311 798 9675 7364 640413 1260 7684 10186 1213 2756 6598 4767 639153 9674 1238 2152
shrinkage=0.05
has_categorical=0


Tree=28
num_leaves=31
split_feature=0 8 21 0 2 15 21 8 19 20 22 20 0 27 8 19 21 8 14 20 8 22 8 8 22 21 20 8 8 21
split_gain=27373.144479648123 3.3057348265947439 1.9390226160612656 2.7141681008597516 8.6326536751029597 1.1633033317830268 0.93562068928804365 0.45656550432840959 0.2336311064864276 0.2475177198957681 0.22601726386665177 0.22659544574207757 0.19286036625635461 1.3152440058003663 0.17794485118702141 0.17555628489958508 0.13790085521577566 0.071813816063752256 0.07028014617867484 0.063862976871178034 0.061489365910574634 0.054823540162487916 0.14689379592766727 0.048927758616628125 0.077107583717975103 0.044793317329038018 0.04384842209310591 0.041465045985205506 0.043456490898506672 0.038768793961480696
threshold=63456 20170301.5 20170227.5 67212.5 116.5 40.5 20170227.5 20170818.5 9.9999996826552254e-21 20170201.5 9.9999996826552254e-21 20170201.5 67212.5 2.5 20170818.5 9.9999996826552254e-21 20170227.5 20170328.5 27.5 20170123.5 20170606.5 9.9999996826552254e-21 20170818.5 20170328.5 9.9999996826552254e-21 20170303.5 20170123.5 20170319.5 20170602.5 20170303.5
decision_type=0 0 0 0 0 0 0 0 0 0 0 0 0 0 0 0 0 0 0 0 0 0 0 0 0 0 0 0 0 0
default_value=0 0 0 0 0 0 0 0 0 0 0 0 0 0 0 0 0 0 0 0 0 0 0 1.7976931348623157e+308 0 0 0 0 0 0
left_child=1 16 3 4 -2 14 7 20 9 29 11 15 13 -11 27 25 -1 -12 -18 -9 -3 -7 -23 24 -10 -8 -16 -5 -29 -4
right_child=2 6 8 5 -6 21 10 19 23 12 17 -13 -14 -15 26 -17 18 -19 -20 -21 -22 22 -24 -25 -26 -27 -28 28 -30 -31
leaf_parent=16 4 20 29 27 4 21 25 19 24 13 17 11 12 13 26 15 18 17 18 19 20 22 22 23 24 25 26 28 28 29
leaf_value=0.056990948481375883 0.025807150044426765 0.059302592075782395 -0.058317225158634883 -0.064965766661081295 -0.059847352977038873 -0.056998797264345195 0.060139378069446282 0.059381312092225906 -0.057243878549660024 -0.05750599851228419 0.057990369931547874 0.061747283028082314 -0.057230437869691154 -0.018487630124265516 -0.058996963396909276 0.062100892345046767 0.060428466558382576 0.060066311306176901 0.057743710551550677 0.060247477577403868 0.057940010090040565 -0.061666553716883378 -0.057446465088617886 -0.05692944600344281 -0.059643756149874994 0.058693567246490497 -0.058414155447859384 -0.059051196062347613 -0.060315669571505276 -0.059550092287671053
leaf_count=20808 21 704 1743 24 82 10021 667 7767 4877 136 642 3539 37089 21 8982 484 303 669 495 1908 6660 147 2312 596618 264 1001 3630 700 1917 678
internal_value=0 1.1700020900876476 -1.140298398943369 -1.1637982942428349 -0.73991416463049919 -1.1657107084643294 1.1909649247679579 1.1792979400267711 -1.1391544005573699 -1.1461910774851563 1.2161504584076341 1.2228575767955852 -1.1441559036168245 -1.0405784309600321 -1.181227571767492 1.200530900100385 1.1414395267816684 1.1827213993163623 1.1778528023770662 1.1912036582439265 1.1616751981341393 -1.1432182776988689 -1.155644604257148 -1.1386716587438088 -1.1478595380616758 1.1861818693906705 -1.1766940553107488 -1.2011274764245681 -1.1999735603577288 -1.1737350131067095
internal_count=714909 45647 669262 27836 103 27733 24041 17039 641426 39667 7002 5691 37246 157 15253 2152 21606 1311 798 9675 7364 12480 2459 601759 5141 1668 12612 2641 2617 2421
shrinkage=0.05
has_categorical=0


Tree=29
num_leaves=31
split_feature=0 8 21 0 7 21 19 8 19 20 0 7 22 20 22 8 19 21 8 8 4 20 8 8 22 21 21 21 13 18
split_gain=25851.81112222161 2.7739662768617563 1.6069904929900076 2.7350041701092778 8.4571759112845157 0.78142235322138731 0.78129750290645461 0.3824519743716337 0.19451535331609193 0.20887300546564802 0.1997620819365693 1.3326658005073639 0.18830165995814241 0.18855119178965651 0.16397549857629201 0.19879281305577479 0.14633169678353397 0.11621683120529269 0.10655809100171609 0.060160180480693271 0.057821230745020102 0.053420789374968081 0.051628067241836106 0.041253663177485578 0.064767037132696714 0.037455670322799506 0.032489297421420815 0.032247508817818016 0.030627963777703826 0.025799700728384778
threshold=63456 20170301.5 20170227.5 67212.5 20160113.5 20170227.5 9.9999996826552254e-21 20170818.5 9.9999996826552254e-21 20170201.5 67212.5 20160105.5 9.9999996826552254e-21 20170201.5 9.9999996826552254e-21 20170818.5 9.9999996826552254e-21 20170227.5 20170818.5 20170818.5 9.9999996826552254e-21 20170123.5 20170606.5 20170328.5 9.9999996826552254e-21 20170303.5 20170303.5 20170221.5 5.5 52.5
decision_type=0 0 0 0 0 0 0 0 0 0 0 0 0 0 0 0 0 0 0 0 0 0 0 0 0 0 0 0 0 0
default_value=0 0 0 0 1.7976931348623157e+308 0 0 0 0 0 0 1.7976931348623157e+308 0 0 0 0 0 0 0 0 -9.9999996826552254e-21 0 0 1.7976931348623157e+308 0 0 0 0 0 0
left_child=1 17 3 4 -2 7 18 22 9 26 11 -11 13 16 -8 -16 25 -1 28 -14 -19 -9 -3 24 -10 -7 -4 -20 -5 -25
right_child=2 5 8 6 -6 12 14 21 23 10 -12 -13 19 -15 15 -17 -18 20 27 -21 -22 -23 -24 29 -26 -27 -28 -29 -30 -31
leaf_parent=17 4 22 26 28 4 25 14 21 24 11 10 11 19 13 15 15 16 20 27 19 20 21 22 29 24 25 26 27 28 29
leaf_value=0.056603804441251918 -0.059235285454775799 0.05876816003989619 -0.057846363874171892 -0.058506892990375731 0.026426616357444907 0.059548035310562381 -0.056646433309373384 0.058840929523150523 -0.056840926293906961 -0.057052448469938268 -0.056828250784218118 -0.017012380507501638 0.05793288046141809 0.061044122256007631 -0.060784551005433098 -0.057417640365532874 0.061372831594114143 0.060190876529535087 -0.058527549357461718 0.059981563714503638 0.057547681182555412 0.059649305570986515 0.057493553096685163 -0.057570818305052632 -0.05908592848231458 0.05819858516534452 -0.058998514167628996 -0.058009544739127152 -0.059647192265149078 -0.056544794887976771
leaf_count=20808 83 704 1743 626 20 667 10208 7767 4877 137 37089 20 924 3539 342 3537 484 218 7486 387 580 1908 6660 537 264 1001 678 3732 1802 596081
internal_value=0 1.1603479260502039 -1.1325093499644865 -1.1543567956484586 -0.72308314567245013 1.1799345834740003 -1.1563322325664867 1.1690422609789892 -1.1314443875232298 -1.1380045392846025 -1.1360930374383333 -1.0286217883157811 1.203406658772866 1.2096454859106593 -1.1397083614759533 -1.155831827028347 1.1888567828597152 1.1335976808484007 -1.1710393345120564 1.172251813915731 1.1677267463719672 1.1801594861933156 1.1525635247543333 -1.1309941603318974 -1.1396140061982905 1.175470837876222 -1.1638395763412466 -1.1672058385032262 -1.187432996087852 -1.1309165030211392
internal_count=714909 45647 669262 27836 103 24041 27733 17039 641426 39667 37246 157 7002 5691 14087 3879 2152 21606 13646 1311 798 9675 7364 601759 5141 1668 2421 11218 2428 596618
shrinkage=0.05
has_categorical=0


Tree=30
num_leaves=31
split_feature=0 8 21 0 2 15 21 8 19 0 2 20 8 21 20 8 19 14 20 8 15 15 8 20 21 8 13 21 21 20
split_gain=24465.005373476684 2.3405323833867442 1.4061941280669998 1.3262351136618236 5.5270103400513886 0.82552756615314138 0.6606405903430641 0.31829743601201699 0.16487584514834452 0.20389380061533302 1.3575845358998997 0.17692454093685228 0.12865781407435861 0.10148583631189467 0.086360462757738787 0.096472538191392232 0.060277601546260939 0.051439058990382591 0.043508403370196902 0.042476671663052912 0.041249587549572198 0.075884792574498761 0.034379911521682516 0.031680927873594555 0.031424432691437687 0.031223007721109752 0.031600616701211948 0.030877842798531674 0.028585806920432333 0.027128607185659348
threshold=63456 20170301.5 20170227.5 67212.5 106.5 40.5 20170227.5 20170818.5 9.9999996826552254e-21 67212.5 113.5 20170201.5 20170818.5 20170227.5 20170130.5 20170328.5 9.9999996826552254e-21 27.5 20170123.5 20170606.5 38.5 39.5 20170328.5 20170123.5 20170128.5 20170316.5 5.5 20170303.5 20170303.5 20170116.5
decision_type=0 0 0 0 0 0 0 0 0 0 0 0 0 0 0 0 0 0 0 0 0 0 0 0 0 0 0 0 0 0
default_value=0 0 0 0 0 0 0 0 0 0 0 0 0 0 0 0 0 0 0 0 0 0 1.7976931348623157e+308 0 0 0 0 0 0 0
left_child=1 13 3 4 -2 12 7 19 9 10 -4 28 25 -1 16 20 27 -15 -9 -3 -16 -22 -10 -14 -7 -5 -27 -8 -11 -26
right_child=2 6 8 5 -6 24 14 18 22 11 -12 -13 23 17 15 -17 -18 -19 -20 -21 21 -23 -24 -25 29 26 -28 -29 -30 -31
leaf_parent=13 4 19 10 25 4 24 27 18 22 28 10 11 23 17 20 15 16 17 18 19 21 21 22 23 29 26 26 27 28 29
leaf_value=0.056239681869385161 0.011613422226225061 0.058260685055625649 -0.015916235125437876 -0.063174751374502902 -0.059539529385972415 -0.058700967889913004 0.059007355224197158 0.058335825550671197 -0.056592018085077744 -0.057407267912080763 -0.056759948821048213 -0.056451002916026109 -0.05800086088795036 0.059287364628754641 0.059896681698635136 0.060129454906484851 0.060273755019933678 0.056913923157019021 0.059081449763344708 0.057079176164455528 0.056521882418583226 0.059408380377035302 -0.05618584671056797 -0.057487090728291626 -0.056247273704331038 -0.058036718119062684 -0.059159839375111781 0.057679664217378274 -0.05848968853459785 -0.056839532995808753
leaf_count=20824 20 703 20 26 89 117 631 7738 5130 1740 139 37083 8922 306 326 4149 351 507 1905 6662 424 364 596441 3698 10122 700 1930 824 717 2301
internal_value=0 1.1513695930929997 -1.1252339488265803 -1.1460766610613928 -0.8490112551240121 -1.1475234048171019 1.1697071737105846 1.1594231704773226 -1.1242134361746039 -1.1303820494755532 -1.0207159003965993 -1.1308406403330966 -1.1611391363009813 1.1262605116997317 1.1915740549507032 1.1969578892323913 1.1745038869697582 1.1585071998171728 1.1698032793106732 1.1440762547255454 1.1729765986565088 1.1608099622588259 -1.1237893473541669 -1.1571069326233505 -1.1277799246352525 -1.1786948659459053 -1.1776102603502938 1.1658658643205151 -1.1549110840846208 -1.127237720467225
internal_count=714909 45714 669195 27925 109 27816 24077 17008 641270 39699 159 39540 15276 21637 7069 5263 1806 813 9643 7365 1114 788 601571 12620 12540 2656 2630 1455 2457 12423
shrinkage=0.05
has_categorical=0


Tree=31
num_leaves=31
split_feature=0 8 21 0 8 15 21 8 22 20 8 21 15 0 7 1 33 22 14 8 20 8 20 15 15 22 8 20 8 13
split_gain=23123.197225073745 1.9698391525662373 1.1700123805057956 1.3639795619551478 4.8419061121419631 0.69471536941409795 0.55402181105910131 0.26742866270888044 0.12921265407521787 0.1332127524333373 0.10802270173371653 0.085734531083744514 0.059902175091508525 0.056002273384365253 2.546803986112252 0.18242600628389027 0.27826493973366428 0.082189164022565819 0.043265569387969549 0.042091449782134305 0.03651454884834493 0.03576225477013395 0.03559080911509227 0.044808684215240646 0.04222076776159156 0.033492821182335319 0.086663954651896802 0.026640906128250208 0.026033124707396382 0.026499803732576765
threshold=63456 20170301.5 20170227.5 67212.5 20170818.5 40.5 20170227.5 20170818.5 9.9999996826552254e-21 20170201.5 20170818.5 20170227.5 38.5 67212.5 20160318.5 3.5 4.3638211382113825 9.9999996826552254e-21 27.5 20170818.5 20170123.5 20170606.5 20170129.5 38.5 37.5 9.9999996826552254e-21 20170818.5 20170123.5 20170316.5 5.5
decision_type=0 0 0 0 0 0 0 0 0 0 0 0 0 0 0 0 0 0 0 0 0 0 0 0 0 0 0 0 0 0
default_value=0 0 0 0 0 0 0 0 0 0 0 0 0 0 0 0 1.7976931348623157e+308 0 0 0 0 0 0 0 0 0 0 0 0 0
left_child=1 11 3 4 -2 10 7 21 9 12 28 -1 -8 14 15 16 -4 22 -13 -10 -9 -3 23 24 -15 -7 -27 -12 -5 -30
right_child=2 6 13 5 -6 25 8 20 19 -11 27 18 -14 17 -16 -17 -18 -19 -20 -21 -22 -23 -24 -25 -26 26 -28 -29 29 -31
leaf_parent=11 4 21 16 28 4 25 12 20 19 9 27 18 12 24 14 15 16 17 18 19 20 21 22 23 24 26 26 27 29 29
leaf_value=0.055898560017732246 0.00756724939244071 0.057794109791905947 -0.031935282914909213 -0.062368595971042134 -0.058561548658446975 -0.055905482908167797 0.058063901798510432 0.057863834119812496 0.05708598745533712 0.059784401522532941 -0.057550215392193217 0.058755763933149845 0.06012595776925618 -0.056225105730444563 -0.010912107812631952 -0.055891615955225599 -0.056867457068768335 -0.057097315556712262 0.056532656428412445 0.058844995160589046 0.058561236500919815 0.056686835472713241 -0.055866215074651816 -0.055851870751587589 -0.057283067400529686 -0.059714556821416832 -0.056280288104865621 -0.057068903550462603 -0.05758383163486766 -0.058634200936205728
leaf_count=20824 20 703 20 26 89 10112 1883 7738 921 3560 8922 306 299 3361 29 2535 24 1269 507 406 1905 6662 627289 5544 1199 148 2280 3698 700 1930
internal_value=0 1.1429081801864518 -1.1183700369370833 -1.1377939571915758 -0.8320012675143299 -1.1393028126066511 1.1600773534495237 1.1504527900104224 1.1805109641754978 1.1858740178440927 -1.1520545446953725 1.1193505172183909 1.1678045032930999 -1.1174178867776259 -1.1023774029787379 -1.1140609286963636 -0.91527583473037821 -1.1174796285754214 1.1496247986648604 1.1538009724449452 1.1601654271426443 1.1360751514277538 -1.1174236973875435 -1.1233992166712252 -1.1305831133428748 -1.1207827592243731 -1.1312281419570325 -1.1482788352161279 -1.1684767476725346 -1.1674635393722377
internal_count=714909 45714 669195 27925 109 27816 24077 17008 7069 5742 15276 21637 2182 641270 2608 2579 44 638662 813 1327 9643 7365 637393 10104 4560 12540 2428 12620 2656 2630
shrinkage=0.05
has_categorical=0


Tree=32
num_leaves=31
split_feature=0 8 21 0 8 15 21 8 22 20 8 21 0 7 1 33 22 15 18 14 8 20 13 22 8 15 15 20 20 8
split_gain=21862.670663638157 1.6598621905295659 0.97297260594496038 1.3994566472674705 4.6727178821326483 0.58555244837452847 0.46520016393515107 0.22499517934375035 0.10827867179182249 0.11128064413094307 0.090825865642273129 0.072505172257933737 0.058356461770017631 2.5398320627727458 0.18941942821919611 0.27893413719667981 0.06950236385455355 0.050098681373640375 0.039193199307192117 0.03643872948576643 0.035370083281293319 0.030689994040585589 0.030162608406726577 0.028355432457829011 0.072915377655988323 0.02724264633434359 0.053190462789643789 0.071772163263631228 0.02243230095882609 0.021746776319957917
threshold=63456 20170301.5 20170227.5 67212.5 20170818.5 40.5 20170227.5 20170818.5 9.9999996826552254e-21 20170201.5 20170818.5 20170227.5 67212.5 20160318.5 3.5 4.3638211382113825 9.9999996826552254e-21 38.5 240 27.5 20170328.5 20170123.5 5.5 9.9999996826552254e-21 20170818.5 38.5 37.5 20170201.5 20170123.5 20170316.5
decision_type=0 0 0 0 0 0 0 0 0 0 0 0 0 0 0 0 0 0 0 0 0 0 0 0 0 0 0 0 0 0
default_value=0 0 0 0 0 0 0 0 0 0 0 0 0 0 0 1.7976931348623157e+308 0 0 1.7976931348623157e+308 0 0 0 0 0 0 0 0 0 0 0
left_child=1 11 3 4 -2 10 7 22 9 17 29 -1 13 14 15 -4 18 -8 25 -13 -10 -9 -3 -7 -25 26 -14 -28 -12 -5
right_child=2 6 12 5 -6 23 8 21 20 -11 28 19 16 -15 -16 -17 -18 -19 -20 -21 -22 -23 -24 24 -26 -27 27 -29 -30 -31
leaf_parent=11 4 22 15 29 4 23 17 21 20 9 28 19 26 13 14 15 16 17 18 19 20 21 22 24 24 25 27 27 28 29
leaf_value=0.05557798476463055 0.0071664510507874358 0.0573914240167403 -0.031111645853072918 -0.061621119178074668 -0.058079552140245641 -0.055584411936292738 0.057610687772908779 0.057422052015199856 0.056359676627948864 0.059216774272260186 -0.057128153719429003 0.058258841229094097 -0.055569843000087639 -0.010452762583303391 -0.055571455026341067 -0.056489310197292267 -0.056704359920221242 0.059535233369981282 -0.056522760619632975 0.056174714815136355 0.057939508543793372 0.05807498855503021 0.056322535213645768 -0.059152769546086975 -0.055937338187510156 -0.055530661380978175 -0.056940833265626947 -0.05576448166563195 -0.056676860025319013 -0.057898809171519509
