tree
num_class=1
num_tree_per_iteration=1
label_index=0
max_feature_idx=41
objective=binary sigmoid:1
feature_names=Column_0 Column_1 Column_2 Column_3 Column_4 Column_5 Column_6 Column_7 Column_8 Column_9 Column_10 Column_11 Column_12 Column_13 Column_14 Column_15 Column_16 Column_17 Column_18 Column_19 Column_20 Column_21 Column_22 Column_23 Column_24 Column_25 Column_26 Column_27 Column_28 Column_29 Column_30 Column_31 Column_32 Column_33 Column_34 Column_35 Column_36 Column_37 Column_38 Column_39 Column_40 Column_41
feature_infos=[2:992929] [1:64] [0:790] [19:5116193] [-52:1041] [2004:2017] [1:12] [1:31] [2015:2021] [1:12] [1:31] [1:450] [0:1788] [0:1788] [20150101:20170228] [0:674] [0:435] [0:251] [0:200] [0:1801] [1:781] [0.026000000000000002:476117.99900000001] [0:180] [0:1] [0:6] [-17203:759] [-565:25] [0:5304] [0:174] [-99:20716] [-3:681] [0:1] [0:1] [0:1] [0:1] [0:1] [0:21] [0:2] [0:5] [1:35] [1:2] [1:2]

Tree=0
num_leaves=31
split_feature=0 0 31 28 26 9 2 9 9 8 25 7 18 29 10 2 12 27 9 3 2 2 39 2 27 9 3 2 39 3
split_gain=159492.06899981812 305.32399680023082 867.45419649967062 106.3827931410447 75.574207147647797 42.85952977682301 13.909180591797814 12.643297968240759 12.32705428019738 11.658250535749076 9.7669055267276121 9.0579710144927521 6.6827927717715303 6.5859562782979992 5.9869218500797459 5.3693861829387117 5.5017543859649098 2.571025873351461 1.9441707717569798 1.6000000000000001 1.4633484162895911 1.9230769230769234 0.92659364197197647 2.1677419354838747 0.70960451977401817 0.19922980539490709 0.48714823690517051 0.16850393700786981 0.12727272727273231 0.016308300376977058
threshold=62767.5 66868.5 9.9999996826552254e-21 19.5 1.5 8.5 50.5 2.5 8.5 2017.5 30.5 24.5 3.5 579.5 10.5 320.5 165 1274.5 5.5 2577011 580.5 464.5 24.5 86.5 516.5 8.5 607361.5 568.5 34.5 4589542.5
decision_type=0 0 0 0 0 0 0 0 0 0 0 0 0 0 0 0 0 0 0 0 0 0 0 0 0 0 0 0 0 0
default_value=0 0 0 0 1.7976931348623157e+308 0 0 1.7976931348623157e+308 0 0 -9.9999996826552254e-21 0 1.7976931348623157e+308 -9.9999996826552254e-21 0 0 0 1.7976931348623157e+308 0 1.7976931348623157e+308 0 1.7976931348623157e+308 0 0 0 0 0 0 0 0
left_child=-1 2 3 24 5 7 28 -5 9 18 15 12 -9 -4 -11 16 -7 -14 -8 -10 21 -17 23 -15 -2 26 -24 -28 -6 -27
right_child=1 -3 13 4 6 10 8 11 19 14 -12 -13 17 22 -16 20 -18 -19 -20 -21 -22 -23 25 -25 -26 29 27 -29 -30 -31
leaf_parent=0 24 1 13 7 28 16 18 12 19 14 10 11 17 23 14 21 16 17 18 19 20 21 26 23 24 29 27 27 28 29
leaf_value=0.10000000000000001 0.10000000000000001 -0.10000000000000001 -0.042857142857142858 0.090909090909090898 0.090000000000000038 -0.011111111111111113 0.10000000000000001 -0.015384615384615384 0.0099999999999999985 -0.018181818181818177 -0.010526315789473684 -0.047826086956521741 0.072727272727272724 -0.059999999999999998 0.04736842105263158 -0.092307692307692299 -0.073333333333333334 0.023809523809523767 0.061904761904761886 -0.030000000000000006 -0.10000000000000001 -0.053846153846153821 -0.082608695652173922 -0.10000000000000001 0.080000000000000016 -0.099882422104644333 -0.099999999999999992 -0.090000000000000011 0.099999999999999978 -0.098876404494382023
leaf_count=42622 157 629773 21 22 20 27 37 26 20 22 38 23 22 20 38 26 30 21 21 20 33 26 23 42 20 1701 107 20 35 178
internal_value=0 -1.9970722561491316 -1.3376251788268956 0.61988304093567248 0.15384615384615385 -0.50340136054421769 1.0610328638497653 0.45614035087719296 0.759493670886076 1.0847457627118644 -1.1111111111111112 0.13043478260869562 0.4927536231884056 -1.9715909090909092 0.46666666666666662 -1.352112676056338 -0.8771929824561403 0.9767441860465107 1.7241379310344827 -0.20000000000000001 -1.6705882352941177 -1.4615384615384612 -1.9827833572453371 -1.7419354838709677 1.9548022598870056 -1.9901429275505176 -1.9199999999999999 -1.9685039370078741 1.9272727272727272 -1.9957424161788184
internal_count=675191 632569 2796 684 507 294 213 114 158 118 180 92 69 2112 60 142 57 43 58 40 85 52 2091 62 177 2029 150 127 55 1879
shrinkage=0.05
has_categorical=0


Tree=1
num_leaves=31
split_feature=0 0 26 28 40 41 9 2 25 5 27 14 27 9 8 14 35 27 15 1 16 4 4 9 29 27 21 1 14 3
split_gain=144314.21640733973 276.6917664273642 527.968076698392 246.18872059089767 96.282737290393015 67.587179186083631 31.884155732735351 18.936425605429989 12.685056860462367 11.540575215671723 9.6480916431702806 9.2336154929819116 7.1303992460494694 6.1428062700935833 9.7339564706157997 5.9485183108763984 5.9363748949607409 5.8623667755231139 5.3810795284534692 2.7169157063344755 2.4367799442486273 2.1263326423219127 1.6279875464059756 0.32472481094009709 0.48808427309600688 0.34797913397589753 0.1693802658533059 0.12814163164500769 0.022854501059327959 0.17492868890454361
threshold=62767.5 66868.5 3.5 19.5 1.5 1.5 8.5 314.5 30.5 2015.5 1157.5 20161204.5 1284.5 8.5 2017.5 20170122.5 9.9999996826552254e-21 1420.5 1.5 3.5 3.5 29.5 31.5 8.5 679.5 2233.5 6849.6894999999995 16.5 20170223.5 4527976
decision_type=0 0 0 0 0 0 0 0 0 0 0 0 0 0 0 0 0 0 0 0 0 0 0 0 0 0 0 0 0 0
default_value=0 0 1.7976931348623157e+308 0 0 0 0 0 -9.9999996826552254e-21 0 1.7976931348623157e+308 0 0 1.7976931348623157e+308 1.7976931348623157e+308 0 0 0 0 0 0 1.7976931348623157e+308 1.7976931348623157e+308 0 -9.9999996826552254e-21 0 0 0 0 0
left_child=-1 2 3 9 6 19 10 17 11 -2 16 -8 -10 14 -9 -12 -5 21 -16 -6 22 -4 -13 24 -21 -26 -11 -23 -25 -30
right_child=1 -3 7 4 5 -7 8 13 12 26 15 20 -14 -15 18 -17 -18 -19 -20 23 -22 27 -24 28 25 -27 -28 -29 29 -31
leaf_parent=0 9 1 21 16 19 5 11 14 12 26 15 22 12 13 18 15 16 17 18 24 20 27 22 28 25 25 26 27 29 29
leaf_value=0.095241872246060344 0.0081208330824545129 -0.095241872246060344 0.061135425684010813 0.015378671203024594 -0.066267392156169266 0.067972061880940654 -0.0074339877811443371 0.088556469808658597 0.033953943330485438 0.095924697223002689 0.014956341136693028 -0.096637000273933515 -0.04947818009369527 -0.014599919328313039 0.044436901022345425 -0.050493041337609318 0.088222073264302758 0.045899295271042348 -0.02363796412860766 -0.075813933338942277 -0.051058996310784401 0.095526598157100032 -0.067838564225330675 -0.095264807145970923 -0.095453360902723702 -0.083772940553382802 0.085263039153593762 0.087453177632928383 -0.095247077537192873 -0.085254190910954444
leaf_count=42622 20 629773 23 24 34 26 20 28 21 59 33 66 20 26 26 24 21 39 21 20 22 110 28 1740 103 34 20 24 144 20
internal_value=0 -1.9020464505478387 -1.2735916370100955 -1.5736260225040208 -1.7012744252743941 -1.8468325770023839 -0.59631811462644968 1.2493834493975524 -1.1099016343782602 1.5204320999140613 0.29462348854286019 -1.4042430263593046 -0.13489684640505842 0.54572229409933881 0.83637548563650177 -0.25198780435571044 0.98735772089982943 1.6124214296518227 0.28040286139335563 -1.8866836973552863 -1.6208498752340605 1.7850596921800523 -1.7611837197989315 -1.8959476180079473 -1.8084264544599369 -1.8510865765252209 1.8645197155249849 1.8816077904424802 -1.9031662125367372 -1.8805679118621421
internal_count=675191 632569 2796 2499 2400 2121 279 297 177 99 102 136 41 101 75 57 45 196 47 2095 116 157 94 2061 157 137 79 134 1904 164
shrinkage=0.05
has_categorical=0


Tree=2
num_leaves=31
split_feature=0 0 31 28 26 9 2 9 9 8 7 25 14 18 29 29 27 4 14 27 4 1 4 10 9 39 29 4 3 5
split_gain=131203.15860894462 252.79867899167584 715.64745287554729 88.470025425069721 62.066187506382732 35.016404329375519 11.705280783851833 11.1510677668029 10.446965945816114 9.9133369144950159 8.0358832086950311 7.9586997689702201 12.644714820485454 5.8271294861513203 5.5336780823092226 5.1635022648604263 4.8830394573010034 3.5007363670192397 2.9222067345989302 2.7766044913129235 3.3327426538233311 2.52806808411151 1.8905121661316926 0.64639957594494035 0.16764836230913716 0.11518942008904531 0.095331661937279932 0.078634606639297999 0.6739010541305106 0.0072024327891426765
threshold=62767.5 66868.5 9.9999996826552254e-21 19.5 1.5 8.5 50.5 2.5 8.5 2017.5 24.5 30.5 20161165.5 3.5 1865.5 579.5 1260.5 21.5 20170120.5 2367.5 30.5 3.5 29.5 25.5 3.5 34.5 609.5 24.5 4527976 2015.5
decision_type=0 0 0 0 0 0 0 0 0 0 0 0 0 0 0 0 0 0 0 0 0 0 0 0 0 0 0 0 0 0
default_value=0 0 0 0 1.7976931348623157e+308 0 0 1.7976931348623157e+308 0 0 0 -9.9999996826552254e-21 0 1.7976931348623157e+308 -9.9999996826552254e-21 -9.9999996826552254e-21 1.7976931348623157e+308 -9.9999996826552254e-21 1.7976931348623157e+308 1.7976931348623157e+308 1.7976931348623157e+308 0 1.7976931348623157e+308 0 0 0 -9.9999996826552254e-21 1.7976931348623157e+308 0 0
left_child=-1 2 3 23 5 7 25 -5 9 22 13 12 -7 -9 16 -4 -11 -10 -15 20 -14 -17 -8 29 -23 -6 -26 28 -28 -2
right_child=1 -3 15 4 6 11 8 10 17 14 -12 -13 19 18 -16 21 -18 -19 -20 -21 -22 24 -24 -25 26 -27 27 -29 -30 -31
leaf_parent=0 29 1 15 7 25 12 22 13 17 16 10 11 20 18 14 21 16 17 18 19 20 24 22 23 26 25 28 27 28 29
leaf_value=0.091131780775723592 0.093324842558377516 -0.091131780775723592 -0.040460073942511582 0.084658426699358483 0.08200479156279071 0.012376557260245794 0.054932481323289095 -0.015042541739561774 -0.039420785127485897 0.0073885157772072517 -0.04596617850266807 -0.0097718584620814682 -0.092634198235570606 0.069314055701817173 -0.022099167899418539 -0.063215475055224082 0.077330114820009788 0.019761614664935794 0.016986375225996244 -0.042110925538964693 -0.052212080668132023 -0.081644023720402956 0.092611295311891537 0.072835369441711595 -0.085830059209117571 0.091556104756005091 -0.091153913246690504 -0.091179259681438363 -0.072059435459756543 0.091327979060732534
leaf_count=42622 21 629773 21 22 20 20 21 26 20 20 23 38 70 23 20 34 20 20 20 23 29 20 37 21 37 35 167 1812 21 135
internal_value=0 -1.819957163703781 -1.2174353351424858 0.56409751157468191 0.13904116885090873 -0.45741528825743577 0.96313835573259976 0.41047983651439185 0.68663292658512343 0.98701635913579877 0.10479300214446309 -1.0082047388027486 -1.2267169276718453 0.44645579767602134 0.41731862120088964 -1.7968672358622564 0.84729757637382619 -0.19651812764316681 0.8992495789833832 -1.4695727442171707 -1.6155338790455329 -1.8068609552175741 1.5791804736164101 1.7873999954305808 -1.8158582705929622 1.76160940442986 -1.8176567647060411 -1.819526726838151 -1.7804092769307569 1.8319518760301168
internal_count=675191 632569 2796 684 507 294 213 114 158 118 92 180 142 69 60 2112 40 40 43 122 99 2091 58 177 2057 55 2037 2000 188 156
shrinkage=0.05
has_categorical=0


Tree=3
num_leaves=31
split_feature=0 0 31 28 26 9 2 9 9 8 2 7 25 14 37 10 29 4 38 12 20 28 39 2 21 15 9 3 15 39
split_gain=119774.31555082288 232.46135627309559 653.9829079404135 80.895191636887915 56.307876365247765 31.766116190432395 10.7807298801062 10.161189455267621 9.4888865085056651 9.0934076430757145 7.4264085338621513 7.2643203595567831 6.8512790808147948 9.3960440644578718 5.513044438115811 5.0280817093839829 4.8302626339307153 3.1612007517550493 3.0567966555120805 2.9106166376914082 2.8827963720972463 1.8479892836249974 0.8295353852054177 2.1907016156603163 0.63024920238152049 0.47939892623312375 0.16078290703421771 0.45973391283287413 0.1749596708864658 0.10858165879046311
threshold=62767.5 66868.5 9.9999996826552254e-21 19.5 1.5 8.5 50.5 2.5 8.5 2017.5 588.5 24.5 30.5 20161165.5 9.9999996826552254e-21 10.5 579.5 21.5 2.5 165 11.5 41.5 24.5 468.5 13949.535500000002 4.5 8.5 607361.5 8.5 34.5
decision_type=0 0 0 0 0 0 0 0 0 0 0 0 0 0 0 0 0 0 0 0 0 0 0 0 0 0 0 0 0 0
default_value=0 0 0 0 1.7976931348623157e+308 0 0 1.7976931348623157e+308 0 0 0 0 -9.9999996826552254e-21 0 0 0 -9.9999996826552254e-21 -9.9999996826552254e-21 1.7976931348623157e+308 0 0 0 0 1.7976931348623157e+308 0 0 0 0 0 0
left_child=-1 2 3 24 5 7 29 -5 9 21 12 14 13 -7 -9 -11 -4 -10 25 -20 -16 -8 23 -18 -2 -15 27 -24 -29 -6
right_child=1 -3 16 4 6 10 8 11 17 15 -12 -13 -14 18 20 -17 22 -19 19 -21 -22 -23 26 -25 -26 -27 -28 28 -30 -31
leaf_parent=0 24 1 16 7 29 13 21 14 17 15 10 11 12 25 20 15 23 17 19 19 20 21 27 23 24 25 26 28 28 29
leaf_value=0.087549100739152091 0.088001015866893836 -0.087549100739152091 -0.038492413415323647 0.081038519425670183 0.078604034569488931 0.011754658623408354 0.052613046132898661 -0.017460698484095209 -0.037473702642981485 -0.018181281302192959 -0.089803142901977162 -0.043730410283255937 0.0011076340748760525 -0.090022325662938135 0.067907885497114781 0.041943916244306614 -0.088368858923706661 0.018776330933565229 -0.019091551041234847 -0.071401075471254002 0.017157939019258248 0.089663235561041665 -0.070829107876932557 -0.047802492053937599 0.069391472657417921 -0.069618114135107059 -0.087381430793620277 -0.087947529814080119 -0.077659007403781788 0.087920937550787004
leaf_count=42622 156 629773 21 22 20 20 22 24 20 22 35 23 34 28 22 38 42 20 22 21 23 36 23 20 21 20 1879 107 20 35
internal_value=0 -1.7483976409395814 -1.1678790670807171 0.53919469584320812 0.13271013914353405 -0.43634564361698164 0.91981597492326428 0.39110705174348598 0.65464389785127741 0.94198634184159336 -0.96250595608477751 0.099745730095688059 -0.7627535264327987 -1.0053572598390548 0.4249092746771016 0.39695970139344944 -1.7257383956874175 -0.18676867423647645 -1.2809561624039156 -0.89202526983434072 0.83916676656863332 1.5122729217802264 -1.7355012418896156 -1.5055984124774529 1.7157705303145938 -1.6304502897033541 -1.7425435883150062 -1.6789406901450352 -1.7265540444748082 1.6905345165106724
internal_count=675191 632569 2796 684 507 294 213 114 158 118 180 92 145 111 69 60 2112 40 91 43 45 58 2091 62 177 48 2029 150 127 55
shrinkage=0.05
has_categorical=0


Tree=4
num_leaves=31
split_feature=0 0 31 27 25 9 25 14 27 2 25 27 27 8 29 29 20 33 1 16 20 36 1 2 9 19 2 14 1 27
split_gain=109733.23618281755 214.98499040870229 599.94643390339991 74.438840851872584 51.715982845597388 35.927844132849529 11.349998416324702 7.0209063106844738 5.6718099767643038 5.5838345093386152 5.0398913761387281 10.867064603660602 6.6933870396561641 5.9955881530850341 4.5645529550029096 3.2654643604012961 3.1755707819579655 2.8487088640910612 2.4135103401890774 1.4869134535493345 1.233408222664508 1.0606995819722584 0.35731925090814798 0.18597720390643246 0.15922914937459609 0.28021229837703743 0.17824319775137099 0.02182324746672748 0.17022845976187284 0.011041976908501283
threshold=62767.5 66868.5 9.9999996826552254e-21 658.5 29.5 8.5 30.5 20161215.5 1318.5 393.5 30.5 1248.5 1196.5 2017.5 579.5 493.5 22.5 9.9999996826552254e-21 3.5 3.5 8.5 2.5 19.5 544.5 8.5 26.5 24.5 20170223.5 12.5 427.5
decision_type=0 0 0 0 0 0 0 0 0 0 0 0 0 0 0 0 0 0 0 0 0 0 0 0 0 0 0 0 0 0
default_value=0 0 0 0 -9.9999996826552254e-21 0 -9.9999996826552254e-21 0 0 0 -9.9999996826552254e-21 1.7976931348623157e+308 0 0 -9.9999996826552254e-21 -9.9999996826552254e-21 1.7976931348623157e+308 0 0 0 0 0 1.7976931348623157e+308 1.7976931348623157e+308 0 0 0 0 0 0
left_child=-1 2 3 15 9 10 7 -7 -8 16 11 -6 -12 -14 -4 29 20 -13 -16 21 -5 -9 -22 -23 25 26 -20 -26 -29 -2
right_child=1 -3 14 4 5 6 8 19 -10 -11 12 17 13 -15 18 -17 -18 -19 24 -21 22 23 -24 -25 27 -27 -28 28 -30 -31
leaf_parent=0 29 1 14 20 11 7 8 21 8 9 12 17 13 13 18 15 16 17 26 19 22 23 22 23 27 25 26 28 28 29
leaf_value=0.084401502427522396 0.08461377159354351 -0.084401502427522396 -0.036646287124306808 0.052471457878446627 0.044165643027178958 -0.012548911716498003 0.027866718915533509 -0.057396548651302282 -0.038268260800838505 0.018327702130373828 -0.014710612314153269 -0.0073638926067360047 0.089280505002617805 0.026540385913015243 -0.056907644098784974 0.051312160200104352 0.030210936708533326 -0.059564107437027031 -0.07442206327278994 -0.047507283171710636 0.085851786733652805 -0.087429586086794769 0.070712073621224295 -0.076454717659288976 -0.08444272845373843 -0.0726475957701707 -0.084917410700682427 -0.074663183358697191 -0.084471228132219189 0.086744035405011508
leaf_count=42622 129 629773 21 20 32 24 25 20 27 31 20 21 26 38 34 36 20 21 20 20 48 47 24 24 1738 33 102 21 143 31
internal_value=0 -1.685524517407287 -1.1237726881628063 0.51643549907808661 0.097655307307142489 -0.32269489506481003 -0.9213041050774855 -1.2322562781403423 -0.12905828979655135 1.1206045881003341 0.38139919285767032 -0.00018805419635039026 0.71858739973949792 1.0363968709569025 -1.663068551626816 1.5755859366947103 1.3320108537095496 -0.66956562874255587 -1.6726829233722018 -1.448504404170855 1.4915005443426275 -1.5585538345702552 1.6158336637821193 -1.6748716986568417 -1.6816204090534421 -1.6189915465198637 -1.6639600128098884 -1.6867370842096308 -1.6643011050852043 1.7005869871436714
internal_count=675191 632569 2796 684 488 345 187 135 52 143 158 74 84 64 2112 196 112 42 2091 111 92 91 72 71 2057 155 122 1902 164 160
shrinkage=0.05
has_categorical=0


Tree=5
num_leaves=31
split_feature=0 0 31 28 26 9 1 25 9 2 27 12 29 27 14 4 24 9 29 36 1 3 2 9 36 3 3 1 5 28
split_gain=100915.89893975994 218.9395373443258 600.40154087716064 62.795772572057935 54.594159089999224 25.350852762313963 9.0651174856925145 11.054583134040668 8.2605947716513484 7.4770412840154705 7.2098555892900222 7.1619631978188956 6.6647848653567507 6.5415700542407116 6.3316226073367297 5.4147451267896214 4.5746176567647918 5.9424093895827923 6.3446089675861304 9.6965690546547059 3.3359559389198239 2.9280360761536532 1.7340115673747754 0.28979155979891402 0.48730347794568019 0.19061767202886415 0.13472850405130288 0.12176685822484501 0.039395989239665141 0.20363836888117248
threshold=62767.5 66868.5 9.9999996826552254e-21 19.5 1.5 8.5 21.5 30.5 2.5 50.5 1220.5 165 577.5 1274.5 20161202.5 24.5 4.0558688147295747 2.5 943.5 4.5 3.5 2020658 257.5 5.5 2.5 4589542.5 1737085.5 15.5 2009.5 107.5
decision_type=0 0 0 0 0 0 0 0 0 0 0 0 0 0 0 0 0 0 0 0 0 0 0 0 0 0 0 0 0 0
default_value=0 0 0 0 1.7976931348623157e+308 0 0 -9.9999996826552254e-21 1.7976931348623157e+308 0 1.7976931348623157e+308 0 -9.9999996826552254e-21 0 0 1.7976931348623157e+308 1.7976931348623157e+308 1.7976931348623157e+308 1.7976931348623157e+308 1.7976931348623157e+308 0 0 1.7976931348623157e+308 0 0 1.7976931348623157e+308 1.7976931348623157e+308 0 0 0
left_child=-1 2 3 25 5 8 7 10 -5 27 -7 -12 -4 15 22 -10 -16 -18 -19 -20 -14 -15 -11 24 -22 -2 -8 -6 29 -25
right_child=1 -3 12 4 9 6 26 -9 13 14 11 -13 20 21 16 -17 17 18 19 -21 23 -23 -24 28 -26 -27 -28 -29 -30 -31
leaf_parent=0 25 1 12 8 27 10 26 7 15 22 11 11 20 21 16 15 17 18 19 19 24 21 22 29 24 25 26 27 28 29
leaf_value=0.081617122023786348 0.082230119030946014 -0.081617122023786348 -0.022546115486604529 0.076091519757732762 0.082324762514847327 -0.080256530258676517 -0.076759986537928857 0.028898853987169293 -0.0033232438406764404 0.050619259000806008 0.012667587080009042 -0.061925864412634216 -0.049671682441918732 -0.050621116047749985 0.063157624954580258 0.061488908352153274 0.060941860580523699 0.041406197176317869 -0.066547278683445191 0.022925332313752038 -0.082506832950568085 0.00062644327657988006 0.091234186176417001 -0.075317984969389004 -0.061246278777130375 0.071623239956373888 -0.08783778036252203 0.072659141972787972 -0.081690002092190656 -0.081713652813513241
leaf_count=42655 161 629720 20 20 39 38 20 25 26 22 28 25 35 21 26 26 23 27 23 26 26 24 21 65 20 20 26 21 1692 270
internal_value=0 -1.6297796059518055 -1.0606974864576624 0.58140927427986766 0.2204306647377749 -0.37738210112977733 -0.89794621271110364 -0.59741832369149761 0.33353457453764296 0.9557750560575059 -0.92895211022508284 -0.447067029269621 -1.6039697433261766 0.093463123395223988 0.74025497672360052 0.57917843563398208 0.51189492814158999 0.31457151489196233 0.045687648979232054 -0.38475117028068012 -1.615399617782276 -0.46561087177704469 1.4103731885087489 -1.6261108648752842 -1.4653936545656732 1.6211745275128036 -1.660723842587732 1.5787462884179735 -1.6297737666617726 -1.6094437670690389
internal_count=675191 632536 2816 688 507 279 162 116 117 228 91 53 2128 97 168 52 125 99 76 49 2108 45 43 2073 46 181 46 60 2027 335
shrinkage=0.05
has_categorical=0


Tree=6
num_leaves=31
split_feature=31 9 25 25 8 2 1 9 14 8 39 9 8 1 36 36 40 24 9 9 8 10 39 14 25 9 9 9 25 25
split_gain=34569.293225298461 12066.016506183043 4621.0134572410698 2558.8807041447053 1656.3276754070448 1419.3335987411149 834.07468830507241 739.43708307660904 589.32092460260537 522.64338763941475 340.96486294345232 262.99433557925295 261.33156344447696 230.53029358707136 288.01151190902863 224.7143662078777 223.3383374797811 154.34035538771423 139.12974780154599 111.77779691199873 114.78562171128812 109.07202618330592 99.699292201105237 95.718517481363278 94.120312105816396 89.19138677655134 90.002326934741433 84.554412008554209 162.36539376039264 151.17783828027382
threshold=9.9999996826552254e-21 2.5 30.5 29.5 2017.5 9.9999996826552254e-21 1.5 8.5 20161217.5 2017.5 33.5 8.5 2016.5 1.5 9.9999996826552254e-21 1.5 1.5 3.1388888888888893 8.5 8.5 2017.5 18.5 34.5 20170120.5 183.5 4.5 3.5 3.5 28.5 30.5
decision_type=0 0 0 0 0 0 0 0 0 0 0 0 0 0 0 0 0 0 0 0 0 0 0 0 0 0 0 0 0 0
default_value=0 0 1.7976931348623157e+308 -9.9999996826552254e-21 0 0 0 0 0 0 0 0 0 0 0 0 0 0 0 0 0 0 0 0 -9.9999996826552254e-21 0 0 0 -9.9999996826552254e-21 -9.9999996826552254e-21
left_child=1 4 3 15 -1 -4 -5 9 18 16 -9 -10 -12 14 22 23 21 -15 -8 20 -17 -7 -2 -3 -6 26 -11 28 -19 -30
right_child=13 2 5 6 24 7 8 10 11 25 12 -13 -14 17 -16 19 -18 27 -20 -21 -22 -23 -24 -25 -26 -27 -28 -29 29 -31
leaf_parent=4 22 23 5 6 24 21 18 10 11 26 12 11 12 17 14 20 16 28 18 19 20 21 22 23 24 25 26 27 29 29
leaf_value=0.078997604807963584 0.059922037625948332 0.058356299481347199 0.072258433066596559 0.024052643925137843 -0.023636432445639219 0.036595821735642749 -0.012151156140077106 -0.010717435029516317 -0.049999328490946071 0.0013568970093804002 0.079236395646770333 -0.068345837030460863 -0.061866988702188146 -0.031070985518561585 -0.073385458446171781 0.030783523182444119 0.068497950357921777 -0.078414663438235999 -0.042418134659212611 -0.014595600489835429 -0.030257520934350236 -0.0003288793617602773 -0.079139124155677046 -0.0072209284093033054 0.019917548467826427 0.027987711362764619 -0.029752697417888226 -0.078871636285684776 0.0052553324634629292 -0.059044390820449204
leaf_count=15099 345 1515 3106 1391 1824 2717 2960 10319 12439 2078 150 25822 2348 731 646 1829 1852 4526 3635 1873 404 1257 66 284 753 643 1923 570454 512 1690
internal_value=0 -0.22983968833766502 -0.57807421583546048 -0.93580878695318015 1.3177347728109652 0.12869693416771805 -1.0999130914195836 -0.046837582266646798 -1.1489418361087469 0.36183384130859708 -0.3807062316956607 -1.2476092579511466 -1.0678719260570948 -1.5717319842221662 -0.60449708203349939 0.34918712259954954 0.77538307294262199 -1.5735015753169697 -0.57665980553393859 0.081527309323224093 0.39476817037083867 0.49831615717362898 0.75201004897024337 0.96012604410660574 -0.21817992280227502 -0.15681233703753625 -0.27195573959787811 -1.5747073770804292 -1.3436421462229657 -0.8818886298540467
internal_count=675191 96221 78545 52152 17676 26393 46247 23287 44856 10470 12817 38261 2498 578970 1057 5905 5826 577913 6595 4106 2233 3974 411 1799 2577 4644 4001 577182 6728 2202
shrinkage=0.05
has_categorical=0


Tree=7
num_leaves=31
split_feature=31 9 25 25 8 2 1 9 14 8 39 9 8 1 38 8 40 38 9 24 9 9 10 39 25 9 25 25 13 9
split_gain=32354.563672459743 11065.82482854616 4231.8070236223875 2346.6512886508553 1549.1924040855956 1307.1735980990845 765.72965952578124 670.24666726657438 554.86544290415986 476.06995162399653 315.28692911186664 269.58596965760444 239.67454398737436 215.27848720445763 265.10464048804403 211.69844489529854 209.20742304241423 202.92284312418349 160.74147059673774 148.87129056814592 137.13333519936958 112.88466213365541 99.236910440908332 91.452135258875387 88.530875394852558 82.441845015971921 156.0919188381954 139.25260056758617 89.328804977819971 80.676971137998621
threshold=9.9999996826552254e-21 2.5 30.5 29.5 2017.5 9.9999996826552254e-21 1.5 8.5 20161208.5 2017.5 33.5 8.5 2016.5 1.5 9.9999996826552254e-21 2016.5 1.5 9.9999996826552254e-21 8.5 3.1388888888888893 5.5 8.5 18.5 34.5 30.5 3.5 28.5 30.5 165 4.5
decision_type=0 0 0 0 0 0 0 0 0 0 0 0 0 0 0 0 0 0 0 0 0 0 0 0 0 0 0 0 0 0
default_value=0 0 1.7976931348623157e+308 -9.9999996826552254e-21 0 0 0 0 0 0 0 0 0 0 0 0 0 0 0 0 0 0 0 0 1.7976931348623157e+308 0 -9.9999996826552254e-21 -9.9999996826552254e-21 0 0
left_child=1 4 3 15 -1 -4 -5 9 21 16 -9 -10 -12 14 23 -3 22 -17 20 -15 -19 -8 -7 -2 -6 26 -21 -28 -29 -11
right_child=13 2 5 6 24 7 8 10 11 29 12 -13 -14 19 -16 17 -18 18 -20 25 -22 -23 -24 -25 -26 -27 27 28 -30 -31
leaf_parent=4 23 15 5 6 24 22 21 10 11 29 12 11 12 19 14 17 16 20 18 26 20 21 22 23 24 25 27 28 28 29
leaf_value=0.07677626326900075 0.057649839585587163 0.077847626022155753 0.069965028766994494 0.022897192435508744 -0.037343986859341781 0.034934481898120977 -0.0081034715999580894 -0.010185830392668661 -0.047301314891307331 -0.01293840103292776 0.077010519644353459 -0.065676250937144173 -0.059594577701027433 -0.029620911046603027 -0.071106547182339455 0.073888105673688101 0.06619206713103451 -0.005828365193347799 -0.016934231775982227 -0.076184671531715611 0.041693068632489304 -0.038047446347354949 -0.00031243639185882184 -0.076921967446682823 0.0033297203808147361 -0.076650004509568812 0.004993066002015622 -0.062072871836984789 0.05246960009332563 0.026663331549607285
leaf_count=15099 345 558 3106 1391 870 2717 2501 10319 12898 4001 150 26493 2348 731 646 498 1852 1156 2184 4526 1509 2964 1257 66 1707 570454 512 1614 76 643
internal_value=0 -0.22082527446692729 -0.55455139926810826 -0.89949713998289671 1.2768571863675031 0.12303819591262088 -1.0581473206344774 -0.044653863480846309 -1.1056618378393341 0.34554142623485312 -0.36284300989379759 -1.1925450129991366 -1.0291639050054009 -1.5273312847973786 -0.5845827776952921 0.3333557118727426 0.74234744103466666 0.20687445430152393 0.078081778902160226 -1.5290645589542406 0.42071093048158864 -0.48603519044904042 0.4749847216264112 0.72458812213308699 -0.20765483805301851 -1.5302731949589616 -1.300076274043082 -0.84609179733787088 -1.1362058257201137 -0.14923488018285025
internal_count=675191 96221 78545 52152 17676 26393 46247 23287 44856 10470 12817 39391 2498 578970 1057 5905 5826 5347 4849 577913 2665 5465 3974 411 2577 577182 6728 2202 1690 4644
shrinkage=0.05
has_categorical=0


Tree=8
num_leaves=31
split_feature=0 0 31 28 26 1 31 9 9 25 27 12 41 2 1 25 19 18 9 24 6 6 38 27 8 25 12 1 38 25
split_gain=84942.939477711509 191.64685629296582 495.14544301526905 51.960858052983617 42.231242362273356 21.516898036521575 14.561950458155479 13.962901053371915 12.902408762507548 8.8438031805171491 6.725992032974931 6.5259725796363064 5.9062791023970931 5.8606152614725389 5.4760120293631189 4.9983502931827388 4.8864403431509604 5.1143815923666534 4.0832493178514362 5.8002117843307239 3.5904438880891085 4.0395935833999435 2.9659410524759764 2.4922419419906419 1.9922385794752699 1.7777069060502981 1.71493228923282 1.4642767634277334 1.3633186546480367 1.26075901580381
threshold=62767.5 66868.5 9.9999996826552254e-21 19.5 1.5 21.5 9.9999996826552254e-21 8.5 2.5 30.5 1220.5 165 1.5 50.5 3.5 30.5 33.5 3.5 2.5 4.3304878048780493 4.5 8.5 1.5 608.5 2017.5 29.5 240 1.5 3.5 3.5
decision_type=0 0 0 0 0 0 0 0 0 0 0 0 0 0 0 0 0 0 0 0 0 0 0 0 0 0 0 0 0 0
default_value=0 0 0 0 1.7976931348623157e+308 0 0 0 0 1.7976931348623157e+308 1.7976931348623157e+308 0 0 0 0 -9.9999996826552254e-21 0 1.7976931348623157e+308 0 1.7976931348623157e+308 0 0 0 0 0 1.7976931348623157e+308 1.7976931348623157e+308 0 0 -9.9999996826552254e-21
left_child=8 2 3 -2 5 7 15 16 24 10 -9 -12 26 -6 -4 25 17 -5 29 -20 -21 -22 -19 -16 -1 -3 27 -10 -7 -15
right_child=1 6 14 4 13 28 -8 9 12 -11 11 -13 -14 18 23 -17 -18 22 19 20 21 -23 -24 -25 -26 -27 -28 -29 -30 -31
leaf_parent=24 3 25 14 17 13 28 6 10 27 9 11 11 12 29 23 15 16 22 19 20 21 21 22 23 24 25 26 27 28 29
leaf_value=0.074976320208977071 0.076232128153464307 -0.078908866590837928 -0.033980178942726431 0.0033433981081248199 0.072556721757845957 -0.051912333967477943 -0.074949844332152488 -0.073355994245531311 0.077428282972387338 0.027871255915546775 0.017126193895674852 -0.055070267084792082 0.076656008821699179 0.078711667763836896 -0.043095672805108565 -0.078785667509100155 -0.015785857906887701 0.028306330569890514 0.064989892427184837 -0.016057962739148345 0.057900751058040961 0.0053357107316776651 0.077592045615089034 -0.07459390444438338 0.079495650004707222 -0.076083760652652654 0.078564463089779046 0.081088178409533987 -0.082250554322616104 0.04505583488682257
leaf_count=14998 181 2551 37 27 60 29 574840 38 1328 25 28 25 7891 22 27 10404 21 21 28 30 25 37 31 2064 1128 41925 5709 11601 34 26
internal_value=0 -1.499693040691872 -0.95210118303967872 0.55463496574190019 0.2248327705224549 -0.30635550531812678 -1.5021798693614876 -0.0030784442578065821 1.5537355233327406 -0.49037968703120588 -0.79602633705760828 -0.32721668989651959 1.5815654752318022 0.88073998715264534 -1.46860754917404 -1.5348352125448794 0.54724213972467106 0.77881170704750158 0.69130415523385524 0.49571684542296762 0.25097097434767168 0.52870467340781457 1.1514294683204289 -1.4832554718771946 1.5061428266402046 -1.5250082793218014 1.6013992677261941 1.614458440522567 -1.3657077181280808 1.2040483350383877
internal_count=675191 632536 2816 688 507 279 629720 216 42655 116 91 53 26529 228 2128 54880 100 79 168 120 92 62 52 2091 16126 44476 18638 12929 63 48
shrinkage=0.05
has_categorical=0


Tree=9
num_leaves=31
split_feature=0 0 31 28 26 2 9 31 9 27 7 29 4 10 41 25 2 14 36 2 25 14 2 4 8 25 12 39 39 2
split_gain=78774.645949739439 180.88989212305751 460.15535026654698 48.503658800862034 38.549253204269476 18.816145178133787 12.77527540087749 11.600455717823934 10.229780917310563 7.3040648336393428 9.8022732686150231 6.9095181119346307 6.2740937192652524 5.0810337719344982 4.6503344566481246 3.9543600470606179 3.2704805395018468 3.1635535945034192 3.4618293106163378 2.8475031661191323 5.4789521068171876 2.6898922566783945 2.5088415004327835 2.2045628148727054 1.5804189046393731 1.4081534367251152 1.3480610453716508 1.3351759701842099 1.0999936965927191 3.4650037978758021
threshold=62767.5 66868.5 9.9999996826552254e-21 19.5 1.5 254.5 4.5 9.9999996826552254e-21 2.5 1485.5 21.5 577.5 30.5 9.5 1.5 30.5 616.5 20170108.5 4.5 314.5 9.9999996826552254e-21 20170115.5 362.5 21.5 2017.5 29.5 240 26.5 24.5 548.5
decision_type=0 0 0 0 0 0 0 0 0 0 0 0 0 0 0 0 0 0 0 0 0 0 0 0 0 0 0 0 0 0
default_value=0 0 0 0 1.7976931348623157e+308 0 0 0 0 1.7976931348623157e+308 1.7976931348623157e+308 -9.9999996826552254e-21 1.7976931348623157e+308 0 0 -9.9999996826552254e-21 0 1.7976931348623157e+308 1.7976931348623157e+308 0 -9.9999996826552254e-21 1.7976931348623157e+308 0 -9.9999996826552254e-21 0 1.7976931348623157e+308 1.7976931348623157e+308 0 0 1.7976931348623157e+308
left_child=8 2 3 -2 5 9 -7 15 24 10 21 -4 13 -6 26 25 17 -8 -19 27 -21 -5 -15 -11 -1 -3 -10 -14 29 -13
right_child=1 7 11 4 12 6 16 -9 14 23 -12 28 19 22 -16 -17 -18 18 -20 20 -22 -23 -24 -25 -26 -27 -28 -29 -30 -31
leaf_parent=24 3 25 11 21 13 6 17 7 26 23 10 29 27 22 14 15 16 18 18 20 20 21 22 23 24 25 26 27 28 29
leaf_value=0.073172499468912619 0.074199398653998147 -0.076717224509968207 -0.012079634289812884 0.033396572304547456 -0.020726274192878372 0.034774521979903127 -0.067286372906045777 -0.073148238498213017 0.078344183592103184 -0.040078283425072053 -0.022303795422376319 -0.074158574757638249 0.041576101983774538 0.0084664955272353397 0.07469406965256295 -0.0766057575318113 -0.078086494807599549 -0.049965006405420551 -0.0069298957506404016 -0.006547585839664069 0.065143853997921983 0.081941699647665636 0.053326285583904259 0.0053393553011304475 0.077242846090979422 -0.074174141368287261 0.076409046765000488 0.070492888660286288 -0.072699966763541637 -0.022262962469398462
leaf_count=14998 181 2551 20 20 23 22 32 574840 12929 20 20 51 22 21 7891 10404 32 41 38 20 25 29 33 25 1128 41925 5709 84 2037 20
internal_value=0 -1.4633929209391403 -0.92545219133145096 0.5338914679877268 0.2155745198751565 -0.29344426690123293 -0.73997866770149345 -1.465845509210042 1.5123920293047366 0.34054750382763055 0.75585331812738488 -1.4321826369842445 0.84599201840334071 0.38011960939841682 1.5374238507580997 -1.4953502238573724 -0.96818935460438116 -0.80443357771934443 -0.58282172470421512 1.0969415255036166 0.67061919562846084 1.2453546768769659 0.72045423714374091 -0.29975450467651998 1.4694327831896579 -1.4864907310359838 1.5551922878936719 1.2884432791260814 -1.4447475056262535 -1.1846152077418544
internal_count=675191 632536 2816 688 507 279 165 629720 42655 114 69 2128 228 77 26529 54880 143 111 79 151 45 49 54 45 16126 44476 18638 106 2108 71
shrinkage=0.05
has_categorical=0


Tree=10
num_leaves=31
split_feature=0 0 31 27 2 9 24 4 31 9 1 25 27 12 9 9 2 3 25 27 19 4 25 27 10 1 8 25 25 1
split_gain=73403.496417632094 160.56055785430362 397.94332502605158 50.582178545915873 28.247575760880814 26.856161275165956 11.537314382952118 10.041682703683017 9.290126166481059 8.0490714030020172 6.2997671444189329 6.9463042841717701 7.5329620212112935 4.7148475803687164 4.6535672530332413 4.3819677828537351 4.2135674358724495 3.9182219762096917 3.7391134132412844 3.6434623063124043 3.2941775945136134 4.4540615391953722 3.1865178954685689 2.4737569558112549 1.3571609260565864 1.3058812630426928 1.2738485851832593 1.1174354633440089 0.8119885006090044 0.97079343625864567
threshold=62767.5 66868.5 9.9999996826552254e-21 658.5 58.5 8.5 4.9326484018264836 30.5 9.9999996826552254e-21 2.5 21.5 30.5 1338.5 149.5 2.5 3.5 632.5 2241933.5 7.5 1358.5 25.5 20.5 30.5 1838.5 8.5 3.5 2017.5 29.5 30.5 1.5
decision_type=0 0 0 0 0 0 0 0 0 0 0 0 0 0 0 0 0 0 0 0 0 0 0 0 0 0 0 0 0 0
default_value=0 0 0 0 0 0 0 1.7976931348623157e+308 0 0 0 -9.9999996826552254e-21 1.7976931348623157e+308 0 1.7976931348623157e+308 0 0 0 -9.9999996826552254e-21 1.7976931348623157e+308 1.7976931348623157e+308 -9.9999996826552254e-21 -9.9999996826552254e-21 0 0 0 0 1.7976931348623157e+308 -9.9999996826552254e-21 0
left_child=9 2 3 -2 19 7 -7 16 22 26 11 12 -8 -14 -9 -4 20 -16 -11 -5 21 -6 27 -23 -12 -17 -1 -3 29 -20
right_child=1 8 15 4 5 6 10 14 -10 18 24 -13 13 -15 17 25 -18 -19 28 -21 -22 23 -24 -25 -26 -27 -28 -29 -30 -31
leaf_parent=26 3 27 15 19 21 6 12 14 8 18 24 11 13 13 17 25 16 17 29 19 20 23 22 23 24 25 26 27 28 29
leaf_value=0.071542071364249823 0.070543288276817689 -0.074738754429720083 -0.028255054270334208 0.070336532527137494 -0.015210163763778276 0.030231833492374294 -0.072789717982388161 0.076691546329629212 -0.071515241699309826 0.072688090183928952 -0.048968857442072272 0.02123523873805646 0.016136812398848236 -0.046053335796101644 0.00039796489486970411 -0.049767248994021705 -0.040545556350489877 0.05389199852335852 0.073432272945152158 0.023019765034555877 -0.017499506912428978 0.068690948297061349 -0.074647662528791389 0.018014542854379919 -0.080927780522798295 -0.070895471051174941 0.075248296660894123 -0.072442999257627247 0.074936214858129221 0.076686540118704655
leaf_count=14988 184 2546 28 71 20 26 44 35 574588 6886 23 23 26 26 27 33 21 30 1201 23 30 20 10458 20 38 2060 1123 41998 10252 8343
internal_value=0 -1.4305782788453656 -0.91728407442617921 0.44429296746347868 0.11423160748185762 -0.11408807007935798 -0.6408837105623002 0.41133075282788167 -1.4329246828178919 1.4750132866888801 -0.83206984480322776 -0.55653067810762646 -0.81038411544552136 -0.28357002379108159 0.91991968678509428 -1.3990694453690609 0.0048822332043299112 0.56861843885664298 1.4973617392254721 1.1610044638965744 0.19617903308991383 0.47194834471959651 -1.4596459105480044 0.86681265816496778 -1.3763981050258365 -1.4107957917413669 1.4362910600283474 -1.4515719383060313 1.5119035074328573 1.5258349736225136
internal_count=675191 632398 2808 687 503 409 206 203 629590 42793 180 119 96 52 92 2121 111 57 26682 94 90 60 55002 40 61 2093 16111 44544 19796 9544
shrinkage=0.05
has_categorical=0


Tree=11
num_leaves=31
split_feature=0 0 31 27 24 2 24 40 1 29 31 29 10 25 4 19 41 6 4 2 7 25 18 1 7 1 31 25 29 25
split_gain=68312.638608081324 152.71222408529138 371.47669447676742 47.139394986598035 26.532972831022441 20.102080862128847 9.709094530460332 8.7053821679847676 9.9564808208182853 7.8593184738118982 7.4821991080534644 6.3889854231749723 6.0539989619134982 5.7161600818684679 5.341030275788377 4.2926344024137837 4.2290294607300893 3.6983070714159503 3.4000572892125902 3.0603998657046754 2.9504546300034384 2.5514146111490845 1.6413129098248476 1.2599177306514093 1.1566020807445234 1.1462143224944157 0.97724778588781192 0.89572703141311649 0.88595735261507969 0.84552580947242717
threshold=62767.5 66868.5 9.9999996826552254e-21 658.5 4.3304878048780493 194.5 4.9833333333333334 1.5 15.5 1865.5 9.9999996826552254e-21 577.5 9.5 31.5 23.5 21.5 1.5 8.5 25.5 72.5 21.5 30.5 9.9999996826552254e-21 3.5 18.5 1.5 9.9999996826552254e-21 29.5 493.5 35.5
decision_type=0 0 0 0 0 0 0 0 0 0 0 0 0 0 0 0 0 0 0 0 0 0 0 0 0 0 0 0 0 0
default_value=0 0 0 0 0 0 0 0 0 -9.9999996826552254e-21 0 -9.9999996826552254e-21 1.7976931348623157e+308 -9.9999996826552254e-21 1.7976931348623157e+308 1.7976931348623157e+308 0 1.7976931348623157e+308 -9.9999996826552254e-21 1.7976931348623157e+308 1.7976931348623157e+308 -9.9999996826552254e-21 0 0 1.7976931348623157e+308 0 0 1.7976931348623157e+308 -9.9999996826552254e-21 1.7976931348623157e+308
left_child=16 2 3 28 14 6 17 8 9 12 21 -4 -7 -14 -5 -9 25 20 24 -8 29 27 -16 -13 -10 -1 -27 -3 -2 -6
right_child=1 10 11 4 5 7 19 15 18 -11 -12 23 13 -15 22 -17 -18 -19 -20 -21 -22 -23 -24 -25 -26 26 -28 -29 -30 -31
leaf_parent=25 28 27 11 14 29 12 19 15 24 9 10 23 13 13 22 15 16 17 18 19 20 21 22 23 24 26 26 27 28 29
leaf_value=0.071547926280399979 0.072219320668634929 -0.07295865314298923 -0.012184756129549577 0.0064690659566187525 0.0826260439253204 -0.038329183311084758 0.016896653113742142 -0.014075894807186337 -0.076618196827251628 -0.058876080142617207 -0.070030325860596557 -0.048827394774618359 -0.0092430997032878527 0.057493527741957956 0.07514047184609679 0.045197168443523436 0.070671096581311599 0.0091556877145841202 -0.023636275481453941 -0.036049460673266712 0.024873175510572134 -0.072875512861955413 0.042578944776346134 -0.069444414365978188 -0.050244131533313988 0.073049839312791937 0.075705170657764775 -0.070875668823619287 0.052615307614661239 0.054836174771902571
leaf_count=5825 153 2546 21 20 27 23 20 27 50 26 574588 34 27 27 59 25 16466 23 26 27 22 10458 23 2066 29 18809 1693 41998 31 22
internal_value=0 -1.40066640434096 -0.89386635523432556 0.42819463504451244 0.10967040989038333 -0.1280504364898444 0.50096663852226908 -0.46926165521041652 -0.65954796362139301 -0.21166114231976241 -1.4029941633614209 -1.3686215725948327 0.12013701702797125 0.49416581733790987 1.0636397570727478 0.28415726520055662 1.4412799273610823 0.88815625258294395 -1.1181052918391043 -0.26032381647214009 1.1284022187690437 -1.4273134219697237 1.308585493413509 -1.3816637348554233 -1.3380430052761911 1.4580554403531738 1.4655447556396168 -1.419979027973576 1.3745736705476994 1.4155591231800895
internal_count=675191 632398 2808 687 503 401 141 260 208 103 629590 2121 77 54 102 52 42793 94 105 47 71 55002 82 2100 79 26327 20502 44544 184 49
shrinkage=0.05
has_categorical=0


Tree=12
num_leaves=31
split_feature=0 0 31 27 24 9 2 24 2 29 31 9 4 10 25 27 4 9 4 29 6 36 25 25 14 1 1 36 29 8
split_gain=63671.454428676894 145.76871963439044 347.46380348117441 44.05873723955105 24.321429306581148 18.980536141289832 16.966003094312683 8.310397253079973 7.1313497358620239 6.1906533538719941 6.0546858330781106 5.3733394581140601 5.0021672854539467 4.2167728132542752 6.2225691570682633 6.1066225202673472 4.1784840436912773 4.1603975611825526 4.1067704834437428 3.6266834148579914 3.2800507595664259 3.1155596084804689 2.426977093977257 2.053423537468916 1.8337358088273565 1.646515838612185 1.2714436177325297 1.1398818454274853 0.90373456826313259 0.84850092240958475
threshold=62767.5 66868.5 9.9999996826552254e-21 658.5 4.3304878048780493 2.5 194.5 4.9833333333333334 612.5 577.5 9.9999996826552254e-21 2.5 23.5 8.5 30.5 2432.5 30.5 8.5 30.5 1235.5 4.5 2.5 7.5 30.5 20170101.5 18.5 3.5 1.5 493.5 2017.5
decision_type=0 0 0 0 0 0 0 0 0 0 0 0 0 0 0 0 0 0 0 0 0 0 0 0 0 0 0 0 0 0
default_value=0 0 0 0 0 0 0 0 0 -9.9999996826552254e-21 0 0 1.7976931348623157e+308 0 -9.9999996826552254e-21 1.7976931348623157e+308 1.7976931348623157e+308 0 1.7976931348623157e+308 -9.9999996826552254e-21 1.7976931348623157e+308 0 -9.9999996826552254e-21 -9.9999996826552254e-21 0 1.7976931348623157e+308 0 1.7976931348623157e+308 -9.9999996826552254e-21 0
left_child=11 2 3 28 12 18 7 21 13 -4 23 29 -5 16 15 17 -8 -15 -6 -16 -9 -7 -13 -3 -23 -19 -11 -14 -2 -1
right_child=1 10 9 4 5 6 8 20 -10 26 -12 22 27 14 19 -17 -18 25 -20 -21 -22 24 -24 -25 -26 -27 -28 -29 -30 -31
leaf_parent=29 28 23 9 12 18 21 16 20 8 26 10 22 27 17 19 15 16 25 18 19 20 24 22 23 24 25 26 27 28 29
leaf_value=0.068671138615792646 0.07068100305627642 -0.069560653985460283 -0.011607326815516131 0.0061511414521165809 0.015574173541735162 0.064289507940618759 -0.08330745197851594 -0.050645157782095288 -0.070746867560942991 -0.047184003720882634 -0.06867559686169232 0.06966028703337164 0.047140630947064596 -0.0087516022397797124 0.049544585979131348 0.021051251886081122 -0.02039102135047095 -0.039826590489257699 0.073236135256009777 -0.011487474694608833 0.0062744648924117343 0.043465473336004354 0.072070080262530867 -0.071268408656333701 0.0033429974030132412 -0.078322876189531349 -0.068070564011185233 0.073029098890500216 0.050714303556675347 0.0717787897530974
leaf_count=14988 153 44544 21 20 22 29 22 20 44 34 574588 6886 30 24 20 20 23 23 36 20 23 21 19796 10458 27 27 2066 52 31 1123
internal_value=0 -1.3733788908470816 -0.87186708709735738 0.41258311686916571 0.10520831913887008 -0.12265728721888619 -0.30389325214577417 0.32047234900053218 -0.64332273398087636 -1.3407786448397074 -1.3756945308754864 1.4106734327263581 1.0259062974668238 -0.46511521865624811 -0.28199837364813723 -0.57860569349365776 -1.011688591680094 -0.85854868944720752 1.004303536229507 0.38277633081575302 -0.40177374254981635 0.72858561919539822 1.4293972420278074 -1.3978973058189839 0.41820336249708356 -1.2155909174004815 -1.3539916599846413 1.2667912374466297 1.3416415365350944 1.3780248109249364
internal_count=675191 632398 2808 687 503 401 343 120 223 2121 629590 42793 102 179 134 94 45 74 58 40 43 77 26682 55002 48 50 2100 82 184 16111
shrinkage=0.05
has_categorical=0


Tree=13
num_leaves=31
split_feature=0 0 31 27 24 2 2 24 29 40 1 10 31 4 14 6 7 19 10 27 41 2 18 25 6 1 1 1 31 25
split_gain=59427.557872782665 139.30253378741327 325.39103658464126 41.355484305929636 22.010231264823499 16.752608279929095 7.9741708071972592 7.5272287087261116 6.0147376671160373 5.5952351541887175 6.7322884577815412 7.5177557207094594 4.9223839620244689 4.7393429401525822 4.5972759417579363 3.8270483030469968 3.7171828648605292 3.6626987422589208 2.9465223635357081 2.8529243492133549 2.7781198509073874 2.2738583430360517 1.694978575138034 1.6597810788880452 1.3421865478883781 1.2866932055113693 1.0366158686926745 0.76519843605092319 0.65130797971505672 0.61012816592665331
threshold=62767.5 66868.5 9.9999996826552254e-21 609.5 4.3304878048780493 194.5 616.5 4.9833333333333334 577.5 1.5 15.5 9.5 9.9999996826552254e-21 23.5 20170119.5 9.5 23.5 21.5 20.5 1475.5 1.5 484.5 9.9999996826552254e-21 30.5 7.5 3.5 8.5 1.5 9.9999996826552254e-21 29.5
decision_type=0 0 0 0 0 0 0 0 0 0 0 0 0 0 0 0 0 0 0 0 0 0 0 0 0 0 0 0 0 0
default_value=0 0 0 0 0 0 0 0 -9.9999996826552254e-21 0 0 1.7976931348623157e+308 0 1.7976931348623157e+308 0 1.7976931348623157e+308 1.7976931348623157e+308 1.7976931348623157e+308 0 1.7976931348623157e+308 0 0 0 -9.9999996826552254e-21 0 0 0 0 0 1.7976931348623157e+308
left_child=20 2 3 -2 13 7 9 15 -4 10 11 -7 23 -5 -13 16 26 -11 21 -9 27 -12 -15 29 -8 -10 -6 -1 -29 -3
right_child=1 12 8 4 5 6 24 19 25 17 18 14 -14 22 -16 -17 -18 -19 -20 -21 -22 -23 -24 -25 -26 -27 -28 28 -30 -31
leaf_parent=27 3 29 8 13 26 11 24 19 25 17 21 14 12 22 14 15 16 17 18 19 20 21 22 23 24 25 26 28 28 29
leaf_value=0.068694580935817623 0.06806713904303463 -0.069911369599577361 -0.011056561848266063 0.0058486946851289655 0.076678382823319693 -0.047101460672999709 -0.074750608326296528 0.014833222600756028 -0.045615749626798298 -0.0085137454544688095 -0.051550814532102585 -0.012049651972291388 -0.067436107226052519 0.071602329255454664 0.041427168712967477 0.0015258820843027827 0.013627946864318605 0.049369992532762898 -0.07859281106101601 -0.035583220766690564 0.0679717024481203 -0.0047478538441690183 0.038163134642043219 -0.06980598242391188 -0.039546872597208238 -0.066809867819492399 0.047792024436792695 0.069959006450257794 0.072184640456774321 -0.068142161064145335
leaf_count=5825 172 2546 21 20 33 30 28 24 34 24 27 34 574588 60 34 21 21 23 22 24 16466 20 23 10458 22 2066 25 18809 1693 41998
internal_value=0 -1.3484166973479639 -0.85153106806455869 0.39821285721589489 0.11565335645823754 -0.097212037076298649 -0.41284956063254014 0.46378403572343352 -1.3151377020822712 -0.24204674366658357 -0.42089821688949863 -0.078587073461225315 -1.3507231296806543 0.99570087887258596 0.29839199880462075 0.79330554580461266 1.0129652366964725 0.38912096843816196 -0.93012491164680666 -0.20679016523171007 1.3827440851283954 -0.63438570060048294 1.2313855023649491 -1.3710551713653385 -1.1839568513416323 -1.32855877045903 1.2960650869781354 1.3967230058225983 1.4030114711954476 -1.3649465212219547
internal_count=675191 632398 2808 687 515 412 264 148 2121 214 167 98 629590 103 68 100 79 47 69 48 42793 47 83 55002 50 2100 58 26327 20502 44544
shrinkage=0.05
has_categorical=0


Tree=14
num_leaves=31
split_feature=0 0 31 27 24 9 2 2 24 9 4 9 14 31 4 36 30 9 6 14 20 27 18 25 1 25 27 27 8 20
split_gain=55536.620091019751 133.6496089559223 305.25421325366386 38.894836719397233 20.216821494536653 17.56323860916908 13.653365504043354 6.6771561244812467 6.6611622342065084 4.470446920711538 4.4581306594088765 4.1298900592811139 4.688377554902651 4.0160124039684888 3.8898333944967209 3.8157700646065136 3.729614846699413 3.6409892502742878 2.9661774701184669 2.2247843879950988 1.9739951122850918 2.8084955870738533 1.6596863597095961 1.6048834504072147 1.3613935637092709 1.347771534241474 0.77363748259995191 0.6566407589222969 0.57344891361117334 0.55695001821854362
threshold=62767.5 66868.5 9.9999996826552254e-21 609.5 4.3304878048780493 2.5 194.5 612.5 4.9833333333333334 3.5 23.5 8.5 20170213.5 9.9999996826552254e-21 30.5 2.5 42.5 2.5 4.5 20170113.5 39.5 1912.5 9.9999996826552254e-21 7.5 3.5 30.5 608.5 1053.5 2017.5 29.5
decision_type=0 0 0 0 0 0 0 0 0 0 0 0 0 0 0 0 0 0 0 0 0 0 0 0 0 0 0 0 0 0
default_value=0 0 0 0 0 0 0 0 0 0 1.7976931348623157e+308 0 1.7976931348623157e+308 0 1.7976931348623157e+308 0 -9.9999996826552254e-21 0 1.7976931348623157e+308 0 1.7976931348623157e+308 0 0 -9.9999996826552254e-21 0 -9.9999996826552254e-21 0 0 0 0
left_child=17 2 3 -2 10 14 8 11 15 -4 -5 16 20 25 -6 -7 -8 28 -10 -17 21 27 -12 -19 -11 -3 -26 -13 -1 -9
right_child=1 13 9 4 5 6 7 29 18 24 22 12 -14 -15 -16 19 -18 23 -20 -21 -22 -23 -24 -25 26 -27 -28 -29 -30 -31
leaf_parent=28 3 25 9 10 14 15 16 29 18 24 22 27 12 13 14 19 16 23 18 19 20 21 22 23 26 25 26 27 28 29
leaf_value=0.066275465186253865 0.066745039787438606 -0.067044263659971959 -0.020912806647907095 0.0055609731707208761 0.015349344139922658 0.062049736493402841 0.022296868582750873 -0.079399683132415022 -0.047877326252451752 -0.043298108658675866 0.069860911173393422 -0.053675629978389344 0.0057384388867848168 -0.06629906661270904 0.07134699876663575 0.037781382760757244 -0.024294604538034059 0.067134469129456031 0.0064297856450834315 -0.0049553456654526295 -0.015862307959170378 -0.021849332645116792 0.03654984840367461 0.069156481579237344 -0.047025195332421769 -0.068471077513949416 -0.06588599712720547 -0.07936897250098332 0.0689083760201291 -0.054996040342434251
leaf_count=14988 172 44544 28 20 22 31 35 21 20 33 60 20 26 574588 38 24 36 6886 23 27 20 20 23 19796 26 10458 2034 26 1123 23
internal_value=0 -1.3255161349001128 -0.83211581041684024 0.3840424853430805 0.11098989781956244 -0.093118697803668743 -0.26648688545595722 -0.5739035989629051 0.28264716602976786 -1.2914470151002322 0.96204117443522397 -0.40551846402057568 -0.66240222412632599 -1.3278200707626218 0.98608115404509022 0.63307719676545005 -0.027192532383253722 1.357234168962812 -0.37220076546642711 0.30112542191019109 -0.90075557686329333 -1.075413074440752 1.1947834878231436 1.3730918655565634 -1.3043546818555316 -1.3464838856340871 -1.3122997823698135 -1.3705128525603134 1.3294320480420316 -1.3386697327201009
internal_count=675191 632398 2808 687 515 412 352 227 125 2121 103 183 112 629590 60 82 71 42793 43 51 86 66 83 26682 2093 55002 2060 46 16111 44
shrinkage=0.05
has_categorical=0


Tree=15
num_leaves=31
split_feature=0 0 31 28 26 9 27 4 9 34 18 14 7 27 2 27 27 31 9 16 19 27 19 41 14 25 39 4 9 19
split_gain=51973.67301642301 130.39190730743576 282.71528028630257 29.529730807330559 20.921954816018491 17.896203293246895 8.8321443856917767 6.2907473741164033 5.127048852435844 4.7331554551997108 4.5307610574168535 4.4162083101114549 4.2578524349152369 4.3470393956243676 5.3143898175630424 4.1170916054680902 7.4775659999600599 3.2868295414373279 3.0035177891932108 2.36336038031948 2.1188908773100099 1.8559072412395636 1.6923945947706187 1.3290120487345121 1.148448541259306 1.0888046303225565 0.90746746596698813 2.418984759047877 0.73850701522337658 0.72314789869277973
threshold=62767.5 66868.5 9.9999996826552254e-21 19.5 1.5 8.5 607.5 31.5 2.5 9.9999996826552254e-21 1.5 20170107.5 24.5 1577.5 317.5 1220.5 1629.5 9.9999996826552254e-21 2.5 7.5 12.5 1644.5 18.5 1.5 20170210.5 30.5 24.5 16.5 5.5 47.5
decision_type=0 0 0 0 0 0 0 0 0 0 0 0 0 0 0 0 0 0 0 0 0 0 0 0 0 0 0 0 0 0
default_value=0 0 0 0 1.7976931348623157e+308 0 0 1.7976931348623157e+308 1.7976931348623157e+308 0 1.7976931348623157e+308 1.7976931348623157e+308 0 1.7976931348623157e+308 0 1.7976931348623157e+308 1.7976931348623157e+308 0 0 1.7976931348623157e+308 0 0 0 0 0 -9.9999996826552254e-21 0 -9.9999996826552254e-21 0 0
left_child=18 2 3 29 5 8 -4 11 -5 15 -9 -6 13 14 -10 19 -17 25 -1 -7 -13 22 -12 -20 -11 -3 27 -8 -28 -2
right_child=1 17 6 4 7 9 26 10 12 24 21 20 -14 -15 -16 16 -18 -19 23 -21 -22 -23 -24 -25 -26 -27 28 -29 -30 -31
leaf_parent=18 29 25 6 8 11 19 27 10 14 24 22 20 12 13 14 16 16 17 23 19 20 21 22 23 24 25 28 27 28 29
leaf_value=0.065414401519702195 0.066763234905397248 -0.06594174875157377 0.0052730497415305689 0.065141616029061863 0.043559703071221284 -0.066424735535451682 -0.018045583050750432 0.0085477532930284261 0.060123975855665736 -0.06614332781369045 0.057942442166463604 -0.02841747598244181 -0.030571897852921078 -0.018062779921134895 -0.0058241632929796061 0.047009304664402049 -0.040280949431483082 -0.065253659589480192 0.067945549449314024 -0.016550221490770577 0.011093849789621772 0.079765976646783365 0.022989336032394496 0.066163588491735315 -0.037749701250129337 -0.067248034595743258 -0.050340345046987658 -0.06631846173171245 -0.064718701532778228 0.044174672827435972
leaf_count=16137 138 44516 20 22 29 23 20 27 35 46 64 24 22 22 20 21 22 574733 18655 21 34 29 22 8001 25 10406 49 42 1945 21
internal_value=0 -1.3044685106934739 -0.80459530599839446 0.38809534456639738 0.1559779112355501 -0.22642421895780193 -1.2609274100554766 0.63641869079498392 0.35989591833646506 -0.70779072892574368 0.93238183034205724 0.21527145238759965 0.16969930887239579 0.39882799030570931 0.7097538079199277 -0.37767583745241756 0.076694638203450349 -1.3067648121646616 1.3339535135753311 -0.84651685484332084 -0.10796078591182857 1.1331359235248131 0.96194068211694173 1.3485975378247286 -1.1195509909253216 -1.3239479659626949 -1.2781322399141282 -1.0035857816631486 -1.287040807315369 1.2731231382040862
internal_count=675191 632398 2743 667 508 279 2076 229 121 158 142 87 99 77 55 87 43 629655 42793 44 58 115 86 26656 71 54922 2056 62 1994 159
shrinkage=0.05
has_categorical=0


Tree=16
num_leaves=31
split_feature=0 0 26 40 27 27 1 27 5 14 2 25 16 3 21 19 15 36 1 38 40 25 25 36 29 3 27 4 34 21
split_gain=48678.649695733533 125.59709123178618 167.92881126572877 83.490045452247102 25.335074192436622 13.412912372793357 9.1476744264008456 7.0378324255126046 7.3706848836613776 5.6083020810755091 6.1902511594358494 7.9759604566770292 4.1022181226739676 3.1239218210239699 3.6457347663052637 2.860445479650032 2.6107362478732989 2.5779867458206009 2.5446339506781896 2.5172003407685981 2.1077393692976329 1.5104028665136866 1.001742659307638 0.85942261622561489 1.055877862930803 0.7801435333393556 2.0560829747935117 2.1971145741363269 1.1658480838675835 0.62893187478476875
threshold=62767.5 66868.5 2.5 1.5 524.5 604.5 21.5 674.5 2014.5 20161212.5 42.5 30.5 1.5 4568743.5 5204.8009999999995 44.5 34.5 5.5 3.5 3.5 1.5 26.5 30.5 3.5 1281.5 4364263 2233.5 28.5 9.9999996826552254e-21 134.12549999999999
decision_type=0 0 0 0 0 0 0 0 0 0 0 0 0 0 0 0 0 0 0 0 0 0 0 0 0 0 0 0 0 0
default_value=0 0 1.7976931348623157e+308 0 0 0 0 0 0 0 0 -9.9999996826552254e-21 1.7976931348623157e+308 0 1.7976931348623157e+308 1.7976931348623157e+308 1.7976931348623157e+308 1.7976931348623157e+308 0 1.7976931348623157e+308 0 -9.9999996826552254e-21 -9.9999996826552254e-21 1.7976931348623157e+308 -9.9999996826552254e-21 0 0 1.7976931348623157e+308 0 0
left_child=21 2 3 4 -2 -5 9 -4 12 -6 -11 15 -9 14 23 16 17 -12 -7 -8 22 -1 -3 -14 -25 29 -27 -28 -29 -20
right_child=1 20 7 5 6 18 19 8 -10 10 11 -13 13 -15 -16 -17 -18 -19 25 -21 -22 -23 -24 24 -26 26 27 28 -30 -31
leaf_parent=21 4 22 7 5 9 18 19 12 8 10 17 11 23 13 14 15 16 17 29 19 20 21 22 24 24 26 27 28 28 29
leaf_value=0.064705649592263201 0.066514328462534661 -0.064833336311025391 0.065508981192945057 0.018349194782152412 0.032499027289291743 -0.032254056622505099 -0.027610923835205151 -0.0024242086181354393 -0.020515839630934795 0.039046196250818288 -0.019567252793391905 0.021652936604627547 0.042577477335587179 0.0031545990872007255 0.017958930821193663 -0.065349810637036099 -0.0019918573602608898 -0.06448057271006917 -0.045391494228906891 -0.075588984367401579 -0.06430266231568825 0.06615551516356262 -0.066139245052493273 0.05389026838801924 0.080406390710563214 -0.063057814371280038 -0.013184742687431767 -0.064405583529789132 -0.033522200163931121 -0.062940797371086654
leaf_count=16220 63 40009 88 24 36 37 23 27 29 22 34 36 32 20 34 26 34 26 29 30 579588 26573 10058 52 27 203 26 47 27 1711
internal_value=0 -1.2850617867268492 -0.78737214636434627 -1.0066739531194091 -0.016714545593832987 -1.1979204340601348 -0.28014289954935961 0.72976350661997369 0.53954279361848223 -0.092703557973509459 -0.24815346287384379 -0.39790125881989286 0.70117097210934598 0.8345449621485459 0.95080169751232368 -0.67161994856558849 -0.50094879632195577 -0.77324647647266032 -1.2211114435504902 -1.0973497451510343 -1.2873633814196239 1.3124378742468295 -1.3021038904337399 1.1543787867966091 1.2803958246011609 -1.2332412289625474 -1.1214675921210306 -0.84448755799777031 -1.0568268125866127 -1.252809771835278
internal_count=675191 632398 2743 2434 330 2104 267 309 221 214 178 156 192 165 145 120 94 60 2080 53 629655 42793 50067 111 79 2043 303 100 74 1740
shrinkage=0.05
has_categorical=0


Tree=17
num_leaves=31
split_feature=0 0 31 27 24 9 2 8 9 27 25 27 25 27 28 33 4 31 1 19 19 9 39 41 9 37 25 2 8 25
split_gain=45637.028092656954 121.86873143314733 251.92659648106911 26.222834345834944 16.973679825652731 16.314410095940378 9.8744016565286596 9.2649197297792192 8.4735359994067529 8.1205837348152272 6.1881087848779259 6.5279523270803912 4.7596509822080071 4.4649276751222651 4.0855243682063032 3.884692115276219 2.298867645033944 2.237443350662943 2.2043841260073123 2.162379570542253 2.0996577320947978 2.0738389095149614 1.0828119810114885 0.89761420092600019 0.84127044217825642 0.74868620046267509 0.72878001890603628 0.39717976215397854 0.34315889768095076 0.31194065405725269
threshold=62767.5 66868.5 9.9999996826552254e-21 658.5 4.3304878048780493 8.5 42.5 2017.5 2.5 607.5 30.5 1318.5 30.5 2367.5 43.5 9.9999996826552254e-21 29.5 9.9999996826552254e-21 3.5 35.5 38.5 2.5 32.5 1.5 5.5 9.9999996826552254e-21 30.5 412.5 2017.5 29.5
decision_type=0 0 0 0 0 0 0 0 0 0 0 0 0 0 0 0 0 0 0 0 0 0 0 0 0 0 0 0 0 0
default_value=0 0 0 0 0 0 0 1.7976931348623157e+308 1.7976931348623157e+308 0 -9.9999996826552254e-21 0 1.7976931348623157e+308 1.7976931348623157e+308 0 0 1.7976931348623157e+308 0 0 1.7976931348623157e+308 0 0 1.7976931348623157e+308 0 0 0 -9.9999996826552254e-21 0 0 1.7976931348623157e+308
left_child=21 2 3 20 16 7 -7 8 -6 -4 13 -12 14 19 -10 -9 -5 26 -11 25 -2 28 -18 -23 -20 -8 29 -27 -1 -3
right_child=1 17 9 4 5 6 10 15 12 18 11 -13 -14 -15 -16 -17 22 -19 24 -21 -22 23 -24 -25 -26 27 -28 -29 -30 -31
leaf_parent=28 20 29 9 16 8 6 25 15 14 18 11 11 12 13 14 15 22 17 24 19 20 23 22 23 24 27 26 27 28 29
leaf_value=0.063363140303771576 0.064384161261066317 -0.065244963191777847 0.0042474123398934969 0.027105388009290202 0.070467740220359773 0.053491627781594789 -0.048760189003068263 -0.039489570497464974 0.02787119207694775 -0.034564694054651089 0.040237765102475731 -0.039004249774444333 0.059187862152407317 -0.0059464297660592989 -0.02222751498117706 0.016787724438968869 0.073397061663766014 -0.06340013483803135 -0.046953693709210986 -0.029315318683454845 0.031686527225044496 0.065698146030687521 0.043496933673348108 0.064182144294181426 -0.062957022174320018 -0.080489271377679472 -0.065095834305752151 -0.061643545859968667 0.065480463463548494 -0.06390796209244623
leaf_count=14988 145 2598 20 37 50 20 26 32 33 36 21 22 21 27 35 21 35 574733 48 30 31 18655 28 8001 1972 26 10406 27 1149 41918
internal_value=0 -1.2671323631293634 -0.76997263797477689 0.36591568286375376 0.13044078823136646 -0.065327462851950069 -0.50535862107381502 0.3622108823198032 0.65768441855743665 -1.221889375810413 -0.65204637217053574 0.0089700370640906722 0.29515994928581013 -0.89150548652334149 0.039828731382195753 -0.35069310781797913 0.93449035325439833 -1.269450670974279 -1.2395883138397563 -1.092886285347058 1.1631643764003776 1.2926408417143678 1.2119705040580844 1.3052103263633259 -1.2511947088972311 -1.2803976901736487 -1.2841327118104493 -1.4280486702619386 1.2705124227719464 -1.2797952387869853
internal_count=675191 632398 2743 667 491 391 199 192 139 2076 179 43 89 136 68 53 100 629655 2056 109 176 42793 63 26656 2020 79 54922 53 16137 44516
shrinkage=0.05
has_categorical=0


Tree=18
num_leaves=31
split_feature=0 0 31 28 26 9 27 4 9 34 38 9 7 27 2 25 4 1 6 1 31 9 29 6 9 6 25 10 25 25
split_gain=42824.313499527139 117.70218989337445 237.17035067482698 24.851777782084561 16.245686055563155 14.741842221108328 7.8576949245737069 5.6881048289982594 4.5449774065757387 4.2842237412506705 4.5900184653134826 4.303218370490284 3.9183744953672233 3.6770106857251159 4.568072463116585 3.6710423713069433 5.0505228836712224 3.0306187586621931 2.6164281425660718 2.2220472400269955 1.8486927413323428 1.7109375123509381 1.2587541754403087 1.0727357188504705 0.84992630659803581 0.78088169346128034 0.73867713904292032 0.73600257585539453 0.59995925360817637 0.43892555528475086
threshold=62767.5 66868.5 9.9999996826552254e-21 19.5 1.5 8.5 607.5 30.5 2.5 9.9999996826552254e-21 3.5 9.5 24.5 1577.5 317.5 114.5 23.5 19.5 8.5 3.5 9.9999996826552254e-21 2.5 1426.5 7.5 5.5 7.5 10.5 24.5 30.5 118.5
decision_type=0 0 0 0 0 0 0 0 0 0 0 0 0 0 0 0 0 0 0 0 0 0 0 0 0 0 0 0 0 0
default_value=0 0 0 0 1.7976931348623157e+308 0 0 1.7976931348623157e+308 1.7976931348623157e+308 0 0 0 0 1.7976931348623157e+308 0 -9.9999996826552254e-21 1.7976931348623157e+308 1.7976931348623157e+308 1.7976931348623157e+308 0 0 0 -9.9999996826552254e-21 0 0 1.7976931348623157e+308 -9.9999996826552254e-21 1.7976931348623157e+308 -9.9999996826552254e-21 -9.9999996826552254e-21
left_child=21 2 3 27 5 8 -4 15 -5 10 11 -7 13 14 -10 -6 -17 18 29 -8 28 -1 -19 -11 25 -21 -23 -2 -3 -9
right_child=1 20 6 4 7 9 19 17 12 23 -12 -13 -14 -15 -16 16 -18 22 -20 24 -22 26 -24 -25 -26 -27 -28 -29 -30 -31
leaf_parent=21 27 28 6 8 15 11 19 29 14 23 10 11 12 13 14 16 16 22 18 25 20 26 22 23 24 25 26 27 28 29
leaf_value=0.062693249020537856 0.064036852274302405 -0.063123064788972089 0.0040308895102591311 0.062259883851815294 0.034573131300181588 0.033298742419031475 -0.033365422981953573 0.059449503851112577 0.056778307745389216 -0.063772277867326352 -0.045447211958476598 -0.029989487743875498 -0.029695755163602518 -0.016001682230506447 -0.0047329351577443859 0.022064691460249034 -0.042990635891108846 0.00058747390482531822 0.025628129496846147 -0.032782330002167882 -0.0625769449676081 0.06320524594910322 0.036884587469878959 -0.036434916812940629 -0.062107218910728061 -0.06407250786539774 0.064666332514892941 0.040982880235057778 -0.06414478850798426 0.078125360735166904
leaf_count=16137 136 44516 20 22 34 26 36 50 35 41 38 23 22 22 20 26 24 22 26 28 574733 7020 24 30 1972 20 19636 23 10406 23
internal_value=0 -1.2505510175644996 -0.75455782413242523 0.3537538545794397 0.14284237404026745 -0.19833608109962078 -1.2039237476381537 0.57467931524527205 0.33606219263105647 -0.64617145834211431 -0.32853238999927487 0.093679520095684587 0.15805759640188186 0.37992263024701467 0.66958594781670122 0.16281113786035278 -0.18697226214938947 0.85845764771519251 1.0876902542901592 -1.2219773688463336 -1.2528803005193225 1.2743470352681969 0.39962409818392963 -1.0486286369377933 -1.2339667864444015 -0.91619018249556994 1.2859624574252762 1.2114556721516967 -1.2664713889336658 1.3244565262830998
internal_count=675191 632398 2743 667 508 279 2076 229 121 158 87 49 99 77 55 84 50 145 99 2056 629655 42793 46 71 2020 48 26656 159 54922 73
shrinkage=0.05
has_categorical=0


Tree=19
num_leaves=31
split_feature=0 0 31 27 26 9 27 4 9 7 18 35 37 2 7 25 18 4 9 1 14 1 19 31 9 9 6 6 41 25
split_gain=40218.499771101109 114.02854159710114 223.54677032262242 23.570047084501034 15.220174674496324 12.365640847017904 7.6144856798413798 5.2802633569148263 4.3988011223771064 4.049695508004584 4.1708609493402875 3.766645001976789 3.6605696999296384 4.4768804823310964 3.5431488194732523 3.5390952285186517 3.49147696785192 4.8764963663114935 2.5627310153081275 2.9728497795706756 2.8730031945230774 2.2424681139873428 2.00644949491506 1.5318621327751316 1.4145965663665265 0.86042853496888938 0.76665410325445205 0.62247802781246442 0.61189863233812503 0.4951427974683611
threshold=62767.5 66868.5 9.9999996826552254e-21 524.5 1.5 8.5 607.5 30.5 2.5 24.5 3.5 9.9999996826552254e-21 1.5 412.5 12.5 121.5 2.5 46.5 9.5 21.5 20170117.5 3.5 18.5 9.9999996826552254e-21 2.5 5.5 7.5 5.5 1.5 30.5
decision_type=0 0 0 0 0 0 0 0 0 0 0 0 0 0 0 0 0 0 0 0 0 0 0 0 0 0 0 0 0 0
default_value=0 0 0 0 1.7976931348623157e+308 0 0 1.7976931348623157e+308 1.7976931348623157e+308 0 1.7976931348623157e+308 0 1.7976931348623157e+308 0 1.7976931348623157e+308 -9.9999996826552254e-21 1.7976931348623157e+308 1.7976931348623157e+308 0 0 1.7976931348623157e+308 0 0 0 0 0 1.7976931348623157e+308 1.7976931348623157e+308 0 -9.9999996826552254e-21
left_child=24 2 3 -2 5 8 -4 12 -5 10 -10 18 15 -14 -12 -6 17 -9 19 20 -7 -8 -18 29 -1 26 -23 -20 -26 -3
right_child=1 23 6 4 7 11 21 16 9 -11 14 -13 13 -15 -16 -17 22 -19 27 -21 -22 25 -24 -25 28 -27 -28 -29 -30 -31
leaf_parent=24 3 29 6 8 15 20 21 17 10 9 14 11 13 13 14 15 22 17 27 19 20 26 22 23 28 25 26 27 28 29
leaf_value=0.061922415632625731 0.06295895460959211 -0.062320844801017475 0.0038256318951823578 0.060648577912772741 0.061554846552754741 -0.0406856437286362 -0.032204543040584351 0.053695781895111143 -0.011656897525744267 -0.029925912294381934 0.065902258582381731 -0.00040257026211031554 -0.046589864195999746 0.018773584145468883 0.010672855394838898 0.00086854355805939107 0.06252112453068602 -0.021123495891230023 -0.047685096805892058 -0.059188867335288678 0.0092963661098289119 -0.031741818364805094 0.026248024616689208 -0.06181404616634311 0.063783255067857592 -0.061316680099716837 -0.063200925001931266 -0.0747302908789651 0.06248491174264087 -0.06326624995539476
leaf_count=16137 143 44516 20 22 21 25 36 20 31 24 24 39 21 24 27 20 85 20 20 27 29 28 24 574733 18655 1972 20 21 8001 10406
internal_value=0 -1.2351802124584148 -0.73955958338584471 0.34165272368658522 0.15171542174282032 -0.17415175848430825 -1.1870596750181306 0.56854479648915646 0.30215438086991514 0.1367538017650376 0.35963691538464532 -0.58697376891790654 0.1751412676788445 -0.23210954040608406 0.73068190328298677 0.62142251434018547 0.84154779827137338 0.31204976029840326 -0.78010163435623514 -0.55306351945076548 -0.27167280311209735 -1.2055009519556381 1.0687413019890242 -1.2375258280227937 1.2574341721272497 -1.2179028771157294 -0.89402420048938791 -1.2269293037527309 1.2681848551784616 -1.2501303605952669
internal_count=675191 632398 2743 667 524 289 2076 235 128 106 82 161 86 45 51 41 149 40 122 81 54 2056 109 629655 42793 2020 48 41 26656 54922
shrinkage=0.05
has_categorical=0


Tree=20
num_leaves=31
split_feature=0 0 31 27 2 14 9 25 25 15 29 38 21 14 27 38 4 7 2 1 31 10 19 9 1 25 9 38 25 9
split_gain=37726.933805442532 97.423655771766789 209.55078506592656 22.981500536364948 13.779913144962336 13.159585781611725 10.823098647838606 5.9095983627504669 4.8808192253557161 4.1011303009261093 4.0941486742915458 3.8693503743372051 2.8805409779246887 4.3728774953255662 2.8327328665131404 2.3619102223717698 4.3072401095004142 2.3294041923998172 2.2541729446227858 2.1457550462762924 1.2721096923341975 1.2264802540037323 1.220360118403093 1.1710995141293097 0.63934137800013779 0.50614285391475278 0.43628575751290555 3.6175636578415684 0.41186036863109621 0.18449818022236286
threshold=62767.5 66868.5 9.9999996826552254e-21 658.5 34.5 20161208.5 8.5 30.5 210.5 2.5 579.5 2.5 3034.8564999999999 20160926.5 2367.5 1.5 24.5 12.5 401.5 3.5 9.9999996826552254e-21 16.5 38.5 2.5 16.5 7.5 8.5 2.5 30.5 8.5
decision_type=0 0 0 0 0 0 0 0 0 0 0 0 0 0 0 0 0 0 0 0 0 0 0 0 0 0 0 0 0 0
default_value=0 0 0 0 0 0 0 -9.9999996826552254e-21 1.7976931348623157e+308 1.7976931348623157e+308 -9.9999996826552254e-21 0 1.7976931348623157e+308 1.7976931348623157e+308 1.7976931348623157e+308 1.7976931348623157e+308 -9.9999996826552254e-21 0 1.7976931348623157e+308 0 0 1.7976931348623157e+308 0 0 0 -9.9999996826552254e-21 0 0 -9.9999996826552254e-21 0
left_child=23 2 3 22 24 12 8 14 9 -7 -4 -9 21 -14 17 -11 -17 -8 -10 -12 28 -6 -2 -1 -5 -25 27 -21 29 -3
right_child=1 20 10 4 5 6 7 11 18 15 19 -13 13 -15 -16 16 -18 -19 -20 26 -22 -23 -24 25 -26 -27 -28 -29 -30 -31
leaf_parent=23 22 29 10 24 21 9 17 11 18 15 19 11 13 13 14 16 16 17 18 27 20 21 22 25 24 25 26 27 28 29
leaf_value=0.061203736400572688 0.063065038488599512 -0.06195855690499355 -0.011475496048829907 0.064195781367292745 0.03813180240006616 0.030034507022388753 -0.033384640667467276 0.032226563951676022 0.012746538229055982 -0.040687696999836064 -0.032457005292056501 -0.031436561627621804 0.056308394669049383 -0.010004718052199227 -0.010630144962050312 0.027802735559952354 -0.034450120857479942 -0.069714245108735459 0.06199500213832107 -0.0086303752099011252 -0.061105913332536003 0.074571441039734204 0.033481874852701481 0.061632855869604812 0.038672510388213267 0.062896901107868816 -0.060871766338886281 -0.06175036699303707 -0.062453967401678558 -0.061397920158362443
leaf_count=16072 143 13836 20 47 22 30 37 20 20 26 37 20 20 27 22 25 23 57 22 24 574926 20 23 6891 20 19739 1897 145 10440 30540
internal_value=0 -1.2210613542902351 -0.75449202051197839 0.35045347968097795 0.1242125951125678 -0.016252718889969795 -0.23064960978361448 -0.64316697529505873 0.16876101566297824 -0.069642775115038261 -1.1802580527528226 0.01713386454711105 0.70375284155431961 0.33986777690786996 -0.92013156565903964 -0.3242017232382885 -0.047227008889555631 -1.0960010388449182 0.7821911082946793 -1.1936509088082445 -1.2232738908350187 1.1084567766169184 1.1703371020249456 1.2417382293363901 1.1345198471518569 1.251694884603181 -1.2060795537040576 -1.0821411359102973 -1.234993274642862 -1.2315252052369881
internal_count=675191 632489 2747 624 458 391 302 156 146 104 2123 40 89 47 116 74 48 94 42 2103 629742 42 166 42702 67 26630 2066 169 54816 44376
shrinkage=0.05
has_categorical=0


Tree=21
num_leaves=31
split_feature=0 0 31 27 2 14 9 15 1 14 2 38 9 15 7 34 21 14 5 7 31 9 2 19 1 29 41 29 26 7
split_gain=35484.309790766056 94.623259382817196 197.8584768310842 21.771754852849948 12.662349660803015 11.681138863951118 10.46338995606429 4.6149006455081976 4.1373472698768978 3.3773242838190924 3.6525833204119671 3.1342245161240907 3.8959738691100032 3.3285266708572969 2.6569436255039234 4.1311584207661092 2.6524057360603983 4.025239422856532 1.4316056960918218 1.8247234386914091 1.0586104289977811 0.9729633544011449 0.93998655287473376 0.69237103290470259 0.61969320385531645 0.53788292567618079 0.41990357323356875 0.37001059149463345 0.25148620240543096 0.22418684144298595
threshold=62767.5 66868.5 9.9999996826552254e-21 640.5 34.5 20161208.5 8.5 2.5 3.5 20170110.5 580.5 2.5 4.5 16.5 20.5 9.9999996826552254e-21 3034.8564999999999 20160926.5 2015.5 12.5 9.9999996826552254e-21 2.5 167.5 66.5 16.5 1078.5 1.5 610.5 1.5 4.5
decision_type=0 0 0 0 0 0 0 0 0 0 0 0 0 0 0 0 0 0 0 0 0 0 0 0 0 0 0 0 0 0
default_value=0 0 0 0 0 0 0 1.7976931348623157e+308 0 1.7976931348623157e+308 0 1.7976931348623157e+308 0 1.7976931348623157e+308 0 0 1.7976931348623157e+308 1.7976931348623157e+308 0 0 0 0 1.7976931348623157e+308 1.7976931348623157e+308 0 -9.9999996826552254e-21 0 -9.9999996826552254e-21 1.7976931348623157e+308 0
left_child=21 2 3 23 24 16 7 25 -4 -8 14 -9 13 -13 15 -11 22 -18 27 -20 28 -1 -6 -2 -5 -7 -23 -10 -3 -29
right_child=1 20 8 4 5 6 9 11 18 10 -12 12 -14 -15 -16 -17 17 -19 19 -21 -22 26 -24 -25 -26 -27 -28 29 -30 -31
leaf_parent=21 23 28 8 24 22 25 9 11 27 15 10 13 12 13 14 15 17 17 19 19 20 26 22 23 24 25 26 29 28 29
leaf_value=0.060539001871448596 0.061999461966466607 -0.060905014968492759 -0.021465831442850934 0.06292784836529576 0.036130837359561963 0.050232327781082546 -0.06250235128883784 -0.027961864051549747 -0.044010792844514479 0.020616162132397531 -0.058865241360630129 -0.041678658783504186 0.039152670320686249 0.016783789896032342 -0.042317962282500003 -0.034430045820398499 0.054442157752813997 -0.0095004202348158255 -0.062510269808497818 -0.012500010634952697 -0.060447601087869278 0.062143373907828009 0.068262801164493556 0.037439463904352939 0.037506524378217193 0.026541598881259426 0.061024468157648518 -0.056014173141496641 -0.061594784128063518 -0.060413079490174028
leaf_count=16072 141 43918 39 47 20 21 33 34 20 39 31 20 29 24 26 27 20 27 24 22 574926 18658 22 20 20 23 7972 226 10898 1792
internal_value=0 -1.2077951498423449 -0.74063552985926839 0.33873954530622913 0.12496949956404661 -0.0076748794070788454 -0.20774741418821047 0.17551441631422299 -1.1654363413869204 -0.62056360670696975 -0.45205254489899332 -0.052967330403382945 0.19758398433992483 -0.20501412107409961 -0.25152844872639296 -0.024509856943529335 0.67508362644743258 0.32523945570800322 -1.1835874362198338 -0.74601439234888511 -1.2100275137568679 1.2272039212286918 1.0663070450757957 1.1744636552547352 1.1086609353988557 0.76447962144245407 1.2364497959192509 -1.1944137599158593 -1.2209276453931814 -1.1984070738653845
internal_count=675191 632489 2747 624 463 396 307 151 2123 156 123 107 73 44 92 66 89 47 2084 46 629742 42702 42 161 67 44 26630 2038 54816 2018
shrinkage=0.05
has_categorical=0


Tree=22
num_leaves=31
split_feature=0 0 31 27 2 14 12 29 40 29 25 38 36 36 3 7 21 14 1 7 6 10 31 19 1 41 38 27 7 25
split_gain=33397.221474849794 92.156408996015671 186.97825791115423 20.644533923835624 11.793492327930917 10.646960873306654 5.3781931763937889 4.1551144037094332 4.1230282182039675 4.804869931284065 4.2630013200639709 4.2389321409474308 4.0020678360792994 3.552060443810789 3.4813625088420341 3.1935224452836564 2.4401449215942606 3.7075711864141261 2.1658655386929127 1.5948126222259749 1.3912892268659296 1.1919706432461865 0.88311662773776334 0.70086007353674518 0.60234847352188581 0.50300176030577859 0.3672563139293743 1.0265957885976178 1.1995926414801019 0.28786888305330649
threshold=62767.5 66868.5 9.9999996826552254e-21 640.5 34.5 20161208.5 912 579.5 1.5 1865.5 30.5 3.5 4.5 6.5 3244727.5 10.5 3034.8564999999999 20160926.5 3.5 11.5 6.5 16.5 9.9999996826552254e-21 66.5 16.5 1.5 2.5 699.5 2.5 30.5
decision_type=0 0 0 0 0 0 0 0 0 0 0 0 0 0 0 0 0 0 0 0 0 0 0 0 0 0 0 0 0 0
default_value=0 0 0 0 0 0 0 -9.9999996826552254e-21 0 -9.9999996826552254e-21 -9.9999996826552254e-21 0 1.7976931348623157e+308 0 1.7976931348623157e+308 0 1.7976931348623157e+308 1.7976931348623157e+308 0 0 1.7976931348623157e+308 1.7976931348623157e+308 0 1.7976931348623157e+308 0 0 1.7976931348623157e+308 0 0 -9.9999996826552254e-21
left_child=25 2 3 23 24 16 8 -4 9 10 13 -12 -10 15 -11 -7 21 -18 -9 -15 -17 -6 29 -2 -5 -1 27 -20 -29 -3
right_child=1 22 7 4 5 6 -8 18 12 14 11 -13 -14 19 -16 20 17 -19 26 -21 -22 -23 -24 -25 -26 -27 -28 28 -30 -31
leaf_parent=25 23 29 7 24 21 15 6 18 12 14 11 11 12 19 14 20 17 17 27 19 20 21 22 23 24 25 26 28 28 29
leaf_value=0.061032349275521973 0.061288446382083396 -0.060241702865205964 -0.0093879800495311177 0.06172661981155747 0.034145453344060543 0.019460676013305395 0.030307887914334142 -0.030590368776408767 -0.0172342761431853 -0.027564468437243562 0.036510227105049579 -0.022125903061680156 0.04536350662234552 -0.073107159999894047 -0.083430076459712232 -0.0091327705089287812 0.052667204693338958 -0.0090220587887281638 -0.02525140396521848 -0.029515333647830839 -0.047303395941833998 0.070518857172290436 -0.059834782833341184 0.036299942445831644 0.036369706058666178 0.060097446046630414 -0.059594817641295275 -0.026496460092671256 -0.060046504410142726 -0.061004366731549055
leaf_count=26282 141 44376 20 47 22 26 32 37 24 36 31 23 23 20 21 24 20 27 20 23 24 20 574926 20 20 16420 1833 21 192 10440
internal_value=0 -1.1954412286351823 -0.72704517687523706 0.3271864366840509 0.12004451480520019 -0.007394932996545079 -0.19908112852934917 -1.1513163418429853 -0.3008876777912009 -0.42358820699893074 -0.24282975807167984 0.22729499964852026 0.27606239656981957 -0.49329688745485423 -0.97705857140755914 -0.20525763711544948 0.64755906015441422 0.31130154013719319 -1.1657834005641627 -1.0153964326150355 -0.558172492022594 1.0255032128590669 -1.1976981003681884 1.1580010992437084 1.0838306068261168 1.2136979234281435 -1.1790967460771316 -1.0790430809213811 -1.1340293334031619 -1.2078521706441196
internal_count=675191 632489 2747 624 463 396 307 2123 275 228 171 54 47 117 57 74 89 47 2103 43 48 42 629742 161 67 42702 2066 233 213 54816
shrinkage=0.05
has_categorical=0


Tree=23
num_leaves=31
split_feature=0 0 31 27 2 9 14 25 25 1 14 38 1 20 14 3 27 7 10 5 7 31 19 9 1 29 20 25 3 4
split_gain=31452.408299187708 89.905660830729175 176.86255645819162 19.58809189838972 10.988365953380253 10.022990956160685 7.4585718969586683 5.3749854457908732 5.2861811727763888 4.1877979005844281 3.8619083274140547 3.3000816819308989 3.0447084747262356 3.4909047502028776 4.4320900997514503 2.8384499172519329 2.4958630553457226 3.0132942988340909 2.4761505334077638 1.4775703996010634 1.7931623351312616 0.73798760288627818 0.71032996901692158 0.68738346273130446 0.58692242626716151 0.39355703557481547 0.30774154835315137 0.29373356655378302 0.25620587111382065 1.1479366930354828
threshold=62767.5 66868.5 9.9999996826552254e-21 640.5 34.5 8.5 20161205.5 30.5 2.5 3.5 20161110.5 2.5 20.5 18.5 20170114.5 2896579 1358.5 15.5 13.5 2015.5 12.5 9.9999996826552254e-21 66.5 2.5 16.5 610.5 22.5 7.5 4589542.5 24.5
decision_type=0 0 0 0 0 0 0 0 0 0 0 0 0 0 0 0 0 0 0 0 0 0 0 0 0 0 0 0 0 0
default_value=0 0 0 0 0 0 0 -9.9999996826552254e-21 -9.9999996826552254e-21 0 0 0 1.7976931348623157e+308 0 0 1.7976931348623157e+308 1.7976931348623157e+308 0 1.7976931348623157e+308 0 0 0 1.7976931348623157e+308 0 0 -9.9999996826552254e-21 0 -9.9999996826552254e-21 0 1.7976931348623157e+308
left_child=23 2 3 22 24 8 -7 16 -6 -4 -10 -9 13 15 -15 18 26 -18 -12 25 -21 -3 -2 -1 -5 -11 -8 -25 -27 -30
right_child=1 21 9 4 5 6 7 11 10 19 12 -13 -14 14 -16 -17 17 -19 -20 20 -22 -23 -24 27 -26 28 -28 -29 29 -31
leaf_parent=23 22 21 9 24 8 6 26 11 10 25 18 11 12 14 14 15 17 17 18 20 20 21 22 27 24 28 26 27 29 29
leaf_value=0.059337763406774172 0.060626789173427675 -0.059783864295451378 -0.019437038318607602 0.060584776174265609 0.060311960649558433 0.023942548799232983 -0.070558207146614108 0.03066176241627739 0.048361513274373658 -0.041970640732744431 0.014457937599166002 -0.028430542451311342 -0.033887793988543718 -0.048275625072257897 0.011669446288611709 -0.0032778621578907555 -0.0052437361507402611 -0.053887185835196749 0.065254516572681859 -0.061314631985385462 -0.010438300583456421 -0.059263583993189317 0.035187281617851361 0.05969063944545068 0.035260333772413451 -0.059199656039522097 -0.051641521560414419 0.060712084262438661 -0.023443133524052001 -0.057489417365754414
leaf_count=16072 141 54816 39 47 31 35 30 20 27 20 20 20 21 20 38 24 33 34 23 24 22 574926 20 6891 20 1810 20 19739 20 188
internal_value=0 -1.1839223973149013 -0.71384684522805786 0.31592029682016709 0.11527253942785329 -0.0071085807132335917 -0.37444080742172525 -0.59598986526833919 0.31715141052490375 -1.1380274850339509 0.18412327096596903 0.034018418531521662 0.057275601256620706 0.18108113712519669 -0.18784169616362911 0.51153251483315332 -0.86837877408959907 -0.58240067295721953 0.83715699752367645 -1.1575170180857544 -0.70167563304209268 -1.1862070993399338 1.1423573186333917 1.2011381820785878 1.0599143440790255 -1.1691141369639533 -1.2674935782944636 1.2092109279663266 -1.1734935247395191 -1.0827796729220072
internal_count=675191 632489 2747 624 463 396 192 157 204 2123 173 40 146 125 58 67 117 67 43 2084 46 629742 161 42702 67 2038 50 26630 2018 208
shrinkage=0.05
has_categorical=0


Tree=24
num_leaves=31
split_feature=0 0 31 27 2 9 14 15 25 25 29 15 19 8 27 27 7 1 1 20 31 9 1 9 27 3 20 25 25 8
split_gain=29637.996051190261 87.712578153266804 167.32420310413809 18.57989429547613 10.239157867208203 9.152821689372951 6.8287954208396027 5.8407700756936745 5.1023333562668176 5.014732244708572 4.2117785628476554 3.0458477078005326 4.7983523328914783 3.3055573209827638 2.4595797533313957 2.41106214794676 2.8387662937194786 2.3052772906844492 2.1923387591007781 0.72761224085089182 0.6181029251893051 0.57452409607594745 0.57309147081780232 0.51921005083659111 0.95733030621958193 1.0294427695948265 0.29520181437412774 0.2450286418406904 0.20433118445180298 0.10447564471542137
threshold=62767.5 66868.5 9.9999996826552254e-21 640.5 34.5 8.5 20161205.5 2.5 2.5 30.5 579.5 16.5 9.5 2017.5 1284.5 1358.5 15.5 9.5 3.5 46.5 9.9999996826552254e-21 2.5 16.5 8.5 714.5 4589542.5 22.5 7.5 30.5 2017.5
decision_type=0 0 0 0 0 0 0 0 0 0 0 0 0 0 0 0 0 0 0 0 0 0 0 0 0 0 0 0 0 0
default_value=0 0 0 0 0 0 0 1.7976931348623157e+308 -9.9999996826552254e-21 -9.9999996826552254e-21 -9.9999996826552254e-21 1.7976931348623157e+308 1.7976931348623157e+308 1.7976931348623157e+308 0 1.7976931348623157e+308 0 0 0 1.7976931348623157e+308 0 0 0 0 0 1.7976931348623157e+308 0 -9.9999996826552254e-21 -9.9999996826552254e-21 0
left_child=21 2 3 19 22 7 -7 17 -9 15 -4 13 -13 -10 -11 26 -17 -6 -12 -2 28 29 -5 24 -20 -26 -8 -23 -3 -1
right_child=1 20 10 4 5 6 9 8 11 14 18 12 -14 -15 -16 16 -18 -19 23 -21 -22 27 -24 -25 25 -27 -28 -29 -30 -31
leaf_parent=29 19 28 10 22 17 6 26 8 13 14 18 12 12 13 14 16 16 17 24 19 20 27 22 23 25 25 26 27 28 29
leaf_value=0.058697072010129719 0.060021264798299549 -0.059083993555177287 -0.0074792693280120283 0.059495876548682818 0.02541014947101149 0.022767505135434702 -0.069274217419672185 0.056563414741664431 -0.00090584122103568021 0.026383543054259002 -0.028843139309947183 -0.023812482616300718 0.035392434682103478 -0.052177181893233476 -0.024696661658501526 -0.004991853815027327 -0.052534831892359114 0.067923010509033988 -0.022529934898568194 0.033951996568900272 -0.058730549750519626 0.059129943060495641 0.034176944412003661 -0.058437460343883078 -0.059340200331251661 -0.028398754807865325 -0.050472913791335998 0.060081981562949964 -0.059752657670022351 0.060041289388086685
leaf_count=14947 141 44376 20 47 35 35 30 21 34 20 37 25 39 22 20 33 34 28 20 20 574926 6891 20 1897 125 24 20 19739 10440 1125
internal_value=0 -1.1731715295708347 -0.70127607343339371 0.3054523161334543 0.11087375387553779 -0.0068524069013886409 -0.3603340034843095 0.30385930134439243 0.068906118155035348 -0.57508164449872734 -1.1253095718090975 -0.084778114614389763 0.23457078430277728 -0.43412220052721823 0.032361738660171301 -0.84259500315874958 -0.56104582208207843 0.86437255674084745 -1.1409607567942059 1.1274472906706274 -1.1754850801924739 1.1894270002684642 1.0368115434343081 -1.1552784464452466 -1.009680146675884 -1.086061201827879 -1.2422989558229773 1.1969541362322267 -1.1843300014184541 1.1760019843810259
internal_count=675191 632489 2747 624 463 396 192 204 141 157 2123 120 64 56 40 117 67 63 2103 161 629742 42702 67 2066 169 149 50 26630 54816 16072
shrinkage=0.05
has_categorical=0


Tree=25
num_leaves=31
split_feature=0 0 31 27 26 2 27 33 19 25 4 1 3 3 9 1 1 14 19 16 1 39 9 31 9 2 9 38 1 15
split_gain=27893.544423941581 85.347970638569677 148.28020413804543 21.294447947152346 16.292924538312661 5.9802791481712951 5.3887542913930702 4.951019906772034 4.793839600581153 4.9062712005856532 4.5802984518011964 4.3265093836857691 5.0249576703635839 4.2318289236032118 3.9633827712012923 6.7444121335296305 3.0576223895805796 3.2423562512922786 2.6456793810206602 1.4982224423048747 1.3618119371151352 1.3149785827205136 1.1717215835876686 0.51998445112258196 0.47690691521256667 0.40357957887089935 0.33449065046141868 2.7558532996131291 0.27759034943593708 0.27717350368890514
threshold=62767.5 66868.5 9.9999996826552254e-21 524.5 1.5 580.5 607.5 9.9999996826552254e-21 52.5 30.5 30.5 4.5 1437036 3671865.5 8.5 18.5 15.5 20170127.5 15.5 3.5 3.5 26.5 3.5 9.9999996826552254e-21 2.5 278.5 8.5 2.5 9.5 8.5
decision_type=0 0 0 0 0 0 0 0 0 0 0 0 0 0 0 0 0 0 0 0 0 0 0 0 0 0 0 0 0 0
default_value=0 0 0 0 1.7976931348623157e+308 0 0 0 0 -9.9999996826552254e-21 1.7976931348623157e+308 1.7976931348623157e+308 0 0 1.7976931348623157e+308 1.7976931348623157e+308 0 1.7976931348623157e+308 1.7976931348623157e+308 1.7976931348623157e+308 0 0 0 0 0 0 0 0 0 1.7976931348623157e+308
left_child=24 2 3 -2 5 7 -4 8 9 11 13 -5 -13 18 21 28 17 -9 -6 -14 -8 -12 -22 -3 -1 -21 27 -24 -16 -7
right_child=1 23 6 4 10 29 20 16 -10 -11 14 12 19 -15 15 -17 -18 -19 -20 25 22 -23 26 -25 -26 -27 -28 -29 -30 -31
leaf_parent=24 3 23 6 11 18 29 20 17 8 9 21 12 19 13 28 15 16 17 18 25 22 21 27 23 24 25 26 27 28 29
leaf_value=0.0582998824265352 0.059161168896793528 -0.058686702211208266 -0.0017414321078155868 0.044619969011461792 0.047868673834570635 -0.04953005040423003 -0.033633374439727165 -0.038358575241350404 -0.044813401395057406 0.052020946951503888 0.033091096074198183 0.028617607007642726 -0.0051528350905577069 -0.025693127034839742 0.06342785435854012 -0.022347068848621147 -0.06384142093186139 0.015996510926867324 0.0008148280925639259 -0.052848516954086426 -0.025074034097490379 0.065212308368990876 -0.0043142704922681458 -0.058232567456394116 0.059275318462401243 -0.030676407954382923 -0.057937520492753795 -0.058658889497893642 0.042356401693006786 -0.069860798560279699
leaf_count=16029 150 55051 20 20 26 20 36 33 22 26 23 25 21 30 21 28 27 20 27 20 20 60 20 574723 26590 20 1909 134 20 20
internal_value=0 -1.1631038977205896 -0.69552829304638752 0.22318440396757938 0.039821859443656141 -0.32240680279150458 -1.1110636015111881 -0.20131832193336704 0.028250429669735854 0.18896771131853518 0.48267450167312348 -0.020682324934829986 -0.23552879953125166 0.10622110800553201 0.74892013683100023 0.32581011473276417 -0.64021132649905466 -0.35560397940089677 0.46671914640461226 -0.58391189571457813 -1.1297851861531651 1.0988726103343827 -1.1411180640305119 -1.1654719914536127 1.1785065161981247 -0.8336838496949599 -1.1482593667217935 -1.0225770953210185 1.0460980635732005 -1.206386180135113
internal_count=675191 632572 2798 659 509 274 2139 234 154 132 235 106 86 83 152 69 80 53 53 61 2119 83 2083 629774 42619 40 2063 154 41 40
shrinkage=0.05
has_categorical=0


Tree=26
num_leaves=31
split_feature=0 0 31 27 24 9 25 38 17 25 27 1 19 9 39 5 4 4 14 14 5 1 25 9 6 31 9 9 38 25
split_gain=26311.764321570037 83.663162245313288 140.7336272628622 20.206691347641378 10.513732377236215 11.548118671815883 6.7123475316795718 6.6047901912345388 8.3108161958375284 5.5822547804426996 5.2920501258820423 4.4123917450767181 4.2783777013548576 4.6406802789821411 3.7691698410665779 3.1385281320796512 2.9088162927924266 2.655832489427449 2.3220806035301571 2.2040952014256758 1.8065029861888462 1.4005103063783508 1.3844938049604387 1.176332150923372 0.82248246867262864 0.43687421204231214 0.40014038397748664 0.34344478557562752 2.7037745699091609 0.17437648895429447
threshold=62767.5 66868.5 9.9999996826552254e-21 524.5 4.3304878048780493 2.5 30.5 2.5 9.9999996826552254e-21 21.5 607.5 15.5 33.5 8.5 31.5 2013.5 29.5 30.5 20170117.5 20170119.5 2014.5 3.5 9.9999996826552254e-21 3.5 6.5 9.9999996826552254e-21 2.5 8.5 2.5 7.5
decision_type=0 0 0 0 0 0 0 0 0 0 0 0 0 0 0 0 0 0 0 0 0 0 0 0 0 0 0 0 0 0
default_value=0 0 0 0 0 0 1.7976931348623157e+308 0 0 -9.9999996826552254e-21 0 0 1.7976931348623157e+308 0 0 0 1.7976931348623157e+308 1.7976931348623157e+308 0 0 0 0 -9.9999996826552254e-21 0 0 0 0 0 0 -9.9999996826552254e-21
left_child=26 2 3 -2 16 17 9 14 18 -7 -4 12 13 15 -8 -11 -5 -6 -9 -15 24 -12 -18 -23 -13 -3 -1 28 -25 -28
right_child=1 25 10 4 5 6 7 8 -10 11 21 20 -14 19 -16 -17 22 -19 -20 -21 -22 23 -24 27 -26 -27 29 -29 -30 -31
leaf_parent=26 3 25 10 16 17 9 14 18 8 15 21 24 12 19 14 15 22 17 18 19 20 23 22 28 24 25 29 27 28 29
leaf_value=0.057830081077057317 0.058637292433887094 -0.058191907752033638 -0.0016551912349941798 0.012748526336660904 0.012632502085284004 0.028017259732988076 0.0038488481498188845 0.040876080076882489 -0.062897605938724996 -0.0083341132037757001 -0.032556985544120724 -0.076595409125477867 -0.049461098384597141 -0.058622338957570658 0.060638670320005583 0.049619402274006963 0.03486736256127481 0.062847304895375974 -0.0089097734624848709 -0.0073680620414641592 -0.024477788949667661 -0.024228329359752734 0.071640833961474193 -0.0041108380678826018 -0.049251734483410282 -0.057766856383420079 0.058109693515825483 -0.057448705485624134 -0.058165825230913459 0.058948011114403481
leaf_count=16029 150 55051 20 31 21 22 26 20 25 20 36 27 35 20 33 21 34 41 23 23 26 20 29 20 32 574723 6870 1909 134 19720
internal_value=0 -1.1536993494323315 -0.68321604084841803 0.21576219695680396 0.038358207663587246 -0.10991220948840845 -0.25508005410042217 0.14055252688531186 -0.297859995954805 -0.49048777848990777 -1.099527430656039 -0.60805312734650607 -0.34984572903571864 -0.084079481602533854 0.70089144826150995 0.40118458462382489 0.74456529012753414 0.84869133860565504 0.27600814612672503 -0.62178088295802414 -1.0285531164050588 -1.1188353735685437 1.0855660227032466 -1.1306973615954183 -1.245336787080201 -1.1561055128607527 1.1683053315342147 -1.1380920782357173 -1.0084335609155386 1.1748486299789866
internal_count=675191 632572 2798 659 509 415 353 127 68 226 2139 204 119 84 59 41 94 62 43 43 85 2119 63 2083 59 629774 42619 2063 154 26590
shrinkage=0.05
has_categorical=0


Tree=27
num_leaves=31
split_feature=0 0 31 27 26 2 27 37 4 19 17 2 27 3 9 1 19 7 4 19 1 9 17 31 9 38 9 1 15 41
split_gain=24831.38996698345 81.998862587672193 133.58863507971458 19.177997389019453 13.551439908952508 5.4803767714556475 5.2004823657794077 4.3991199565084163 4.2178872499286744 4.0893956279433405 4.2093498057188556 5.0365996048401431 3.8799829090842959 3.8024813554171084 3.6546529031166273 6.2174594314483169 3.3226368015907779 3.1281111000651318 3.4926775688515872 2.4387552843907869 1.4389960911857429 1.1817969654184708 0.98454693409866145 0.36755414768413175 0.35276831072826553 2.6544021554403479 0.33606425223479164 0.28919923418624816 0.26143064828256257 0.14623978425606765
threshold=62767.5 66868.5 9.9999996826552254e-21 524.5 1.5 580.5 607.5 9.9999996826552254e-21 30.5 52.5 9.9999996826552254e-21 368.5 1553.5 3671865.5 8.5 18.5 15.5 20.5 23.5 15.5 3.5 3.5 2.5 9.9999996826552254e-21 8.5 2.5 2.5 9.5 8.5 1.5
decision_type=0 0 0 0 0 0 0 0 0 0 0 0 0 0 0 0 0 0 0 0 0 0 0 0 0 0 0 0 0 0
default_value=0 0 0 0 1.7976931348623157e+308 0 0 0 1.7976931348623157e+308 0 0 0 0 0 1.7976931348623157e+308 1.7976931348623157e+308 1.7976931348623157e+308 0 1.7976931348623157e+308 1.7976931348623157e+308 0 0 1.7976931348623157e+308 0 0 0 0 0 1.7976931348623157e+308 0
left_child=26 2 3 -2 5 7 -4 17 13 10 11 16 -12 19 22 27 -9 18 -5 -6 -8 -22 -10 -3 25 -23 -1 -16 -7 -28
right_child=1 23 6 4 8 28 20 9 14 -11 12 -13 -14 -15 15 -17 -18 -19 -20 -21 21 24 -24 -25 -26 -27 29 -29 -30 -31
leaf_parent=26 3 23 6 18 19 28 20 16 22 9 12 11 12 13 27 15 16 17 18 19 21 25 22 23 24 25 29 27 28 29
leaf_value=0.057390329922897831 0.058147537820187181 -0.057729105965390576 -0.0015731842029457447 0.020085089138909863 0.045399951642592716 -0.047710116769781 -0.031508186903467454 0.030068781258896435 0.030332905916287258 -0.041223590312423931 0.060455175300184918 -0.053519153517334328 -0.0018265047519671778 -0.024936044445721239 0.062547570923404919 -0.021893430167374706 -0.022867836827131664 -0.056302386277138551 -0.039600179401093977 -5.8507733764875826e-06 -0.023401742993916071 -0.0039164676646917191 0.060763017958966173 -0.057330908014892427 -0.056989026406474519 -0.057704623808078198 0.05845688261478052 0.040511576151756538 -0.068005465443008548 0.057709291772865337
leaf_count=16029 150 55051 20 21 26 20 36 39 20 22 30 20 20 30 21 28 23 34 25 27 20 20 63 574723 1909 134 18660 20 20 7930
internal_value=0 -1.1448930472470851 -0.67141880232851303 0.2088013636907439 0.036993519360261982 -0.29655894863486082 -1.0884803914824541 -0.18157045242690434 0.44680386272804429 0.036589941249868176 0.18632722067856616 -0.12314853986867444 0.68973973112838993 0.087356444600260263 0.71059360300730934 0.30077353494371406 0.19462840381745825 -0.59917269672325379 -0.24085638834651024 0.43194901441052702 -1.108406696210877 -1.1208228445451316 1.058185135502929 -1.1473382626734223 -1.1284872392144547 -0.99469047038947445 1.1587647478247027 1.0156943099020765 -1.1685972651916146 1.1648859497044797
internal_count=675191 632572 2798 659 509 274 2139 234 235 154 132 82 50 83 152 69 62 80 46 53 2119 2083 83 629774 2063 154 42619 41 40 26590
shrinkage=0.05
has_categorical=0


Tree=28
num_leaves=31
split_feature=0 0 26 40 27 9 1 35 27 5 29 6 4 6 4 20 27 14 3 1 29 36 2 9 24 15 4 3 9 1
split_gain=23444.556990319645 80.611838118944434 81.636429010071879 41.730518306001528 16.302520734463293 7.6393793644890593 5.6644245019337651 5.7392814013861919 5.3863875681686562 5.905797957363295 5.224989773327783 5.1498554698675081 5.1290734136692713 4.7803962916773388 3.181325272527102 3.0706392111053273 3.0425273997161826 2.6661185374866356 2.4178785379625864 2.0635066325294815 5.0725383556734336 3.8245235983559915 1.6160380984980183 1.5141438747291254 1.3466480690172147 1.15122732388242 0.6682023101658956 1.284703746454138 0.63972188276303399 0.36781053100512295
threshold=62767.5 66868.5 2.5 1.5 524.5 3.5 15.5 9.9999996826552254e-21 674.5 2014.5 1333.5 1.5 28.5 8.5 30.5 15.5 1308.5 20170112.5 1897945 10.5 660.5 9.9999996826552254e-21 215.5 6.5 4.8493150684931505 4.5 25.5 4486029 8.5 9.5
decision_type=0 0 0 0 0 0 0 0 0 0 0 0 0 0 0 0 0 0 0 0 0 0 0 0 0 0 0 0 0 0
default_value=0 0 1.7976931348623157e+308 0 0 0 0 0 0 0 -9.9999996826552254e-21 0 -9.9999996826552254e-21 1.7976931348623157e+308 -9.9999996826552254e-21 0 0 0 1.7976931348623157e+308 0 -9.9999996826552254e-21 0 1.7976931348623157e+308 0 1.7976931348623157e+308 1.7976931348623157e+308 1.7976931348623157e+308 0 0 0
left_child=-1 2 3 4 -2 17 11 25 -4 10 23 -6 13 16 15 -12 22 -5 -15 20 -7 -22 -13 -10 -25 -8 27 28 -21 -23
right_child=1 -3 8 5 6 19 7 -9 9 -11 14 12 -14 18 -16 -17 -18 -19 -20 26 21 29 -24 24 -26 -27 -28 -29 -30 -31
leaf_parent=0 4 1 8 17 11 20 25 7 23 9 15 22 12 18 14 15 16 17 18 28 21 29 22 24 24 25 26 27 28 29
leaf_value=0.057491801720574623 0.058196393714487718 -0.056956217798536157 0.057907051924955148 0.033266491233617738 -0.05020411693181194 0.021558164533299364 -0.034030587969043506 0.013810686128984806 0.061892336559672134 -0.02419653629046583 0.021939372008352973 0.074708025675585016 -0.043230867572770629 -0.035680287172460558 0.03973377422114055 -0.02668370909244171 0.0048787625224010669 -0.028652048289858529 0.015361727688321622 -0.029804680243973994 0.0038033868750977497 -0.05706223068002142 0.029945170586011524 0.053641293752979019 0.011880724291849016 -0.064275974051046195 -0.056651475323037472 -0.019200532337946701 -0.055517457750548393 -0.036476557677790941
leaf_count=42619 72 629774 88 20 24 20 26 20 47 31 30 21 23 23 30 34 27 22 20 21 25 184 20 24 28 54 1636 26 180 22
internal_value=0 -1.1366340915952027 -0.65953519886746192 -0.85935328268005062 -0.10894310079646037 -1.0443976653208908 -0.32438889251544356 -0.77519700560120031 0.50011805150471078 0.3420403040962412 0.51329034280677099 -0.077249088482742215 0.091952079211032878 0.28503991935491046 0.15520489321214381 -0.1107408008219988 0.66215600721020773 -0.017064301744613299 -0.26358210783058061 -1.0752431437135432 -0.83041978345352019 -0.96438993233403358 1.0557130881290255 0.93522219193214617 0.62006726483057639 -1.0784073831280991 -1.1112550010827253 -0.96085394170146066 -1.0471636364136203 -1.0998720678285034
internal_count=675191 632572 2798 2486 330 2156 258 100 312 224 193 158 134 111 94 64 68 42 43 2114 251 231 41 99 52 80 1863 227 201 206
shrinkage=0.05
has_categorical=0


Tree=29
num_leaves=31
split_feature=0 0 31 27 26 27 2 4 33 2 14 25 38 3 9 1 7 4 12 15 38 1 9 7 9 38 31 15 9 5
split_gain=22144.240415916371 79.529080030319165 121.16611869256016 17.232321357469335 11.39992550122872 5.1845000421167242 5.0106134012634174 3.8122355322292441 3.7882569356499123 3.5813032103908657 4.024392838703875 3.3845500778439166 3.9248820338167025 3.383163686121335 3.3658662825746397 3.5355701337524121 2.8413318787212294 2.9790705087328861 2.8334983798071818 2.1981402715041538 1.7941055535552319 1.5489913137741951 1.1565896602292014 0.86674796845094981 0.37736292415462458 2.6756891136263867 0.26506728818640113 0.25375270175060649 0.24158359767170623 0.11125266569800374
threshold=62767.5 66868.5 9.9999996826552254e-21 524.5 1.5 607.5 580.5 30.5 9.9999996826552254e-21 50.5 20161106.5 30.5 2.5 3671865.5 3.5 18.5 20.5 23.5 149.5 9.5 2.5 3.5 3.5 17.5 8.5 2.5 9.9999996826552254e-21 8.5 2.5 2009.5
decision_type=0 0 0 0 0 0 0 0 0 0 0 0 0 0 0 0 0 0 0 0 0 0 0 0 0 0 0 0 0 0
default_value=0 0 0 0 1.7976931348623157e+308 0 0 1.7976931348623157e+308 0 0 0 1.7976931348623157e+308 1.7976931348623157e+308 0 1.7976931348623157e+308 1.7976931348623157e+308 0 1.7976931348623157e+308 0 1.7976931348623157e+308 0 0 0 0 0 0 0 1.7976931348623157e+308 0 0
left_child=28 2 3 -2 6 -4 8 13 9 -5 -11 12 23 19 -9 20 17 -10 -14 -6 -16 -7 -23 -12 25 -24 -3 -8 -1 -26
right_child=1 26 5 4 7 21 27 14 16 10 11 -13 18 -15 15 -17 -18 -19 -20 -21 -22 22 24 -25 29 -27 -28 -29 -30 -31
leaf_parent=28 3 26 5 9 19 21 27 14 17 10 23 11 18 13 20 15 16 17 18 19 20 22 25 23 29 25 26 27 28 29
leaf_value=0.056588635116278256 0.057264113574029288 -0.056892123765782392 -0.00044976288271385522 0.044428601466399764 0.0032215180048673418 -0.029124337908235643 -0.045722270571751385 0.06145925300380331 0.019150568639163489 0.03420304178258686 -0.066922480078038041 0.019944969006642776 0.02497525538859046 -0.023684362331784146 0.06217962735087687 -0.0058497409423526759 -0.053110947963882597 -0.036350195028633833 -0.033540122716643486 0.04778278361622821 0.019972119856677031 -0.02260988887531469 -0.0018685452642654096 -0.033848138929443189 -0.053381668158285905 -0.056900022376764815 -0.056539188413924052 -0.066287625792663812 0.057344476917557244 -0.056668793836898469
leaf_count=16029 150 55051 20 22 33 36 20 53 21 26 20 25 21 30 38 35 34 25 20 20 26 20 20 20 293 134 574723 20 26590 1616
internal_value=0 -1.1288801622549571 -0.64743531227566298 0.19729449273169183 0.036983003332555012 -1.0676951832101058 -0.27134492765707063 0.41819543514231045 -0.16266225503247264 0.040732993476575413 -0.094130006788097034 -0.28550616525021666 -0.51351554626851625 0.077461738498593238 0.67617741704807244 0.42957575123421837 -0.55392020226026817 -0.21060706818428906 -0.034538191251509066 0.40594253849600886 0.80853298529035655 -1.0891812888811752 -1.1028665203573254 -1.0171967907458728 -1.1110387944580074 -0.96746612351253869 -1.131422603160132 -1.1311522402063414 1.141479221186092 -1.1232745755003875
internal_count=675191 632572 2798 659 509 2139 274 235 234 154 132 106 81 83 152 99 80 46 41 53 64 2119 2083 40 2063 154 629774 40 42619 1909
shrinkage=0.05
has_categorical=0


Tree=30
num_leaves=31
split_feature=0 0 31 27 9 5 2 25 14 13 15 9 38 14 27 10 15 3 10 4 1 36 9 31 9 4 3 1 27 25
split_gain=20923.021338483857 92.862653894306277 139.00672639232243 13.429067766010078 7.1271217889610234 6.3696734270049831 6.2042866139800186 5.6541766247465439 7.7693688883194003 5.5598559650174577 5.271773921351949 4.3630339008690369 4.2811150141738006 4.6505472633490088 4.1962635394978278 4.2852994371848663 3.3160311263689497 4.7211887099710577 3.2017211749021248 3.020698199480794 2.0049142006153886 1.8553623000709922 0.73516535780885306 0.22379753712448291 0.20396706245446694 0.1814559061330101 1.5386219796983482 0.13666656023040868 0.088254985627941096 0.08787576585473289
threshold=62767.5 66868.5 9.9999996826552254e-21 524.5 2.5 2015.5 14.5 30.5 20161118.5 124.5 2.5 8.5 1.5 20170166 2367.5 11.5 2.5 2362844 9.5 30.5 3.5 6.5 3.5 9.9999996826552254e-21 2.5 24.5 4527976 12.5 639.5 7.5
decision_type=0 0 0 0 0 0 0 0 0 0 0 0 0 0 0 0 0 0 0 0 0 0 0 0 0 0 0 0 0 0
default_value=0 0 0 0 0 0 0 -9.9999996826552254e-21 0 0 1.7976931348623157e+308 0 1.7976931348623157e+308 1.7976931348623157e+308 1.7976931348623157e+308 0 0 1.7976931348623157e+308 1.7976931348623157e+308 1.7976931348623157e+308 0 0 0 0 0 1.7976931348623157e+308 1.7976931348623157e+308 0 0 -9.9999996826552254e-21
left_child=24 2 3 -2 19 20 27 8 18 -7 21 16 -12 -14 15 -13 17 -10 -8 -5 -4 -9 -22 -3 -1 26 -24 -6 -27 -26
right_child=1 23 5 4 6 9 7 10 11 -11 12 14 13 -15 -16 -17 -18 -19 -20 -21 22 -23 25 -25 29 28 -28 -29 -30 -31
leaf_parent=24 3 23 20 19 27 9 18 21 17 9 12 15 13 13 14 15 16 17 18 19 22 21 26 23 29 28 26 27 28 29
leaf_value=0.056226646123331371 0.056818665136217916 -0.056511260436856926 -0.023369196000430949 0.01469677591018074 0.059893088880715539 -0.047616713732579273 -0.0081769246936179429 -0.03793833870021196 -0.019393906762149755 0.04512722238656406 0.065878363094208303 -0.016992682929220571 0.037826123786011454 -0.027630594712871631 0.0048692709970746548 -0.068664180717357928 -0.030795146572128035 0.050831046808759474 0.046017690736556226 0.061448101470659156 -0.031011226361289036 0.0083618624553313033 -0.05638813018224445 -0.056179715686514947 0.056443274241855274 -0.064526071815582148 -0.011645843509769124 0.044441844803528564 -0.056027922990421579 0.057093768240966729
leaf_count=16063 161 55006 31 29 25 28 20 20 20 20 27 39 35 20 24 61 28 22 35 57 21 20 156 574787 6805 23 20 21 1809 19758
