tree
num_class=1
num_tree_per_iteration=1
label_index=0
max_feature_idx=41
objective=binary sigmoid:1
feature_names=Column_0 Column_1 Column_2 Column_3 Column_4 Column_5 Column_6 Column_7 Column_8 Column_9 Column_10 Column_11 Column_12 Column_13 Column_14 Column_15 Column_16 Column_17 Column_18 Column_19 Column_20 Column_21 Column_22 Column_23 Column_24 Column_25 Column_26 Column_27 Column_28 Column_29 Column_30 Column_31 Column_32 Column_33 Column_34 Column_35 Column_36 Column_37 Column_38 Column_39 Column_40 Column_41
feature_infos=[0:992926] [1:54] [0:790] [8:5116152] [-51:1052] [2004:2017] [1:12] [1:31] [2011:2021] [1:12] [1:31] [1:450] [0:2000] [0:2000] [20150101:20170228] [0:671] [0:489] [0:367] [0:454] [0:1395] [1:1134] [0.0050000000000000001:365963.44200000004] [-1:180] [0:1] [0:6] [-17207:763] [-565:25] [0:5285] [0:174] [-406:18874] [-14:620] [0:1] [0:1] [0:1] [0:1] [0:1] [0:21] [0:2] [0:5] [1:35] [1:2] [1:2]

Tree=0
num_leaves=23
split_feature=0 0 31 27 25 9 2 9 2 9 27 25 2 9 3 5 2 25 12 6 39 2
split_gain=160606.61419016169 108.22125827695709 446.54757708710986 105.83641307982079 68.238038549221272 29.870676847955949 12.847289852852022 10.300619307832424 9.52785923753666 7.8260869565217384 8.8173913043478258 7.4999999999999982 7.2961038961038955 2.5482435375433852 1.3412698412698489 1.0082517996252136 0.90000000000000213 0.78470748676727453 0.34782608695652328 0.14444444444444571 0.063641403341989644 0.13442622950820038
threshold=63091 66854.5 9.9999996826552254e-21 550.5 29.5 8.5 51.5 7.5 303.5 2.5 978.5 30.5 219.5 3.5 3481687.5 2015.5 165.5 59.5 141.5 3.5 24.5 87.5
decision_type=0 0 0 0 0 0 0 0 0 0 0 0 0 0 0 0 0 0 0 0 0 0
default_value=0 0 0 0 -9.9999996826552254e-21 0 0 1.7976931348623157e+308 0 1.7976931348623157e+308 0 -9.9999996826552254e-21 1.7976931348623157e+308 0 1.7976931348623157e+308 0 1.7976931348623157e+308 -9.9999996826552254e-21 0 0 0 0
left_child=-1 2 3 -2 6 9 18 -8 12 -6 -11 16 -7 -4 19 17 -12 20 -5 -10 21 -15
right_child=1 -3 13 4 5 8 7 -9 14 10 11 -13 -14 15 -16 -17 -18 -19 -20 -21 -22 -23
leaf_parent=0 3 1 13 18 9 12 7 7 19 10 16 11 12 21 14 15 16 17 18 19 20 21
leaf_value=0.10000000000000001 0.10000000000000001 -0.10000000000000001 -0.066666666666666666 0.099999999999999964 0.047826086956521734 -0.065714285714285711 0.055555555555555559 -0.028000000000000004 -0.089999999999999941 0.024999999999999981 -0.049999999999999989 0.010000000000000002 0.010000000000000002 -0.090000000000000011 -0.071428571428571397 -0.082352941176470587 -0.080000000000000016 -0.080000000000000016 0.082608695652173908 -0.10000000000000001 -0.10000000000000001 -0.10000000000000001
leaf_count=42913 99 629654 24 23 23 35 36 25 20 32 20 20 20 20 28 34 20 20 23 52 2009 41
internal_value=0 -1.9983108695858467 -1.5929878048780488 0.15966386554621848 -0.32360742705570295 -0.85925925925925928 1.02803738317757 0.42622950819672129 -1.4322580645161291 -0.086956521739130432 -0.34782608695652167 -0.80000000000000004 -0.76363636363636367 -1.9813780260707634 -1.8 -1.9887005649717515 -1.3 -1.9942583732057417 1.8260869565217386 -1.9444444444444444 -1.9980676328502416 -1.9344262295081966
internal_count=675191 632278 2624 476 377 270 107 61 155 115 92 60 55 2148 100 2124 40 2090 46 72 2070 61
shrinkage=0.05
has_categorical=0


Tree=1
num_leaves=31
split_feature=0 0 26 27 40 9 27 27 2 9 2 38 36 4 4 1 3 9 9 1 1 4 27 14 5 25 27 6 9 6
split_gain=145322.75214887352 98.11879295273684 297.78612112675296 176.29645399552783 45.753507747837602 22.430723107751326 20.12888026841388 12.795038547353442 10.246943564525161 9.7630199052030093 7.3305223800256698 5.9256927525460021 4.6701495822346937 3.7020594174280639 2.6103589956760374 1.7400645643166683 1.5590436818869478 0.46177477061996797 0.40659308885818746 0.85414588192706731 0.12747376627044105 0.12513309560199559 0.61550814350312066 0.15965521387212789 0.0015966029307037388 0.00093748056201548025 0.00083931994421249101 0.00018675518343513886 0.00010694619936657546 0.00023077557963802064
threshold=63091 66854.5 3.5 550.5 1.5 8.5 1580.5 1275.5 297.5 3.5 303.5 3.5 4.5 24.5 37.5 5.5 3543285 5.5 8.5 7.5 3.5 25.5 3511.5 20170224.5 2015.5 55.5 366.5 4.5 7.5 6.5
decision_type=0 0 0 0 0 0 0 0 0 0 0 0 0 0 0 0 0 0 0 0 0 0 0 0 0 0 0 0 0 0
default_value=0 0 1.7976931348623157e+308 0 0 0 0 0 0 0 0 1.7976931348623157e+308 0 1.7976931348623157e+308 1.7976931348623157e+308 0 0 0 0 0 0 1.7976931348623157e+308 0 1.7976931348623157e+308 0 -9.9999996826552254e-21 0 0 0 0
left_child=-1 2 3 15 5 7 8 13 14 -6 11 -7 -8 -5 -4 -2 27 -11 26 -20 -19 22 23 -22 25 28 -16 -12 29 -23
right_child=1 -3 6 4 9 10 12 -9 -10 17 16 -13 -14 -15 18 -17 -18 20 19 -21 21 24 -24 -25 -26 -27 -28 -29 -30 -31
leaf_parent=0 15 1 14 13 9 11 12 7 8 17 27 11 12 13 26 15 16 20 19 19 23 29 22 23 24 25 26 27 28 29
leaf_value=0.095241872246060344 0.095241872246060344 -0.095241872246060344 0.049403068873727835 0.0038590641068608524 -0.036262259385171879 -0.079797149439053111 -0.049638879249541107 -0.049156636729869502 0.020329899139360758 -0.082579454575289757 -0.095587471361084489 -0.011444384795627476 0.01872342519708517 0.060827935647100199 0.095241872246060261 0.059652578548151571 -0.066885697054411428 -0.088179340169173143 0.095823223158474913 0.066921248391788743 -0.095258106943475238 -0.09564836713020422 -0.076473128552149536 -0.086283034677804488 -0.096047347147575096 -0.095906722636281264 0.09612857639465805 -0.095241872246060344 -0.095244541838086866 -0.095241872246060344
leaf_count=42913 40 629654 21 25 29 22 20 37 38 31 25 30 20 21 23 21 27 28 21 20 205 21 21 22 26 22 20 42 1704 42
internal_value=0 -1.9032268936263785 -1.5168470821770856 -1.7016230962688421 -1.7877688659857107 -0.93739968818160857 0.94545893257007463 -0.10704186424760821 1.2966650587892969 -1.8784079111511103 -1.4098482440867723 -0.80724018102981843 -0.3090174991399206 0.59731755776307127 1.6191977674212912 1.6597611668551759 -1.7436519191469877 -1.8941904884311682 1.7770584308624771 1.6344410301570524 -1.8977873592724122 -1.8996089304148156 -1.8574186781763404 -1.8877641342547749 -1.9053738724970715 -1.9051473657782556 1.9130890083121199 -1.9074171260471737 -1.9049855651681264 -1.9075476412305263
internal_count=675191 632278 2624 2441 2380 229 183 83 143 2151 146 52 40 46 105 61 94 2122 84 41 2091 2063 248 227 1815 1789 43 67 1767 63
shrinkage=0.05
has_categorical=0


Tree=2
num_leaves=31
split_feature=0 0 31 27 25 9 1 25 9 6 18 2 1 9 25 3 3 29 25 1 24 2 4 2 27 3 4 27 14 6
split_gain=132120.2016909619 89.82372071268037 370.11775486969418 87.793348705682504 56.72582630087917 24.484327311062657 11.88713101137385 7.929593937623153 7.0549840515682707 8.1657003525624674 7.1316206541108045 4.9280702664027629 4.2460511542510204 1.930029985865076 4.6617710784731266 1.7128593809727102 0.89051967886612715 0.6294756616905488 0.15140582267963509 0.12819435353640074 0.091995992701797036 0.0089342470737037161 0.0017561122881062374 0.0010163299556609218 0.0003586515269944357 0.00019112961623335423 0.00018821721755557519 0.00089343368586014549 0.00025268616167295477 6.6536386967186445e-05
threshold=63091 66854.5 9.9999996826552254e-21 550.5 29.5 8.5 26.5 31.5 2.5 8.5 3.5 51.5 10.5 5.5 29.5 2955696.5 3523175.5 581.5 58.5 3.5 4.9326484018264836 343.5 16.5 63.5 638.5 3095290.5 25.5 3456.5 20170224.5 5.5
decision_type=0 0 0 0 0 0 0 0 0 0 0 0 0 0 0 0 0 0 0 0 0 0 0 0 0 0 0 0 0 0
default_value=0 0 0 0 -9.9999996826552254e-21 0 0 -9.9999996826552254e-21 1.7976931348623157e+308 0 1.7976931348623157e+308 0 0 0 -9.9999996826552254e-21 0 0 -9.9999996826552254e-21 -9.9999996826552254e-21 0 0 0 -9.9999996826552254e-21 0 0 1.7976931348623157e+308 1.7976931348623157e+308 0 0 0
left_child=-1 2 3 22 6 8 11 12 -6 10 -10 20 -7 14 -4 -13 21 -15 19 -19 -5 -14 25 -24 -21 -2 27 28 -26 -23
right_child=1 -3 13 4 5 7 -8 -9 9 -11 -12 15 16 17 -16 -17 -18 18 -20 24 -22 29 23 -25 26 -27 -28 -29 -30 -31
leaf_parent=0 25 1 14 20 8 12 6 7 10 9 10 15 21 17 14 15 16 19 18 24 20 29 23 23 28 25 26 27 28 29
leaf_value=0.091131780775723592 0.091125705637371462 -0.091131780775723592 -0.093500106004919536 0.091935926623099809 0.045462983792827483 -0.04354298019161415 -0.018364565331771162 -0.016835772302216438 -0.037723855511529618 -0.056363091146875079 0.033614181042057122 0.059211111244225914 -0.09374189284895601 -0.073087831433348044 -0.033118375648469332 0.018286148109471028 -0.069942136588514794 -0.084307710067497252 -0.082282504377986454 -0.091573434499646902 0.082747022997779363 -0.091361652848259339 0.091593475124420315 0.092571904982081829 -0.091135339051863329 0.091513010466523687 -0.091134760234026169 -0.09187213071946132 -0.091501930015837674 -0.091131756192056323
leaf_count=42913 36 629654 36 23 23 31 22 28 23 33 36 21 20 20 20 20 25 28 20 20 21 24 20 23 196 20 1767 20 21 27
internal_value=0 -1.8210886278165594 -1.4502487034888176 0.14863929130221382 -0.29158946852938217 -0.78093698647522891 0.94320353509126764 -1.3018713900374959 -0.081877144358088738 -0.32981702413976954 0.11608695683493288 1.2836334542265035 -1.5151297693469992 -1.8061353799731441 -1.4387188833013891 0.78505529507406469 -1.7239970295324456 -1.8160089433464621 -1.8194386065309769 -1.8211364243295818 1.7509612312798168 -1.8389335814868992 1.8327011077767628 1.8423462401383024 -1.8230053160220496 1.8252819530779334 -1.8229207700874752 -1.8246021557576151 -1.8234168529019557 -1.8247994615188341
internal_count=675191 632278 2624 476 377 270 107 155 115 92 59 85 127 2148 56 41 96 2092 2072 2052 44 71 99 43 2024 56 2004 237 217 51
shrinkage=0.05
has_categorical=0


Tree=3
num_leaves=31
split_feature=0 0 31 28 2 9 8 26 16 25 2 3 4 6 9 6 5 25 37 12 39 2 9 14 2 4 28 14 2 2
split_gain=120611.64818274317 82.851668695977423 339.0003849477921 78.324600185299857 53.205571128292348 41.383098746914797 13.210608519216706 10.085621431355122 12.934310278236763 4.0465138914941257 3.1282708362281113 3.4068504227671994 4.8621080064999669 2.8039017650802691 1.8887778328951299 0.97547664992331562 0.82151096845359461 0.6715480093826045 0.5775113865846464 0.071520743267079467 0.057943997062920971 0.13988197865978691 0.0054650462752761086 0.0049755008644041254 0.0002650841457167985 0.00011858603625114483 0.00052956591375163953 0.00012750117994642096 0.00010718533331655067 2.1760079334853799e-05
threshold=63091 66854.5 9.9999996826552254e-21 19.5 51.5 3.5 2017.5 1.5 6.5 25.5 577.5 3340051.5 22.5 4.5 3.5 9.5 2015.5 59.5 9.9999996826552254e-21 141.5 24.5 380.5 5.5 20161127.5 53.5 25.5 108.5 20170223.5 118.5 75.5
decision_type=0 0 0 0 0 0 0 0 0 0 0 0 0 0 0 0 0 0 0 0 0 0 0 0 0 0 0 0 0 0
default_value=0 0 0 0 0 0 0 1.7976931348623157e+308 1.7976931348623157e+308 -9.9999996826552254e-21 0 0 1.7976931348623157e+308 0 0 0 0 -9.9999996826552254e-21 0 0 0 1.7976931348623157e+308 0 0 1.7976931348623157e+308 1.7976931348623157e+308 1.7976931348623157e+308 0 0 1.7976931348623157e+308
left_child=-1 2 3 18 9 6 -6 10 -9 19 11 13 -13 -7 -4 -15 17 20 -2 -5 21 28 -22 -20 -25 26 27 -24 -16 -27
right_child=1 -3 14 4 5 7 -8 8 -10 -11 -12 12 -14 15 16 -17 -18 -19 23 -21 22 -23 25 24 -26 29 -28 -29 -30 -31
leaf_parent=0 18 1 14 19 6 13 6 8 8 9 10 12 12 15 28 15 16 17 23 19 22 21 27 24 24 29 26 27 28 29
leaf_value=0.087549100739152091 0.069208746668236398 -0.087549100739152091 -0.058740148069255517 0.088198932139758879 0.075563123382186792 -0.044978344125807569 -0.01883816979942575 -0.07912398059134125 0.021259504318800051 0.034370716485760663 -0.08937604841234692 -0.07332300285395249 -0.010786486388367123 -0.090549163802895113 -0.087960765256921813 -0.063677767152342662 -0.071523858339613083 -0.068939347304704829 0.089535369807840923 0.079971366320708712 -0.088957660195704738 -0.077499326965133744 -0.087556715566453627 0.087630940893996756 0.088065231205490313 -0.08758083856409983 -0.08812844991368611 -0.087814017267145716 -0.087634118501434821 -0.087550029983332361
leaf_count=42913 20 629654 24 21 39 34 24 20 36 27 37 21 31 39 21 21 34 20 23 22 29 20 183 38 23 278 20 22 20 1477
internal_value=0 -1.7494872710714875 -1.3915916727756379 0.14202737005752744 -0.28702702230428578 -0.65186941239556317 0.79117696320928776 -1.0345029218900141 -0.29193810823862659 1.2939032593305522 -1.2637759256058927 -1.1318201287890397 -0.72007133942039148 -1.3606699633007155 -1.7347576297698895 -1.6223365732357584 -1.741165984411571 -1.7462469738935438 1.6919772655690339 1.6796531981215508 -1.749816187121926 -1.6884918254889525 -1.7516794708011321 1.7654548470477607 1.7558967857832672 -1.7512752870315007 -1.7526560682267782 -1.7516870403016018 -1.7560304443795423 -1.7510982133426554
internal_count=675191 632278 2624 476 372 302 63 239 56 70 183 146 52 94 2148 60 2124 2090 104 43 2070 61 2009 84 61 1980 225 205 41 1755
shrinkage=0.05
has_categorical=0


Tree=4
num_leaves=31
split_feature=0 0 31 27 2 9 8 26 16 14 25 16 18 19 9 19 6 5 25 37 1 1 2 9 35 2 27 27 27 14
split_gain=110500.58066378697 76.920189777971245 311.91044238925633 73.551906412905325 47.722177768828594 34.920687462572367 10.939178569015152 8.9572263046593861 13.228859100675642 4.7409018819471811 3.7943765732936185 2.5021416250858124 3.3716244495528684 2.3011616906183967 1.8070335101529054 1.4773420638129764 1.5307637453412895 0.78749806605401318 0.64073596084699602 0.15052634551789623 0.12516714444768695 0.091520306475633362 0.039345055212258728 0.0041254666966779041 0.0018058880871052452 0.00070496278496534615 0.00017340606324012242 5.0839892310250434e-05 4.1884913997591866e-05 2.5141481273749378e-05
threshold=63091 66854.5 9.9999996826552254e-21 550.5 51.5 3.5 2017.5 1.5 5.5 20161204.5 25.5 2.5 9.9999996826552254e-21 13.5 3.5 64.5 9.5 2015.5 59.5 9.9999996826552254e-21 3.5 12.5 312.5 5.5 9.9999996826552254e-21 59.5 364.5 3511.5 3665.5 20170224.5
decision_type=0 0 0 0 0 0 0 0 0 0 0 0 0 0 0 0 0 0 0 0 0 0 0 0 0 0 0 0 0 0
default_value=0 0 0 0 0 0 0 1.7976931348623157e+308 1.7976931348623157e+308 0 -9.9999996826552254e-21 1.7976931348623157e+308 0 0 0 1.7976931348623157e+308 1.7976931348623157e+308 0 -9.9999996826552254e-21 0 0 0 0 0 0 0 0 0 0 0
left_child=-1 2 3 24 10 6 13 9 -9 -7 21 12 -11 -6 -4 16 19 18 20 -13 -16 -5 -21 -22 25 -2 -26 29 -29 -25
right_child=1 -3 14 4 5 7 -8 8 -10 11 -12 15 -14 -15 17 -17 -18 -19 -20 22 23 -23 -24 27 26 -27 -28 28 -30 -31
leaf_parent=0 25 1 14 21 13 9 6 8 8 12 10 19 12 13 20 15 16 17 18 22 23 21 22 29 26 25 26 28 28 29
leaf_value=0.084401502427522396 0.084943688430049569 -0.084401502427522396 -0.056133643112600939 0.085183167851237515 0.091767447142192163 -0.012560713614575317 -0.017890465020472916 -0.077152214704757138 0.022390254183788504 -0.025087527134025591 0.032651356487342971 -0.079140818376893893 -0.078236195213797113 0.043608919131778882 -0.077593534104822837 -0.047821116367951465 -0.056681416660722767 -0.068630219769368936 -0.066132972356947206 -0.092491994045991635 -0.085614291994804873 0.075799186082481235 -0.08654197331155293 -0.084406758886442168 0.084379678841491501 0.085759818028673759 0.084755070111983244 -0.08459517874044975 -0.084447101467426136 -0.084455343646566858
leaf_count=42913 20 629654 24 23 20 20 24 21 37 31 27 23 20 20 28 20 25 34 20 20 30 20 26 1678 35 24 20 22 194 118
internal_value=0 -1.6865783589378922 -1.3395182006567929 0.13596786813740705 -0.26670564224151833 -0.60765891454030052 0.7089735673093609 -0.95756513018709344 -0.27205441007938935 -1.1757595155827303 1.2388815486938145 -1.2886427796650504 -0.91735005516023516 1.3532998725088259 -1.6719302528976887 -1.4551075047277013 -1.5610942044981422 -1.6782691119812421 -1.6832903219480069 -1.7164390320672755 -1.6868099491138639 1.6161888471852481 -1.78306576768688 -1.6886654043128988 1.6981081274549066 1.707792878936349 1.6903268690722242 -1.6883112319626152 -1.6892438768641251 -1.688199034927186
internal_count=675191 632278 2624 476 377 307 64 243 58 185 70 165 51 40 2148 114 94 2124 2090 69 2070 43 46 2042 99 44 55 2012 216 1796
shrinkage=0.05
has_categorical=0


Tree=5
num_leaves=31
split_feature=0 0 31 27 25 9 1 1 25 15 21 2 2 2 9 21 1 5 25 10 39 27 2 9 3 35 39 2 4 27
split_gain=101437.90339133772 77.284569552808534 300.42181940153455 73.315306460770927 51.567479313665757 19.959588431558807 16.083568543626313 8.5848848437325351 6.6190821702262639 6.3975987490217783 5.440703115356146 3.2129068275015271 2.8868635161217933 2.5636164955838856 1.6194785579241397 1.4473219564642079 0.9584894987451662 0.78946922226009519 0.6383358706746094 0.59172335789916986 0.13984014196383043 0.071740426729498097 0.023831710568728681 0.0048225374337107496 0.0046988638839593477 0.0013596492800971305 0.00030146886706461373 0.00010508760426120034 9.4369514954451006e-05 0.00049005782383915175
threshold=63091 66854.5 9.9999996826552254e-21 658.5 29.5 2.5 4.5 26.5 30.5 4.5 4036.2084999999997 273.5 398.5 162.5 3.5 2265.3744999999999 3.5 2015.5 58.5 23.5 32.5 462.5 401.5 5.5 3177417 9.9999996826552254e-21 24.5 380.5 25.5 3511.5
decision_type=0 0 0 0 0 0 0 0 0 0 0 0 0 0 0 0 0 0 0 0 0 0 0 0 0 0 0 0 0 0
default_value=0 0 0 0 -9.9999996826552254e-21 0 0 1.7976931348623157e+308 -9.9999996826552254e-21 1.7976931348623157e+308 0 0 1.7976931348623157e+308 0 0 0 0 0 -9.9999996826552254e-21 1.7976931348623157e+308 0 0 0 0 0 0 0 1.7976931348623157e+308 1.7976931348623157e+308 0
left_child=-1 2 3 19 7 -6 10 9 11 20 -7 13 -10 -8 -4 -13 -16 18 23 21 -5 25 -17 -18 -24 -2 27 -25 29 -28
right_child=1 -3 14 4 5 6 8 -9 12 -11 -12 15 -14 -15 16 22 17 -19 -20 -21 -22 -23 24 26 -26 -27 28 -29 -30 -31
leaf_parent=0 25 1 14 20 5 10 13 7 12 9 10 15 12 13 16 22 23 17 18 19 20 21 24 27 24 25 29 27 28 29
leaf_value=0.081617122023786348 0.082586712881692378 -0.081617122023786348 -0.055072118343357485 0.075647225606634352 0.055095509592999359 0.025503106009825412 -0.07002696794030315 -0.010621715342705793 0.0039373063432531557 0.020749081386607564 -0.038789200212359862 -0.058564446277568599 -0.049546582865889338 -0.018990603940455902 -0.06388812658105901 -0.087244496984348385 -0.082826021183090182 -0.065820883892148616 -0.063365873663429731 0.064707785875929291 0.086157695026527578 0.088735756656212847 -0.082845883386381214 -0.081742604333811308 -0.084849497670200003 0.081677747830516068 -0.081640419351463336 -0.082019532150533161 -0.081616427456614182 -0.082170753611520139
leaf_count=42861 31 629690 25 21 22 36 20 20 20 25 21 29 21 20 34 30 36 34 20 21 35 22 31 34 20 39 214 25 1714 20
internal_value=0 -1.6308689217290655 -1.2813639019004937 0.15834645305893935 -0.27228612562967625 -0.73229559365056096 -0.89682612216549706 0.96263571653866264 -1.1806375215626306 1.2591778434165035 0.036864491936143974 -1.3790807203717301 -0.46403445479503785 -0.89092210337236122 -1.6125693944665198 -1.5596395250550013 -1.6187554004912159 -1.6243097169378813 -1.6294589479908499 1.6032183782299989 1.6444067660641799 1.6739844329065179 -1.6996963729667038 -1.6330579306755402 -1.6727322235170352 1.641632802834234 -1.6326340877265941 -1.6372015326022105 -1.6324955244815067 -1.6337179927947658
internal_count=675191 632330 2640 484 371 270 248 101 191 81 57 150 41 40 2156 110 2131 2097 2063 113 56 92 81 2043 51 70 2007 59 1948 234
shrinkage=0.05
has_categorical=0


Tree=6
num_leaves=31
split_feature=31 9 25 25 8 2 1 9 14 8 39 9 8 39 1 36 36 22 9 9 9 8 25 8 14 39 9 9 25 25
split_gain=34464.150492857443 12025.968423626702 4586.5950750629991 2671.0000633898071 1671.7260562981828 1409.9228427174644 784.32783106388342 721.07003612422272 603.03573563395548 522.62885679041244 328.62474225105092 266.05601020675567 243.80992333012603 239.90391059899173 224.4135268839309 297.50891702695225 217.74630737396939 160.80317308939993 140.55319642571681 140.49545734009345 118.16214480483347 97.575485277968923 96.560244829363 88.137753846473061 85.704194934093266 84.500080919729783 82.06123322418496 82.048403825436253 148.4708130456811 127.42118227372862
threshold=9.9999996826552254e-21 2.5 30.5 29.5 2017.5 9.9999996826552254e-21 1.5 8.5 20161219.5 2017.5 33.5 8.5 2016.5 32.5 1.5 9.9999996826552254e-21 1.5 85 8.5 8.5 7.5 2017.5 30.5 2016.5 20170120.5 34.5 4.5 3.5 28.5 30.5
decision_type=0 0 0 0 0 0 0 0 0 0 0 0 0 0 0 0 0 0 0 0 0 0 0 0 0 0 0 0 0 0
default_value=0 0 1.7976931348623157e+308 -9.9999996826552254e-21 0 0 0 0 0 0 0 0 0 0 0 0 0 -9.9999996826552254e-21 0 0 0 0 1.7976931348623157e+308 0 0 0 0 0 -9.9999996826552254e-21 -9.9999996826552254e-21
left_child=1 4 3 16 -1 -4 -5 9 18 13 -9 -10 -12 20 15 25 24 23 26 21 -7 -18 -6 -16 -3 -2 -8 28 -25 -30
right_child=14 2 5 6 22 7 8 10 11 -11 12 -13 -14 -15 17 -17 19 -19 -20 -21 -22 -23 -24 27 -26 -27 -28 -29 29 -31
leaf_parent=4 25 24 5 6 22 20 26 10 11 9 12 11 12 13 23 15 21 17 18 19 20 21 22 28 24 25 26 27 29 29
leaf_value=0.079011192942292252 0.058066233408568958 0.058108090458494868 0.071703450748760097 0.022144248385827608 -0.038602216572574712 0.038219898250328503 -0.051774201433123605 -0.010966115526079949 -0.050000790837554002 -0.0085135618729939837 0.079392013287735541 -0.068515053236711226 -0.061473098655896598 0.072357759715199352 0.079139124155677046 -0.074064554362488599 0.032629926077610331 -0.029162393830360112 -0.04258092542833946 -0.015797921992750579 0.0022018554777206776 -0.023759417403432063 0.0034804855903450612 -0.078107229597549566 -0.003584699003567253 -0.079139124155677046 -0.0055788086411038204 -0.078880012687242582 0.00024316325930818597 -0.058955598159860102
leaf_count=15026 348 1543 3119 1371 885 2735 491 10407 12307 4584 140 25873 2285 1605 38 655 1873 704 3837 1844 1524 400 1733 4499 287 56 2607 570225 509 1681
internal_value=0 -0.2333466777291526 -0.57961853707983779 -0.93445407906385169 1.3138356042457482 0.12509922366071805 -1.1018288696575715 -0.050253836369020956 -1.1487749875209703 0.35406989718253207 -0.37948018836833081 -1.2509336567661182 -1.0667050552499298 0.76404833285800877 -1.5717575690299153 -0.61821350544019893 0.37365323856982735 -1.5735057127640735 -0.58640754361687375 0.10922142838171657 0.50664642952446182 0.45411112760183392 -0.21487843696431086 -1.5747141126298019 0.968685516820881 0.78098109854688902 -0.25798086786150776 -1.5749220885576984 -1.3466486587153783 -0.90395000467129039
internal_count=675191 96476 78832 52433 17644 26399 46486 23280 45115 10448 12832 38180 2425 5864 578715 1059 5947 577656 6935 4117 4259 2273 2618 576952 1830 404 3098 576914 6689 2190
shrinkage=0.05
has_categorical=0


Tree=7
num_leaves=31
split_feature=31 9 25 25 8 2 1 9 14 8 39 9 40 8 1 38 8 38 9 13 9 9 9 25 9 25 25 9 13 10
split_gain=32260.670805771137 11028.162790908036 4201.5210887128042 2449.1538028965988 1563.6605723243611 1297.9835000853996 720.49080458630851 653.40881785286604 569.17234755203026 476.12970899342292 303.80826309985542 275.29268926943223 226.38187515139623 223.56977788673316 209.65076939336723 273.89161945927708 208.90044598227396 202.13655112625355 196.11808524324559 154.86576273804531 122.49761666762245 111.08486071309977 100.99696026801817 88.69256246758593 83.51375196443405 148.71479369428152 117.46861901276139 82.616021842890405 81.571727704535704 78.643783787987786
threshold=9.9999996826552254e-21 2.5 30.5 29.5 2017.5 9.9999996826552254e-21 1.5 8.5 20161208.5 2017.5 33.5 8.5 1.5 2016.5 1.5 9.9999996826552254e-21 2016.5 9.9999996826552254e-21 8.5 52.5 5.5 8.5 7.5 183.5 3.5 28.5 30.5 5.5 165 18.5
decision_type=0 0 0 0 0 0 0 0 0 0 0 0 0 0 0 0 0 0 0 0 0 0 0 0 0 0 0 0 0 0
default_value=0 0 1.7976931348623157e+308 -9.9999996826552254e-21 0 0 0 0 0 0 0 0 0 0 0 0 0 0 0 0 0 0 0 -9.9999996826552254e-21 0 -9.9999996826552254e-21 -9.9999996826552254e-21 0 0 0
left_child=1 4 3 16 -1 -4 -5 9 21 12 -9 27 22 -12 15 -2 -3 -18 20 -16 -19 -8 -7 -6 25 -21 -27 -10 -28 -29
right_child=14 2 5 6 23 7 8 10 11 -11 13 -13 -14 -15 19 -17 17 18 -20 24 -22 -23 -24 -25 -26 26 28 29 -30 -31
leaf_parent=4 15 16 5 6 23 22 21 10 27 9 13 11 12 13 19 15 17 20 18 25 20 21 22 23 24 26 28 29 28 29
leaf_value=0.076789716799199714 0.037597518785810406 0.077813616010131426 0.069405463179654472 0.021074191948064064 -0.022362213350002089 0.03516452681836945 -0.0079933742833697818 -0.010422381004332629 -0.060270448588815785 -0.0080900151515494578 0.077152912064148871 -0.065728387103147892 0.066608526596274295 -0.059204237403070938 -0.027790468345611316 -0.071783783192470987 0.073990313485705686 -0.0022026185156636966 -0.018399959483557882 -0.075871018005352509 0.042430159654463395 -0.037616844357986547 0.00084052496507091884 0.019820265064399711 -0.076651267159376202 0.00067046744259358873 -0.061124149339208171 -0.035881865439199155 0.048376207897950253 -0.0573997665537914
leaf_count=15026 404 572 3119 1371 1866 2541 2524 10407 3725 4584 140 26738 1874 2285 704 655 512 1146 2145 4499 1572 2972 1449 752 570252 512 1613 6602 76 2554
internal_value=0 -0.22418373962060273 -0.55600512944829927 -0.89826299193741199 1.2730129495271556 0.11956792947341587 -1.0600679683024257 -0.047890095110197532 -1.1055877460695991 0.33794239085098865 -0.36163540172342368 -1.1933052795607415 0.73151842227074715 -1.0278340026430779 -1.5273618851953001 -0.59780719439265295 0.35674563471771353 0.23030903051794047 0.10047919495483279 -1.5290745705586024 0.47135201239303276 -0.47956737191091353 0.4532086570069116 -0.20453496744390526 -1.5302851122019379 -1.2981364556863615 -0.85532579511729701 -0.94358737763403078 -1.1219001641890238 -0.8374019944392892
internal_count=675191 96476 78832 52433 17644 26399 46486 23280 45115 10448 12832 39619 5864 2425 578715 1059 5947 5375 4863 577656 2718 5496 3990 2618 576952 6700 2201 12881 1689 9156
shrinkage=0.05
has_categorical=0


Tree=8
num_leaves=31
split_feature=0 0 31 27 2 9 31 9 26 41 25 34 2 15 2 27 8 25 9 12 9 20 2 30 1 25 1 9 1 31
split_gain=85411.02015640185 68.136132134706713 247.08629517086604 62.325553334272271 40.518142374421835 28.420253052896083 14.626799202873372 12.949978545373597 12.204159653120449 6.0327245496409887 5.1989505140045367 4.9034130923065247 4.3497701135795381 4.1664372844357196 4.2540559094731911 3.0279885294847944 2.0360051524457958 1.8190033848477469 1.6882405904150346 1.5141728812341171 1.4754699037482979 1.4082704205641789 1.7087252842097183 1.2626654546143463 1.2499148614515434 1.2270547453790641 1.0506205040853978 1.0407829762625624 0.94110403569106893 0.93393904773984104
threshold=63091 66854.5 9.9999996826552254e-21 658.5 39.5 2.5 9.9999996826552254e-21 2.5 1.5 1.5 30.5 9.9999996826552254e-21 270.5 3.5 137.5 2388.5 2017.5 29.5 4.5 240 8.5 17.5 423.5 39.5 1.5 30.5 20.5 8.5 3.5 9.9999996826552254e-21
decision_type=0 0 0 0 0 0 0 0 0 0 0 0 0 0 0 0 0 0 0 0 0 0 0 0 0 0 0 0 0 0
default_value=0 0 0 0 0 0 0 0 1.7976931348623157e+308 0 -9.9999996826552254e-21 0 0 1.7976931348623157e+308 1.7976931348623157e+308 0 0 1.7976931348623157e+308 0 1.7976931348623157e+308 0 0 0 -9.9999996826552254e-21 0 -9.9999996826552254e-21 0 0 0 0
left_child=7 2 3 -2 20 23 10 16 12 19 17 -10 13 -7 -15 21 -1 -3 26 24 -5 22 -14 -6 -9 -26 -4 -19 -20 -27
right_child=1 6 18 4 5 8 -8 9 11 -11 -12 -13 15 14 -16 -17 -18 27 28 -21 -22 -23 -24 -25 25 29 -28 -29 -30 -31
leaf_parent=16 3 17 26 20 23 13 6 24 11 9 10 11 22 14 14 15 16 27 28 19 20 21 22 23 25 29 26 27 28 29
leaf_value=0.074977030055716862 0.075850953810896793 -0.078935148679773845 -0.069216852074770852 0.045083597302760479 0.071775252714654222 -0.066388800378916785 -0.074950012174027719 0.077625304535466177 -0.024656173170425365 0.076653339905454476 -0.07881640247078886 0.031952539536428397 -0.034810591790712629 -0.044195758806171832 0.018197361578038775 -0.031466609724092071 0.079495864571319463 -0.076866888382220278 -0.056950275445945109 0.078666033693160428 0.078174624374369561 -0.079102713189877938 -0.074545026266171571 0.035454460718479866 0.081892859597358994 0.079144108323228046 -0.035967404006856975 -0.075727312912704098 -0.074595868056149886 0.083200315890917198
leaf_count=15006 113 2542 21 23 20 22 574557 1306 36 7978 10493 27 22 22 23 28 1155 12662 34 5671 38 66 24 20 6953 4096 20 29436 2081 696
internal_value=0 -1.5007653282899167 -1.1628318813693654 0.15791778256846184 -0.24301565528874411 -0.5391499957996122 -1.5021984853539569 1.5539644730658404 -0.77751100093815106 1.5817158821609256 -1.5348439917011907 -0.0078837400653207542 -1.0230697747796083 -0.59976455758555913 -0.24710450294329298 -1.2329666119183704 1.5062995030937596 -1.5248181237215293 -1.4777161418603397 1.6017569332841997 1.3061152810666976 -1.3862383690583342 -1.1106961987969273 1.0688675678041517 1.6139077191375226 1.6205377703305095 -1.060576876101341 -1.5214648882526118 -1.4861522409134948 1.5949708629635453
internal_count=675191 632330 2640 484 371 310 629690 42861 270 26700 55133 63 207 67 45 140 16161 44640 2156 18722 61 112 46 40 13051 11745 41 42098 2115 4792
shrinkage=0.05
has_categorical=0


Tree=9
num_leaves=31
split_feature=0 0 31 27 2 9 31 26 9 14 41 34 25 4 10 15 27 4 9 8 9 25 12 21 5 9 36 2 25 25
split_gain=79208.874243418773 64.627890673989896 230.86611745147468 57.483744506547701 37.112916179690679 25.928362454124219 11.647778779733926 11.26081542180431 10.260646933384123 5.5327740696108449 4.7455143167499045 4.42927970720977 4.1134309079097875 3.1122841972072273 2.3980229498474515 2.8628166387301412 2.0876034034314195 1.7900643196498578 1.6892754419018274 1.6151087425096193 1.4471203739767091 1.4413941462189541 1.1877268426451337 0.95875314964962399 0.86843155658584692 0.82729213277343661 0.75864390585775254 0.69678831591772905 0.69054745213168189 0.59105440975417878
threshold=63091 66854.5 9.9999996826552254e-21 658.5 39.5 2.5 9.9999996826552254e-21 1.5 2.5 20161215.5 1.5 9.9999996826552254e-21 30.5 29.5 15.5 9.9999996826552254e-21 963.5 23.5 3.5 2017.5 8.5 29.5 240 2096.5014999999999 2015.5 8.5 1.5 9.9999996826552254e-21 58.5 30.5
decision_type=0 0 0 0 0 0 0 0 0 0 0 0 0 0 0 0 0 0 0 0 0 0 0 0 0 0 0 0 0 0
default_value=0 0 0 0 0 0 0 1.7976931348623157e+308 0 0 0 0 -9.9999996826552254e-21 1.7976931348623157e+308 0 0 0 1.7976931348623157e+308 0 0 1.7976931348623157e+308 1.7976931348623157e+308 1.7976931348623157e+308 0 0 0 0 0 -9.9999996826552254e-21 -9.9999996826552254e-21
left_child=8 2 3 -2 20 13 12 9 19 -7 22 -9 21 -6 15 -11 -17 -18 -4 -1 -5 -3 29 -16 28 -23 -12 -27 -20 -10
right_child=1 6 18 4 5 7 -8 11 10 14 26 -13 -14 -15 23 16 17 -19 24 -21 -22 25 -24 -25 -26 27 -28 -29 -30 -31
leaf_parent=19 3 21 18 20 13 9 6 11 29 15 26 11 12 13 23 16 17 17 28 19 20 25 22 23 24 27 26 27 28 29
leaf_value=0.073173150802966477 0.073638579632057263 -0.076740956845857022 -0.045322626472638877 0.043102002995654053 0.023034859926727623 -0.0063569992159856802 -0.073148396587436604 -0.023446436206998003 0.078860729557891501 -0.018212331153414578 0.073867134168975557 0.03037865406544777 -0.076633149848307075 0.080381421331649591 -0.053553839925797347 -0.027157249372767631 -0.04364521922206821 -0.080153086727706074 -0.072879277419356792 0.07724302710024214 0.076087363177749751 -0.074880482646021471 0.076500062293526738 -0.079256132273842261 -0.05562814323658366 -0.080919769817205486 0.075997801636327952 -0.07381349629803971 -0.053129815729038798 0.077412924654092427
leaf_count=15006 113 2542 25 23 20 27 574557 36 8110 28 4943 27 10493 20 23 20 24 37 2077 1155 38 12662 5671 48 34 147 3035 29289 20 4941
internal_value=0 -1.4644458095408741 -1.1314737766627303 0.15211992968672097 -0.23350466337119014 -0.51747629541595008 -1.465861946695411 -0.74607390082905467 1.5125845684840524 -0.98445021182056502 1.5375370067267835 -0.0074978787084752849 -1.4953522055196491 1.0272655308591538 -1.1179164932113634 -0.9254793223645883 -1.1261662862278785 -1.3174149402693649 -1.4413379036844083 1.4695745661104542 1.2624524502486267 -1.4863128102322782 1.555482329283888 -1.4157466683835291 -1.4480923759489164 -1.483286098738158 1.4938311909280206 -1.4770360684977508 -1.4536977736695333 1.5663492816430793
internal_count=675191 632330 2640 484 371 310 629690 270 42861 207 26700 63 55133 40 180 109 81 61 2156 16161 61 44640 18722 71 2131 42098 7978 29436 2097 13051
shrinkage=0.05
has_categorical=0


Tree=10
num_leaves=31
split_feature=0 0 31 27 2 9 31 9 40 15 25 34 41 25 25 25 2 9 25 8 25 12 1 25 9 36 31 6 2 9
split_gain=73705.521958525904 58.433668064360972 213.27027745698626 51.947766347527804 27.169939509414348 19.537173116854774 9.3715651183738373 8.1527140496145876 7.499339979099938 9.2833468652146518 7.3428315151551828 5.6058589888505201 3.7426091182824166 3.2614511875250543 3.2456707314668165 3.2099999906361347 1.6877594264203566 1.5260435345510359 4.6694551603553265 1.3046674494244144 1.1670856747186917 0.93103164448984899 0.82138665614365891 0.76466997546049242 0.66860798619018169 0.62148787847854692 0.5935320423354824 0.56335659604477684 0.53709649443226226 0.45926283947551383
threshold=63091 66854.5 9.9999996826552254e-21 609.5 51.5 8.5 9.9999996826552254e-21 2.5 1.5 2.5 31.5 9.9999996826552254e-21 1.5 29.5 30.5 25.5 279.5 5.5 29.5 2017.5 29.5 240 1.5 30.5 8.5 1.5 9.9999996826552254e-21 2.5 9.9999996826552254e-21 8.5
decision_type=0 0 0 0 0 0 0 0 0 0 0 0 0 0 0 0 0 0 0 0 0 0 0 0 0 0 0 0 0 0
default_value=0 0 0 0 0 0 0 0 0 0 -9.9999996826552254e-21 0 0 -9.9999996826552254e-21 -9.9999996826552254e-21 -9.9999996826552254e-21 0 0 -9.9999996826552254e-21 0 1.7976931348623157e+308 1.7976931348623157e+308 0 -9.9999996826552254e-21 0 0 0 0 0 0
left_child=7 2 3 -2 15 8 14 19 9 11 13 -6 21 -7 20 -5 -15 18 -4 -1 -3 22 -9 -24 -22 -14 -25 -18 -26 -27
right_child=1 6 17 4 5 10 -8 12 -10 -11 -12 -13 25 16 -16 -17 27 -19 -20 -21 24 -23 23 26 28 29 -28 -29 -30 -31
leaf_parent=19 3 20 18 15 11 13 6 22 8 9 10 11 25 16 14 15 27 17 18 19 24 21 23 26 28 29 26 27 28 29
leaf_value=0.07153473539990117 0.072570068346146974 -0.074767007806234034 -0.074362731490210804 0.068211097620361649 -0.007556259584612663 -0.020254958909877104 -0.071515500153073647 0.073638621238918345 0.048732712322091629 -0.046651782831652111 0.0019808425890512032 0.059863809852205165 0.072159359121192382 -0.042718674907671367 -0.074664754215669982 0.019222816264913439 -0.055227080473813507 -0.071166105879415617 -0.014037822167014042 0.075209529072132617 -0.073087901639059441 0.074550189945767717 0.077146488565724883 0.074920495170083867 -0.078555543637129133 0.073160101225191718 0.078268183419134441 -0.074621829983790203 -0.072121343684445061 0.075936720715350792
leaf_count=15050 109 2591 45 44 32 22 574305 1322 33 38 27 21 4963 33 10476 21 22 2068 21 1174 12821 5724 6947 4075 141 2002 673 72 29308 1011
internal_value=0 -1.4315906751136023 -1.1090258384741227 0.14693293992952225 -0.21882173578279246 -0.47684275901437956 -1.4329498833369141 1.4750970483576709 0.13629428175142372 -0.1629439156161355 -0.92963572783136128 0.38425468880915875 1.4976090775549835 -1.1167871951692994 -1.4596980442508656 1.0194930917909235 -1.2518576946036379 -1.412660962284235 -1.0948302536541055 1.4363012681968583 -1.4515948568700723 1.5137047536751214 1.5234867686611393 1.5290143665362346 -1.4488173113003957 1.4582455982478526 1.5082160923843064 -1.4007594686353146 -1.4430967612769285 1.4823194529801615
internal_count=675191 632250 2608 474 365 300 629642 42941 124 91 176 53 26717 149 55337 65 127 2134 66 16224 44861 18741 13017 11695 42270 7976 4748 94 29449 3013
shrinkage=0.05
has_categorical=0


Tree=11
num_leaves=31
split_feature=0 0 31 27 26 2 31 2 34 7 12 14 41 3 7 7 4 25 27 30 25 5 12 1 31 25 1 8 14 2
split_gain=68593.97288555 55.8126665186428 200.19079920039576 48.15401901977112 27.857361207314405 9.117407975973034 7.5436891441058833 6.6893429056803946 6.6764717603015562 5.2334681912774448 5.1024374401592532 4.4697175985520623 4.1940304731324431 4.0885160955125315 3.6042327318508152 3.4500869466660209 3.1918996285467998 2.5994017630218877 1.7030735345602821 1.1173319727422495 0.93596829965463257 0.93367700468809289 0.66575325915073336 0.70800831368887884 0.58893001280557655 0.54775428165623907 0.53768226377360406 0.48849410741468091 0.45810809413524112 0.41850796390281175
threshold=63091 66854.5 9.9999996826552254e-21 609.5 1.5 51.5 9.9999996826552254e-21 343.5 9.9999996826552254e-21 19.5 149.5 20170102.5 1.5 4247495 9.5 17.5 20.5 30.5 963.5 5.5 29.5 2015.5 240 1.5 9.9999996826552254e-21 61.5 1.5 2017.5 20161210.5 9.9999996826552254e-21
decision_type=0 0 0 0 0 0 0 0 0 0 0 0 0 0 0 0 0 0 0 0 0 0 0 0 0 0 0 0 0 0
default_value=0 0 0 0 1.7976931348623157e+308 0 0 0 0 0 0 0 0 1.7976931348623157e+308 0 0 -9.9999996826552254e-21 -9.9999996826552254e-21 0 -9.9999996826552254e-21 1.7976931348623157e+308 0 1.7976931348623157e+308 0 0 -9.9999996826552254e-21 0 0 0 0
left_child=12 2 3 -2 7 -6 17 9 11 10 14 -7 19 18 -5 -13 -11 20 -9 -1 -3 25 23 -21 -25 -4 -22 -24 -28 -30
right_child=1 6 21 4 5 8 -8 13 -10 16 -12 15 -14 -15 -16 -17 -18 -19 -20 22 26 -23 27 24 -26 -27 28 -29 29 -31
leaf_parent=19 3 20 25 14 5 11 6 18 8 16 10 15 12 13 14 15 16 17 18 23 26 21 27 24 24 25 28 27 29 29
leaf_value=0.070610782930185106 0.070809322765584673 -0.072984318355159047 -0.069603397534917524 -0.0052665917680708961 0.066881393247225931 0.030167323089391025 -0.070030560272072329 -0.03741317768508786 0.047152460487876087 -0.065507648102521507 -0.032809302444443682 -0.054842677168428444 0.070674631180728129 -0.010916520489491707 0.055584678528351694 0.0018718761392239455 -0.01378377560262627 -0.072890817836486446 -0.072469530134409738 0.071394731253776919 -0.074278740324597692 -0.050817147277256253 0.071679449518779609 0.073505313903868552 0.075674254327791152 -0.052555912960620413 -0.071894491122671197 0.07343075529698942 -0.076402165000282019 -0.070680639537768014
leaf_count=2369 109 2591 2080 21 45 20 574305 21 31 28 28 23 16412 20 20 21 23 10476 64 1695 520 32 5262 12764 1577 22 4264 2862 142 37344
internal_value=0 -1.4016661812786502 -1.0822754514075685 0.14174720073379693 -0.2103842283686308 0.5127485533316658 -1.4030164605983302 -0.66859692142453464 0.17379829162264632 -0.34275455831554696 0.026876849935514285 -0.20172161710028835 1.4413359619798782 -1.0675115609370922 0.48560474673147241 -0.55920180818252418 -0.84260171937208495 -1.4273535123220458 -1.2756030421835869 1.4579212375112069 -1.41999167856196 -1.3824671543464029 1.4622162742757252 1.4701971753092096 1.4750152946290407 -1.3882958158587804 -1.4174657760790268 1.4461830308256867 -1.4165662769202334 -1.4140860788137863
internal_count=675191 632250 2608 474 365 140 629642 225 95 120 69 64 42941 105 41 44 51 55337 85 26529 44861 2134 24160 16036 14341 2102 42270 8124 41750 37486
shrinkage=0.05
has_categorical=0


Tree=12
num_leaves=31
split_feature=0 0 31 27 26 9 27 14 2 31 34 9 2 25 20 25 25 9 25 10 6 8 25 1 9 25 1 25 31 2
split_gain=63933.969883206184 53.590020410134457 188.41368628713167 44.702051803708372 25.428464855177118 9.9050018078197226 9.0422435492695392 9.553959012325107 8.5865754997011763 6.0999622340605129 6.0536130602230998 5.4185613927875238 5.0060000005937084 4.4931244560950088 2.5041151379160569 2.419195988399224 2.0928996361399186 1.6257115054628457 4.5706613140015335 0.88506942275989786 1.0184162210057082 0.85984227967583138 0.75456196110826568 0.47528356574628106 0.45240209474650328 0.44981870400806656 0.53029783327292535 0.56342265525336188 0.43163367592660506 0.34522429719618231
threshold=63091 66854.5 9.9999996826552254e-21 609.5 1.5 8.5 1109.5 20170108.5 51.5 9.9999996826552254e-21 9.9999996826552254e-21 2.5 279.5 405.5 11.5 7.5 30.5 5.5 29.5 14.5 3.5 2017.5 29.5 3.5 8.5 30.5 1.5 29.5 9.9999996826552254e-21 9.9999996826552254e-21
decision_type=0 0 0 0 0 0 0 0 0 0 0 0 0 0 0 0 0 0 0 0 0 0 0 0 0 0 0 0 0 0
default_value=0 0 0 0 1.7976931348623157e+308 0 1.7976931348623157e+308 0 0 0 0 0 0 1.7976931348623157e+308 0 -9.9999996826552254e-21 -9.9999996826552254e-21 0 -9.9999996826552254e-21 0 0 0 1.7976931348623157e+308 0 0 -9.9999996826552254e-21 0 -9.9999996826552254e-21 0 0
left_child=11 2 3 -2 5 6 -5 -8 -6 16 13 21 14 -10 -7 -13 22 18 -4 20 -14 -1 -3 -19 -24 26 -17 -28 -27 -26
right_child=1 9 17 4 8 12 7 -9 10 -11 -12 15 19 -15 -16 25 -18 23 -20 -21 -22 -23 24 -25 29 28 27 -29 -30 -31
leaf_parent=21 3 22 18 6 8 14 7 7 13 9 10 15 20 13 14 26 16 23 18 19 20 21 24 23 29 28 27 27 28 29
leaf_value=0.068668244627094172 0.069198586179941388 -0.071367934505090616 -0.07111094807716617 0.046081092339317717 0.065317514378654629 -0.043525700665471921 0.022949944848287274 -0.066583222339137951 0.016432453829784071 -0.068675812427934094 0.04500299203413545 0.069673790693192489 -0.034281244057007811 -0.03743414070941143 0.0058034520583865844 0.070413386312293699 -0.071282159368458775 -0.054943537334371788 -0.010379876053086646 -0.071985804000112286 -0.06499520871735838 0.071733675071775652 -0.069993060535831417 -0.068525431486487931 -0.074458492671331117 0.071376253920220664 0.071249064205868545 0.073373341820846594 0.074149723580640259 -0.06917510934571397
leaf_count=15050 109 2591 45 26 45 23 22 29 33 574305 31 6909 21 31 21 1181 10476 32 21 53 30 1174 12821 2036 141 9539 1924 6476 688 29308
internal_value=0 -1.374367893364471 -1.0571462880393396 0.1366857068093319 -0.20200169025642634 -0.64218654165344602 -0.055705819203266227 -0.55866326397010591 0.49214703624810763 -1.3757141383577454 0.16558902858159258 1.4107107986953047 -0.97381863792425916 -0.19199262220543289 -0.39786545295884895 1.4295301448975617 -1.3979248951442527 -1.3547579970489259 -1.0193673298418762 -1.2409972621103778 -1.0405755903905929 1.3780733263685003 -1.3912142875663083 -1.3661772301454855 -1.3889097147079703 1.4415217433175058 1.452124035432901 1.4580254455207484 1.4314175797960942 -1.3840587125937327
internal_count=675191 632250 2608 474 365 225 77 51 140 629642 95 42941 148 64 44 26717 55337 2134 66 104 51 16224 44861 2068 42270 19808 9581 8400 10227 29449
shrinkage=0.05
has_categorical=0


Tree=13
num_leaves=31
split_feature=0 0 31 27 26 2 1 34 14 7 18 31 14 7 41 5 17 4 25 5 29 25 25 39 1 1 24 14 8 1
split_gain=59672.838684101036 51.507319378521061 177.54566493982304 41.560944870595918 23.26116385487795 8.1016233814910024 5.9719896013306553 5.4929767771672964 4.9978884622605877 6.6708779158336773 7.4758480444419213 4.9546614724968094 4.1137516116088886 3.1007835934157488 2.7413291298125841 2.2303027023495581 2.5991820613472285 1.8726798387718269 1.6926902187442465 0.97455338941847458 0.73085911747693899 0.61102702617972682 0.57082097462387082 0.43771326459318516 0.42491070330913772 0.36532694954803446 0.32712663307574985 0.31249757557270641 0.30792775528107086 0.30272419200355216
threshold=63091 66854.5 9.9999996826552254e-21 609.5 1.5 51.5 16.5 9.9999996826552254e-21 20161215.5 19.5 9.9999996826552254e-21 9.9999996826552254e-21 20170102.5 17.5 1.5 2010.5 4.5 28.5 30.5 2015.5 176.5 29.5 61.5 32.5 3.5 1.5 4.9326484018264836 20161219.5 2017.5 1.5
decision_type=0 0 0 0 0 0 0 0 0 0 0 0 0 0 0 0 0 0 0 0 0 0 0 0 0 0 0 0 0 0
default_value=0 0 0 0 1.7976931348623157e+308 0 0 0 0 0 0 0 0 0 0 0 1.7976931348623157e+308 1.7976931348623157e+308 -9.9999996826552254e-21 0 -9.9999996826552254e-21 1.7976931348623157e+308 -9.9999996826552254e-21 0 0 0 0 0 0 0
left_child=14 2 3 -2 6 -6 8 12 -5 10 -10 18 -7 -14 20 -8 17 -17 21 22 -1 -3 24 26 -4 -23 28 -27 -22 -28
right_child=1 11 19 4 5 7 15 -9 9 -11 -12 -13 13 -15 -16 16 -18 -19 -20 -21 23 25 -24 -25 -26 27 29 -29 -30 -31
leaf_parent=20 3 21 24 8 5 12 15 7 10 9 10 11 13 13 14 17 16 17 18 19 28 25 22 23 24 27 29 27 28 29
leaf_value=0.067953680932749991 0.067719265333873985 -0.069897299101647145 -0.054595885238547637 0.031276250221800549 0.063864457761729707 0.029551862050057911 -0.018351131123129871 0.042985752512616583 0.023000413875033831 -0.061242796895116441 -0.052780198977154635 -0.067436304417493889 -0.051834565992403742 0.0019870872311055334 0.067976071228121465 -0.059033300006141924 -0.07642199171337459 -0.014640651694460131 -0.069818382852345068 -0.04732765974562067 0.068847748267499773 -0.071025538130474228 -0.049184360172991631 0.072116610016885158 -0.067192750703506929 -0.068905883023186343 0.068645606071359944 -0.067983483159185162 0.07027219850891922 0.07037740038128433
leaf_count=2445 109 2591 34 20 45 20 21 31 39 36 22 574305 23 21 16412 25 42 20 10476 32 5504 520 22 1105 2046 5302 1409 36448 2834 13232
internal_value=0 -1.3493964056648482 -1.0339702415690335 0.13196022988173645 -0.19430749414084089 0.47227338506108568 -0.61856796453032292 0.15767921845304994 -0.29867194895216176 -0.49893117891762551 -0.08489346431931695 -1.3507401829735746 -0.18248908439129985 -0.52573220277489696 1.3827600011228096 -0.98999450448538184 -1.1439268836916139 -0.78146745277715912 -1.3710701388333066 -1.3293700100616264 1.39654584258597 -1.3649355717444904 -1.3355596171287523 1.4001773299719087 -1.3395676282452533 -1.3628269963819206 1.3980566562384769 -1.3620594603475595 1.3868595394830194 1.404323628224466
internal_count=675191 632250 2608 474 365 140 225 95 117 97 61 629642 64 44 42941 108 87 45 55337 2134 26529 44861 2102 24084 2080 42270 22979 41750 8338 14641
shrinkage=0.05
has_categorical=0


Tree=14
num_leaves=31
split_feature=0 0 31 27 26 9 27 14 2 25 2 16 31 9 20 9 25 25 3 25 8 25 1 9 25 1 25 31 36 2
split_gain=55766.220537545625 49.725056491268333 167.66369523145408 38.686927976235218 21.248515562236566 9.1612333107395685 8.0593113245042254 8.3784651844149991 7.6478075889467201 5.3580060067265203 4.5752479950208169 4.2918406545811658 4.0401747839350719 3.6584959394640464 2.2845497119678875 1.7339679416337503 4.5091519357000838 1.5917255251169991 1.4293540734599972 1.3748584321583621 0.57590457559854258 0.49688215710739314 0.48438702411226586 0.30931991570469108 0.30463595199398696 0.3512171634229162 0.36997172535166101 0.28476856773522741 0.24106677526742715 0.23715319617986097
threshold=63091 66854.5 9.9999996826552254e-21 609.5 1.5 8.5 1140.5 20170108.5 51.5 90.5 279.5 4.5 9.9999996826552254e-21 2.5 11.5 5.5 29.5 7.5 3136461.5 30.5 2017.5 29.5 3.5 8.5 30.5 1.5 29.5 9.9999996826552254e-21 1.5 9.9999996826552254e-21
decision_type=0 0 0 0 0 0 0 0 0 0 0 0 0 0 0 0 0 0 0 0 0 0 0 0 0 0 0 0 0 0
default_value=0 0 0 0 1.7976931348623157e+308 0 0 1.7976931348623157e+308 0 1.7976931348623157e+308 0 1.7976931348623157e+308 0 0 1.7976931348623157e+308 0 -9.9999996826552254e-21 -9.9999996826552254e-21 1.7976931348623157e+308 -9.9999996826552254e-21 0 1.7976931348623157e+308 0 0 -9.9999996826552254e-21 0 -9.9999996826552254e-21 0 0 0
left_child=13 2 3 -2 5 6 -5 -8 -6 -10 14 -11 19 20 -7 16 -4 28 -12 21 -1 -3 -17 -23 25 -19 -27 -26 -15 -25
right_child=1 12 15 4 8 10 7 -9 9 11 18 -13 -14 17 -16 22 -18 24 -20 -21 -22 23 -24 29 27 26 -28 -29 -30 -31
leaf_parent=20 3 21 16 6 8 14 7 7 9 11 18 11 12 28 14 22 16 25 18 19 20 23 22 29 27 26 26 27 28 29
leaf_value=0.066275159834976824 0.066355592633042457 -0.068555093867727818 -0.068408095757318196 0.044631665650167858 0.062508766834078008 -0.041366471931318684 0.022002874222340443 -0.06221800179921351 0.042606474031125219 -0.042120421100749643 -0.069578042207176241 0.011792658066275472 -0.066299249423054665 0.066741988922886394 0.0059677616732925435 -0.052083743617629498 -0.0069539134131880653 0.067764905258290473 -0.042979333257145626 -0.068482297387338312 0.068861028389883755 -0.067413890880381827 -0.066136538777891649 -0.071212856684497797 0.06856551491455519 0.06847231551668824 0.070245975100595007 0.070881907274309666 0.068282704526835394 -0.066715478293725566
leaf_count=15050 109 2591 45 26 45 23 22 29 31 25 65 39 574305 5147 21 32 21 1181 39 10476 1174 12821 2036 141 9539 1924 6476 688 1762 29308
internal_value=0 -1.3264898793944992 -1.0120428625752365 0.12735551630923791 -0.18671820503220285 -0.59445319299253252 -0.030407890991070156 -0.50924149586667034 0.45374634249729578 0.1503569774436368 -0.9211412853824591 -0.18275574018530263 -1.3278352792146952 1.3572398039637388 -0.37085629667485309 -1.3059007329188832 -0.9511149026607697 1.3731499945874703 -1.1852325703581192 -1.3464921134152217 1.3294977407737969 -1.340868989732896 -1.3181778651885514 -1.3389346252497951 1.3831521442979271 1.3921295244770839 1.3970618670825556 1.3745774886041331 1.3429397454054244 -1.3347887955004951
internal_count=675191 632250 2608 474 365 225 77 51 140 95 148 64 629642 42941 44 2134 66 26717 104 55337 16224 44861 2068 42270 19808 9581 8400 10227 6909 29449
shrinkage=0.05
has_categorical=0


Tree=15
num_leaves=31
split_feature=0 0 31 27 40 2 12 36 27 31 25 2 9 9 39 25 9 25 25 19 39 2 8 25 25 3 9 25 31 11
split_gain=52001.198952511448 48.910828568506986 157.0703766871269 37.926026535042865 18.93256281409252 7.9057789002299756 7.5369560529972262 5.2594712294924477 4.0684713879865839 3.2823094487248454 3.170869437408335 3.0816430761430835 3.4476387133442032 2.9868843060012296 1.6996833669928755 1.283737907273462 1.2685057241358209 3.0519688569245069 1.1275398108846275 0.98994358853087761 0.6368785938060455 1.6355933050173768 0.46445397681509348 0.41394098288765235 0.30781486406317526 0.7030472217928434 0.25177796739626501 0.24492602220107074 0.23052593116744902 0.22878955687474445
threshold=63091 66854.5 9.9999996826552254e-21 550.5 1.5 355.5 617.5 4.5 1683.5 9.9999996826552254e-21 31.5 137.5 8.5 2.5 34.5 7.5 5.5 29.5 30.5 40.5 24.5 493.5 2017.5 29.5 50.5 2456884.5 8.5 30.5 9.9999996826552254e-21 12
decision_type=0 0 0 0 0 0 0 0 0 0 0 0 0 0 0 0 0 0 0 0 0 0 0 0 0 0 0 0 0 0
default_value=0 0 0 0 0 0 1.7976931348623157e+308 1.7976931348623157e+308 0 0 1.7976931348623157e+308 1.7976931348623157e+308 1.7976931348623157e+308 0 0 -9.9999996826552254e-21 0 -9.9999996826552254e-21 -9.9999996826552254e-21 1.7976931348623157e+308 0 1.7976931348623157e+308 0 1.7976931348623157e+308 -9.9999996826552254e-21 1.7976931348623157e+308 0 -9.9999996826552254e-21 0 0
left_child=13 2 3 -2 5 6 8 -6 11 18 19 -5 -13 22 -9 -15 17 -4 23 -7 21 -18 -1 -3 -22 -26 -25 29 -29 -17
right_child=1 9 16 4 7 10 -8 14 -10 -11 -12 12 -14 15 -16 27 20 -19 -20 -21 24 -23 -24 26 25 -27 -28 28 -30 -31
leaf_parent=22 3 23 17 11 7 19 6 14 8 9 10 12 12 15 14 29 21 17 18 19 24 21 22 26 25 25 26 28 28 29
leaf_value=0.065234024763886525 0.066905484146203634 -0.067344737904293503 -0.067135710643276669 -0.029220446589705986 0.0014738906619612179 -0.065211836861071446 0.043522657330196612 0.036226876308487345 -0.04674770096326137 -0.065253812794882057 -0.020566093009963215 0.040434642696402373 -0.014214394208150622 0.066048205537903096 0.073969371785501337 0.065513943931426011 -0.065637592782153295 -0.014230959951821623 -0.067259943776685607 -0.038680616109046294 -0.065339044614669509 -0.025636164167471571 0.067618720774775362 -0.066275602641105824 -0.039023490330248579 -0.066040307086856459 -0.065656007722921281 0.067337722912188536 0.069428620988172762 0.068400849633856495
leaf_count=14962 109 2563 40 35 35 59 26 29 38 574532 38 22 28 6915 28 395 46 20 10463 25 1898 20 1148 12758 20 38 29546 9440 707 9208
internal_value=0 -1.3054265268394276 -0.98562890945930848 0.12223083655686906 -0.18700299889940319 -0.4664381511086057 -0.1536710939495525 0.6555165042497797 -0.36660199257440607 -1.3067729518759359 -0.88501055988569255 -0.11642600955486335 0.21501040749507314 1.3339424886589064 1.0749728515105428 1.3485313570070856 -1.283329417770362 -0.96093322870934772 -1.3238751731412597 -1.1442077439602167 -1.2938112520867719 -1.0674656876558706 1.3083175418278978 -1.3186958249741139 -1.3015507831385469 -1.1341295284870163 -1.3169087415125846 1.3576779943868451 1.3498125337881239 1.3658236527717864
internal_count=675191 632416 2554 472 363 271 149 92 123 629862 122 85 50 42775 57 26665 2082 60 55330 84 2022 66 16110 44867 1956 58 42304 19750 10147 9603
shrinkage=0.05
has_categorical=0


Tree=16
num_leaves=31
split_feature=0 0 27 26 40 2 2 8 14 27 18 10 30 7 19 40 25 1 25 25 29 3 34 29 14 36 30 25 1 19
split_gain=48704.808805147302 47.451717494433979 103.91034057011882 56.990730312510607 20.817243497768914 8.4462309127354924 7.4277945544522552 5.3499942731840981 3.94460599185174 5.2270979325146909 5.3032060327824322 4.6618498670734869 3.889362485206572 3.6699510466703571 2.4225181226751111 2.1126773999712896 1.4795535058547102 1.1666513338202549 1.030513671988956 0.61649640774703585 0.55808528367253984 0.92684711417777521 2.5084938462909125 0.41751960652248954 0.99038231684802014 0.86645398174461263 0.35523163742072938 0.24769789273522136 0.23637317399516178 0.22082459985757907
threshold=63091 66854.5 607.5 5.5 1.5 641.5 405.5 2017.5 20161216.5 1548.5 4.5 16.5 14.5 12.5 26.5 1.5 26.5 3.5 30.5 26.5 2190.5 4450100 9.9999996826552254e-21 2467.5 20170114.5 5.5 5.5 29.5 1.5 1.5
decision_type=0 0 0 0 0 0 0 0 0 0 0 0 0 0 0 0 0 0 0 0 0 0 0 0 0 0 0 0 0 0
default_value=0 0 0 1.7976931348623157e+308 0 1.7976931348623157e+308 0 0 0 0 1.7976931348623157e+308 1.7976931348623157e+308 -9.9999996826552254e-21 0 1.7976931348623157e+308 0 -9.9999996826552254e-21 0 -9.9999996826552254e-21 -9.9999996826552254e-21 -9.9999996826552254e-21 0 0 -9.9999996826552254e-21 0 1.7976931348623157e+308 -9.9999996826552254e-21 -9.9999996826552254e-21 0 0
left_child=16 2 12 4 6 7 8 13 -4 10 -10 -12 27 -5 -8 18 -1 -6 28 -17 -19 23 -23 24 25 -22 -18 -2 -3 -25
right_child=1 15 3 5 17 -7 14 -9 9 -11 11 -13 -14 -15 -16 19 26 20 -20 -21 21 22 -24 29 -26 -27 -28 -29 -30 -31
leaf_parent=16 27 28 8 13 17 5 14 7 10 9 11 11 12 13 14 19 26 20 18 19 25 22 22 29 24 25 26 27 28 29
leaf_value=0.064715729561098168 0.056573787181528556 -0.066853900586660117 0.024795382526747668 -0.0098005549023703151 -0.040093940973535448 0.058678902619172524 -0.070608920832385277 -0.03875452818873476 -0.045775329370046962 -0.05456105109705997 0.040066143769140146 -0.02485578769166924 0.01595427750226534 0.045578135503908587 -0.03216650622615478 -0.065688318031011314 0.064690973429323145 -0.064055981997024211 -0.066149413020415437 -0.06429153990110846 -0.055844433282462781 -0.064343849424483832 -0.022166360113702904 -0.051698447048085863 -0.06478913350556588 -0.024733363083589002 0.066274971883668446 0.068717087425653273 -0.06478801505636296 -0.064580125737534286
leaf_count=16254 37 750 24 26 31 43 49 26 24 36 29 21 27 26 36 4393 2193 1496 10106 574952 32 53 31 20 74 20 24328 64 39661 329
internal_value=0 -1.2860172116169 -0.9661919645066499 -1.0766021491784041 -1.1685294279966119 0.3381736728022447 -0.54560416531454914 -0.03998780963690033 -0.25377887789944525 -0.42497152557213552 -0.11142075367810393 0.27621236970139768 1.0711167731256381 0.35545434124360131 -1.0819081703152456 -1.2873704218992126 1.3124142523255435 -1.249747961296412 -1.302056688186203 -1.2860528280799586 -1.2569041736406621 -1.1925783334410842 -0.9629412803966817 -1.2337688236106883 -1.1165616336664186 -0.86822869023792948 1.3230007995904687 1.288896812395161 -1.2965795352734348 -1.2766438409718788
internal_count=675191 632416 2554 2426 2305 121 219 78 134 110 74 50 128 52 85 629862 42775 2086 50517 579345 2055 559 84 475 126 52 26521 101 40411 349
shrinkage=0.05
has_categorical=0


Tree=17
num_leaves=31
split_feature=0 0 31 27 40 1 2 36 9 25 19 27 15 31 9 1 9 25 1 3 41 25 15 8 25 27 25 12 1 25
split_gain=45662.09245468743 46.337383908685297 142.08440179009199 33.242530013680962 16.225741722586129 9.0761707238811429 5.3780573061409136 4.8477959905947197 3.8375947290786039 7.9201634947854007 6.047739731569834 5.271345919254979 2.4723645344546128 2.2219297612027731 2.0563720913633006 1.7815437840161419 1.3361574159997645 3.0515583619161664 1.3637988602743008 1.3176221269917505 0.86479835783393355 0.75805183809279697 0.383251924119417 0.31920863651703257 0.29635520655324399 0.73842325211511195 0.28324712585526868 0.2248227897198376 0.2052227632557333 0.19089472638142979
threshold=63091 66854.5 9.9999996826552254e-21 550.5 1.5 1.5 553.5 4.5 8.5 31.5 24.5 1195.5 5.5 9.9999996826552254e-21 2.5 19.5 5.5 29.5 3.5 1990429 1.5 30.5 9.9999996826552254e-21 2017.5 50.5 1429.5 29.5 240 1.5 30.5
decision_type=0 0 0 0 0 0 0 0 0 0 0 0 0 0 0 0 0 0 0 0 0 0 0 0 0 0 0 0 0 0
default_value=0 0 0 0 0 0 0 1.7976931348623157e+308 0 1.7976931348623157e+308 1.7976931348623157e+308 0 0 0 0 1.7976931348623157e+308 0 -9.9999996826552254e-21 0 1.7976931348623157e+308 0 -9.9999996826552254e-21 0 0 -9.9999996826552254e-21 1.7976931348623157e+308 1.7976931348623157e+308 1.7976931348623157e+308 0 -9.9999996826552254e-21
left_child=14 2 3 -2 5 -5 8 -6 10 12 11 -7 22 21 23 -9 17 -4 -18 -8 27 26 -10 -1 -20 -26 -3 28 -16 -30
right_child=1 13 16 4 7 6 19 15 9 -11 -12 -13 -14 -15 20 -17 18 -19 24 -21 -22 -23 -24 -25 25 -27 -28 -29 29 -31
leaf_parent=23 3 26 17 5 7 11 19 15 22 9 10 11 12 13 28 15 18 17 24 19 20 21 22 23 25 25 26 27 29 29
leaf_value=0.063370911974976199 0.064936392995518455 -0.065187662174538683 -0.065222001367396046 0.033092489535281593 0.00099610361712618883 0.045416860409063863 -0.037943994596743656 0.070793812565580871 -0.051612738540926399 0.013449422745480114 -0.046730409657618828 -0.018916241102507583 -0.022065945518168886 -0.063400407249967802 0.064527295506992641 0.031600777378638548 -0.037926857329230734 -0.011274699971459535 -0.063486364084911956 -0.075030932783343773 0.064195984297590075 -0.065105785348488543 -0.070127015023673869 0.06541601585131504 -0.036140172389562152 -0.064167333682227587 -0.063904565923348144 0.065057039829638078 0.066481246924216975 0.065518619819838739
leaf_count=14962 109 2563 40 29 35 29 20 32 20 27 24 25 25 574532 1316 25 30 20 1930 32 7982 10463 40 1148 20 42 42304 5654 6990 4723
internal_value=0 -1.2680906624073978 -0.94718790306485712 0.11774907175562932 -0.16974721461971759 -0.43113118604975642 -0.57155868881219996 0.61862326790381372 -0.41388441698770623 -0.67958247731263211 -0.071486196754028286 0.30867312557799104 -1.0311153609315449 -1.2694563664719365 1.2926124306973155 1.0316210624294346 -1.2449587977948244 -0.90597664753370644 -1.256215713213602 -1.2224688297813908 1.3051168885192326 -1.2840290066952484 -1.2730066301935434 1.2705521797769905 -1.2643016017033568 -1.1005128342741557 -1.2796251482422465 1.3136918538484157 1.3189798118557741 1.3220081726516759
internal_count=675191 632416 2554 472 363 271 242 92 190 112 78 54 85 629862 42775 57 2082 60 2022 52 26665 55330 60 16110 1992 62 44867 18683 13029 11713
shrinkage=0.05
has_categorical=0


Tree=18
num_leaves=31
split_feature=0 0 31 27 40 1 2 36 9 25 16 3 36 27 31 1 9 9 25 1 3 25 25 25 27 8 25 9 9 36
split_gain=42848.222421241197 45.094289241125807 134.86553855029933 31.127725900782178 14.83185238850041 8.2877707521300223 5.060094457053216 4.5173741614357033 3.6353430512435772 5.3155016197163469 4.8638069248263545 2.9070652149708529 2.3618359727013072 2.4926421705806892 1.8355831133958418 1.7686996662924273 1.6951200066687306 1.3536737859785717 2.9535901479823288 1.3686304895921353 1.2746264395588014 0.71254303997829993 0.62404130116919987 0.30269338532923484 0.73123615122664276 0.26319039895588503 0.23340544346865499 0.14900309633958386 0.14282855821329576 0.12405369887051165
threshold=63091 66854.5 9.9999996826552254e-21 550.5 1.5 1.5 553.5 4.5 6.5 31.5 4.5 1045946.5 6.5 1210.5 9.9999996826552254e-21 19.5 2.5 5.5 29.5 3.5 1990429 7.5 30.5 50.5 1429.5 2017.5 29.5 8.5 8.5 1.5
decision_type=0 0 0 0 0 0 0 0 0 0 0 0 0 0 0 0 0 0 0 0 0 0 0 0 0 0 0 0 0 0
default_value=0 0 0 0 0 0 0 1.7976931348623157e+308 0 1.7976931348623157e+308 1.7976931348623157e+308 0 0 1.7976931348623157e+308 0 1.7976931348623157e+308 0 0 -9.9999996826552254e-21 0 1.7976931348623157e+308 -9.9999996826552254e-21 -9.9999996826552254e-21 -9.9999996826552254e-21 1.7976931348623157e+308 0 1.7976931348623157e+308 0 0 0
left_child=16 2 3 -2 5 -5 8 -6 10 11 -7 -10 13 -13 22 -9 25 18 -4 -19 -8 29 26 -21 -25 -1 -3 -28 -23 -18
right_child=1 14 17 4 7 6 20 15 9 -11 -12 12 -14 -15 -16 -17 21 19 -20 23 -22 28 -24 24 -26 -27 27 -29 -30 -31
leaf_parent=25 3 26 18 5 7 10 20 15 11 9 10 13 12 13 14 15 29 19 18 23 20 28 22 24 24 25 27 27 28 29
leaf_value=0.062549995195256239 0.064001274779808145 -0.064229882389104112 -0.064265623803096472 0.031575670616225925 0.00094641373354223098 -0.028197125418359139 -0.036592649084950656 0.069572260132691563 -0.003547226535143895 0.0079351374477016675 0.040762391297172587 -0.054087176267643415 -0.069038997748718453 -0.0068434593982421941 -0.062577198077073765 0.030156950634293647 0.062891284936350267 -0.036783666644720991 -0.010761285320548691 -0.062656939813890186 -0.073437624735777252 0.064359588506334539 -0.064153894686043017 -0.035041765935942652 -0.063288240831383707 0.064440257185613012 -0.063393013257285608 -0.06289022949014704 0.065005939490652281 0.064065502010035219
leaf_count=14962 109 2563 40 29 35 22 20 32 21 32 22 31 39 23 574532 25 5109 30 20 1930 32 10965 10463 20 42 1148 12758 29546 8785 1806
internal_value=0 -1.2515092951511455 -0.92985774982317027 0.11379900374357252 -0.16326535597206715 -0.41465466056734468 -0.55018022593038129 0.59467621393835646 -0.39733795856868603 -0.56533311168113509 0.12071944036339598 -0.79808483999678492 -0.96557941564098781 -0.67236614306537323 -1.2528854821977202 0.99937095583097524 1.2743122283816903 -1.2276046220416426 -0.88235468730641675 -1.2392160626892743 -1.1899202875519217 1.285862714601453 -1.2663742543205256 -1.2475360279610725 -1.0794277698121257 1.2539017536231569 -1.2623027929657764 -1.2608837797057104 1.2930198174231846 1.2641810065964569
internal_count=675191 632416 2554 472 363 271 242 92 190 146 44 114 93 54 629862 57 42775 2082 60 2022 52 26665 55330 1992 62 16110 44867 42304 19750 6915
shrinkage=0.05
has_categorical=0


Tree=19
num_leaves=31
split_feature=0 0 31 27 41 1 14 27 36 10 2 25 15 1 31 9 9 25 1 2 19 41 25 25 27 8 25 13 1 25
split_gain=40241.370344808194 44.008961937826825 128.20788486993234 29.173435328679609 13.551314060652702 7.5616134222550979 7.3048314548538897 4.7326617687221919 4.2118414479718913 3.8270190169044644 5.0044347274979604 4.2940771094318819 2.6553760705725011 1.7562990756218024 1.5200640833645593 1.4015137888764002 1.3724517095496935 2.8625108065189764 1.3764256148133427 1.3698134840630605 0.74903290841159986 0.5883027100826439 0.51522473272780189 0.30978105270742162 0.72582282920038921 0.21758618516923889 0.19288847546704346 0.1545612583440743 0.13265670676764785 0.13556780216640618
threshold=63091 66854.5 9.9999996826552254e-21 550.5 1.5 1.5 20161215.5 1505.5 4.5 11.5 368.5 30.5 38.5 19.5 9.9999996826552254e-21 2.5 5.5 29.5 3.5 228.5 12.5 1.5 30.5 50.5 1429.5 2017.5 29.5 240 1.5 30.5
decision_type=0 0 0 0 0 0 0 0 0 0 0 0 0 0 0 0 0 0 0 0 0 0 0 0 0 0 0 0 0 0
default_value=0 0 0 0 0 0 0 0 1.7976931348623157e+308 0 0 1.7976931348623157e+308 1.7976931348623157e+308 0 0 0 0 -9.9999996826552254e-21 0 1.7976931348623157e+308 0 0 -9.9999996826552254e-21 -9.9999996826552254e-21 1.7976931348623157e+308 0 1.7976931348623157e+308 1.7976931348623157e+308 0 -9.9999996826552254e-21
left_child=15 2 3 -2 5 -5 -7 9 -6 10 -8 19 20 -10 22 25 17 -4 -18 -11 -9 27 26 -20 -25 -1 -3 28 -17 -30
right_child=1 14 16 4 8 6 7 12 13 11 -12 -13 -14 -15 -16 21 18 -19 23 -21 -22 -23 -24 24 -26 -27 -28 -29 29 -31
leaf_parent=25 3 26 17 5 8 6 10 20 13 19 10 11 12 13 14 28 18 17 23 19 20 21 22 24 24 25 26 27 29 29
leaf_value=0.061789149994781162 0.063136803934902078 -0.063345248802880449 -0.063381914041095042 0.030135623095360116 0.00089919730488813516 0.019229899878981976 0.035916315291160836 -0.048521888737877654 0.06844275420698645 -0.074724539755682814 -0.032409549810812927 0.0036463869751494995 -0.021043666134649551 0.028784108523654074 -0.061814280748983402 0.062791378623000604 -0.035670481930599761 -0.010269569224773355 -0.061888376762981805 -0.039301386649024078 -0.074926452281157283 0.062496733844111557 -0.06327460258700511 -0.033970488729997327 -0.062474594425095488 0.063539441546587361 -0.062247490495571933 0.06324838728446848 0.064469713519387017 0.06362388082150916
leaf_count=14962 109 2563 40 29 35 32 23 20 32 20 27 20 20 25 574532 1259 30 20 1930 37 43 7982 10463 20 42 1148 42304 5920 6795 4709
internal_value=0 -1.2361407112920844 -0.91321896939154834 0.10993966635065321 -0.15691814259187034 -0.39842524562137249 -0.52901731862576551 -0.68529318576502574 0.5717443639856078 -0.42522374931285672 0.038144639502709021 -0.7322986182582385 -1.101814737073409 0.96851797836780884 -1.2375302465392684 1.2573937943612365 -1.2114068398453937 -0.85959746377809043 -1.2233958028929801 -1.0619661453177582 -1.3340213089772501 1.2680843663571588 -1.2500360495025966 -1.2319728859017161 -1.0592235882657324 1.2384744232269782 -1.2462649704424877 1.2754054065461209 1.2800990575190423 1.2826104789171575
internal_count=675191 632416 2554 472 363 271 242 210 92 127 50 77 83 57 629862 42775 2082 60 2022 57 63 26665 55330 1992 62 16110 44867 18683 12763 11504
shrinkage=0.05
has_categorical=0


Tree=20
num_leaves=31
split_feature=0 0 31 27 2 9 25 14 24 1 7 7 9 19 31 9 2 14 37 5 14 2 25 25 25 25 25 1 9 25
split_gain=37853.845165026039 43.285867751750629 121.67930012100999 28.776415122358774 22.300687564157311 15.85854877308903 7.0471764910751205 6.7517632515481374 2.1713943554832653 2.5757586758015485 3.698807495242872 3.9250865596008615 1.6057207258994026 1.5184683229634484 1.2600183939212002 1.1634556685639836 0.87053394852681976 0.82206514397129382 0.75657382079690194 0.68423538128871542 0.65974207838942434 0.99909143153985269 0.48975261926079838 0.42595711059402674 0.31384691626390548 0.15841420075048518 0.15358655650487663 0.11819810361402006 0.10450284836406354 0.097120600798916712
threshold=63091 66854.5 9.9999996826552254e-21 609.5 39.5 2.5 199.5 20161208.5 5.1500000000000004 22.5 19.5 11.5 4.5 23.5 9.9999996826552254e-21 2.5 377.5 20170122.5 9.9999996826552254e-21 2015.5 20170123.5 371.5 7.5 30.5 30.5 29.5 55.5 3.5 8.5 30.5
decision_type=0 0 0 0 0 0 0 0 0 0 0 0 0 0 0 0 0 0 0 0 0 0 0 0 0 0 0 0 0 0
default_value=0 0 0 0 0 0 -9.9999996826552254e-21 0 1.7976931348623157e+308 0 0 1.7976931348623157e+308 0 1.7976931348623157e+308 0 0 1.7976931348623157e+308 0 0 0 0 1.7976931348623157e+308 -9.9999996826552254e-21 -9.9999996826552254e-21 1.7976931348623157e+308 1.7976931348623157e+308 -9.9999996826552254e-21 0 0 -9.9999996826552254e-21
left_child=15 2 3 18 24 -6 7 -7 9 10 11 17 -4 -11 23 -1 -12 -9 -2 26 -10 -22 -17 25 -5 -3 27 -14 -27 -24
right_child=1 14 12 4 5 6 -8 8 20 13 16 -13 19 -15 -16 22 -18 -19 -20 -21 21 -23 29 -25 -26 28 -28 -29 -30 -31
leaf_parent=15 18 25 12 24 5 7 6 17 20 13 16 11 27 13 14 22 16 17 18 19 21 21 29 23 24 28 26 27 28 29
leaf_value=0.061204863406924714 0.03717959478791294 -0.062518829245168023 -0.035190717630989542 0.048774238418981986 0.042771995867114228 0.0047939267493647061 0.025443306658758238 -0.048601178496819677 -0.071092699330678133 -0.080271647632050649 -0.038135790513570356 0.017788166099140666 -0.053220295718163002 -0.036472195419508635 -0.061106113524134489 0.061645079853034246 -0.070222844775872303 -0.018148517001966746 0.06305630958499131 -0.041235589200563333 -0.033023435942824919 -0.068208386737947727 0.063167196418240215 -0.062461694489910936 0.066605130410862218 -0.061812488299394446 -0.0517737499718963 -0.061185385797190107 -0.061374341479431341 0.062616345884995053
leaf_count=16195 20 2583 35 20 39 39 22 20 31 20 21 29 28 20 574618 6926 21 20 99 27 20 21 9529 10438 35 12707 28 1976 29424 10180
internal_value=0 -1.2218548561895133 -0.8990577240235289 0.070479900372928506 -0.19535379829944721 -0.39882338979209719 -0.58159135099395309 -0.6886222698275255 -0.84514925979269029 -0.69978137051369327 -0.53495939207488918 -0.24080330333132594 -1.2024980090864692 -1.1927965046178091 -1.2232761271455985 1.2416108009004532 -1.0642719640816563 -0.67168046403645099 1.1684625751839082 -1.2127196890617375 -1.171019499041158 -0.98501075781404057 1.2515569302725083 -1.2349011399055116 1.1855009070308604 -1.2313972912781692 -1.2184325575335275 -1.2211921177531428 -1.2301726593840177 1.2577196612538057
internal_count=675191 632361 2591 497 378 323 284 262 223 151 111 69 2094 40 629770 42830 42 40 119 2059 72 41 26635 55152 55 44714 2032 2004 42131 19709
shrinkage=0.05
has_categorical=0


Tree=21
num_leaves=31
split_feature=0 0 31 27 2 9 26 7 15 1 14 7 12 18 9 31 9 37 6 5 6 41 19 9 26 1 12 1 9 36
split_gain=35604.023819265771 42.304170476068975 115.89703432507326 26.883243500712322 20.578613018116151 14.494446838501808 6.4106149812764812 3.605882570344058 4.3370284153805994 3.0815264770432371 3.0229481373883171 2.3728849571989894 4.0482841165484951 3.8743802998406669 1.6328706505809123 1.0482376467261929 0.96631485332727607 0.75987334277595053 0.73223616865827346 0.69592242836745299 0.44570035700613708 0.40718639687838731 0.29513850031560196 0.29168124165609832 0.2479087207957491 0.12138378159363583 0.10702221713108884 0.098672672486827651 0.088620994883967796 0.084390355067625933
threshold=63091 66854.5 9.9999996826552254e-21 609.5 39.5 2.5 1.5 11.5 4.5 22.5 20161216.5 20.5 165 9.9999996826552254e-21 4.5 9.9999996826552254e-21 2.5 9.9999996826552254e-21 7.5 2015.5 4.5 1.5 30.5 7.5 1.5 3.5 240 1.5 8.5 2.5
decision_type=0 0 0 0 0 0 0 0 0 0 0 0 0 0 0 0 0 0 0 0 0 0 0 0 0 0 0 0 0 0
default_value=0 0 0 0 0 0 1.7976931348623157e+308 1.7976931348623157e+308 1.7976931348623157e+308 0 0 0 0 0 0 0 0 0 0 0 1.7976931348623157e+308 0 1.7976931348623157e+308 1.7976931348623157e+308 1.7976931348623157e+308 0 1.7976931348623157e+308 0 0 0
left_child=16 2 3 17 23 -6 9 -8 -9 10 -7 12 13 -12 -4 24 -1 -2 -13 25 -14 26 -11 -5 28 -16 27 -18 -3 -23
right_child=1 15 14 4 5 6 7 8 -10 22 11 18 20 -15 19 -17 21 -19 -20 -21 -22 29 -24 -25 -26 -27 -28 -29 -30 -31
leaf_parent=16 17 28 14 23 5 10 7 8 8 22 13 18 20 13 25 15 27 17 18 19 20 29 22 23 24 25 26 27 28 29
leaf_value=0.06054000783888 0.036042122926275739 -0.061176813418194004 -0.034052710027077854 0.048264768211503523 0.041085253860499757 0.0060855239439211841 -0.032074133785016501 -0.014896614584676891 0.048829673574314628 -0.070695275760249643 0.017868980356685063 -0.071633962504048104 -0.044610434054843426 -0.038086652676120145 -0.052177431224504411 -0.060447784080181088 0.061256940175848353 0.062274894110687831 -0.042317590576176532 -0.040149816003680533 -0.068771490002956001 0.060696828208003054 -0.052287407195792203 0.065505678110313506 -0.061588120860754061 -0.060373604491315652 0.061669626803983114 0.062443166089073188 -0.060778515185768336 0.06156366524816375
leaf_count=16195 20 13618 35 21 39 20 26 23 21 31 29 25 20 29 28 574618 1292 99 20 27 20 4995 20 34 10860 2004 5702 11628 30674 3018
internal_value=0 -1.2085921565950912 -0.88408998631362257 0.06822470603593106 -0.18833256922660682 -0.38377417114569767 -0.55968067890109063 -0.039931871301085636 0.31315688833531224 -0.76645729652132821 -0.62469076456065786 -0.74601487471674299 -0.55645243241203235 -0.20308737222464435 -1.188362762779563 -1.2100293677160558 1.2270820786539129 1.1501523497613646 -1.1819512342025034 -1.1989812607800328 -1.1289181364584846 1.2363167905997436 -1.2758406385752108 1.156645607769341 -1.2208401380126999 -1.2049004479379204 1.2426596862754893 1.2466168995076476 -1.2180581533006678 1.2206624862977655
internal_count=675191 632361 2591 497 378 323 284 70 44 214 163 143 98 58 2094 629770 42830 119 45 2059 40 26635 51 55 55152 2032 18622 12920 44292 8013
shrinkage=0.05
has_categorical=0


Tree=22
num_leaves=31
split_feature=0 0 31 27 2 26 18 3 10 1 14 38 21 10 30 5 31 25 19 41 29 25 2 30 25 1 3 7 2 39
split_gain=33510.287923604759 41.391784287625342 110.46639269194822 25.195081907368955 21.420637970170318 9.4973673084343329 5.097259286143454 4.0441593016247133 5.1070095843239312 3.2788628591820945 3.109077030839952 2.6010694890780819 6.9428748020400901 2.1316742709756653 2.0045171340939767 1.5639197031796925 0.87418368116777856 0.83536821327737698 0.645758316703402 0.48845138673641486 0.44795007473867088 0.29800399016494339 0.27255925578328011 0.12870577131616301 0.11075953386898618 0.10992946877831855 0.10644805863756801 0.43673205230018652 0.64136793971017436 0.091928333868054324
threshold=63091 66854.5 9.9999996826552254e-21 658.5 39.5 1.5 1.5 3806525.5 10.5 22.5 20161215.5 3.5 6462.9675000000007 11.5 14.5 2015.5 9.9999996826552254e-21 59.5 33.5 1.5 1220.5 30.5 318.5 5.5 29.5 3.5 4591975.5 6.5 321.5 32.5
decision_type=0 0 0 0 0 0 0 0 0 0 0 0 0 0 0 0 0 0 0 0 0 0 0 0 0 0 0 0 0 0
default_value=0 0 0 0 0 1.7976931348623157e+308 1.7976931348623157e+308 1.7976931348623157e+308 1.7976931348623157e+308 0 0 0 0 0 -9.9999996826552254e-21 0 0 -9.9999996826552254e-21 0 0 -9.9999996826552254e-21 -9.9999996826552254e-21 0 -9.9999996826552254e-21 1.7976931348623157e+308 0 0 0 1.7976931348623157e+308 0
left_child=19 2 3 14 20 9 -7 8 -8 10 -6 13 -13 -12 -2 17 21 25 -11 23 -5 24 -15 -1 -3 -4 -27 28 -28 -25
right_child=1 16 15 4 5 6 7 -9 -10 18 11 12 -14 22 -16 -17 -18 -19 -20 -21 -22 -23 -24 29 -26 26 27 -29 -30 -31
leaf_parent=23 14 24 25 20 10 6 8 7 8 18 13 12 12 22 14 15 16 17 18 19 20 21 22 29 24 26 28 27 28 29
leaf_value=0.060071911136608647 0.062106445229654306 -0.061060377670718195 -0.051988237629364623 0.072497439350997936 0.011137120773517022 -0.037098339191514916 0.00022209479332716133 -0.020751265285174268 0.063219209789397379 -0.069702614756302378 -0.025871891312407844 0.01238925434013579 -0.060997996028984897 -0.07150411056811988 0.02432122567195711 -0.029438103154864004 -0.059834955380748345 -0.034698144182303513 -0.042545937457055163 0.060102612053051112 0.050611369822523115 -0.061011200430362345 -0.053523259504267312 0.061051403968943423 -0.060182595402136919 -0.059969330653536573 -0.028114892801083109 -0.060042886879210722 -0.059883552300000156 0.06222918699085072
leaf_count=2344 103 2583 30 22 20 22 26 20 29 33 34 39 28 23 24 28 574618 21 20 16523 32 10438 22 22857 42131 1808 20 162 25 1106
internal_value=0 -1.1962449573381868 -0.86977094060489424 0.066064541412503397 -0.19818931433106332 -0.40002147046661668 0.12031561281239272 0.37861756973852678 0.66797767741869585 -0.67723627473958814 -0.53034704846005531 -0.653621487257945 -0.33325215498627958 -0.93573705444492172 1.0685714155112176 -1.1750834888948889 -1.1976997065617569 -1.1842333973849648 -1.1968797053050901 1.2135789713669058 1.2118856162113989 -1.2077689340870712 -1.2687453427674615 1.2204363232298954 -1.2047181601945651 -1.1901695537270676 -1.1927467198391335 -1.1352497214062489 -0.90464218457604872 1.2221848201871823
internal_count=675191 632361 2591 497 370 316 97 75 55 219 166 146 67 79 127 2094 629770 2066 53 42830 54 55152 45 26307 44714 2045 2015 207 45 23963
shrinkage=0.05
has_categorical=0


Tree=23
num_leaves=31
split_feature=0 0 31 27 2 9 14 25 12 9 18 27 19 9 25 3 36 1 31 9 25 14 25 3 25 25 1 8 25 1
split_gain=31559.248924719883 40.63770542354905 105.45872801787294 23.617575361572104 16.914172908936358 12.240075870337552 6.842832398543095 5.3752635034032821 3.6383452972971249 3.6774303507730579 2.7882322464854319 2.6305937664164745 2.0465509333226342 1.7579630639867787 2.7130491057988841 1.5109961274961883 1.0404230565812789 0.76154402542907107 0.73023431703040842 0.68051084502621961 0.41852349074916617 0.33030819192831551 0.31984179690772407 0.87690070836755041 0.28232421504435479 0.24828364974018768 0.1420350377552495 0.10784874177397796 0.092351573837731848 0.062937021337347687
threshold=63091 66854.5 9.9999996826552254e-21 550.5 39.5 2.5 20161202.5 123.5 165 8.5 9.9999996826552254e-21 1275.5 11.5 5.5 29.5 3217418.5 11.5 9.5 9.9999996826552254e-21 2.5 30.5 20170127.5 50.5 2032129 7.5 30.5 3.5 2017.5 29.5 1.5
decision_type=0 0 0 0 0 0 0 0 0 0 0 0 0 0 0 0 0 0 0 0 0 0 0 0 0 0 0 0 0 0
default_value=0 0 0 0 0 0 0 -9.9999996826552254e-21 1.7976931348623157e+308 0 0 0 0 0 -9.9999996826552254e-21 1.7976931348623157e+308 0 0 0 0 1.7976931348623157e+308 0 -9.9999996826552254e-21 1.7976931348623157e+308 -9.9999996826552254e-21 -9.9999996826552254e-21 0 0 1.7976931348623157e+308 0
left_child=19 2 3 -2 20 -6 12 8 9 11 15 -8 -7 14 -4 -11 17 -10 25 27 -5 -12 26 -24 -21 28 -15 -1 -3 -30
right_child=1 18 13 4 5 6 7 -9 16 10 21 -13 -14 22 -16 -17 -18 -19 -20 24 -22 -23 23 -25 -26 -27 -28 -29 29 -31
leaf_parent=27 3 28 14 20 5 12 11 7 17 15 21 11 12 26 14 15 16 17 18 24 20 21 23 23 24 25 26 27 29 29
leaf_value=0.059237749153776199 0.060203858521403655 -0.060405614720567796 -0.060846055523064116 0.042666702449601059 0.039400361238568757 0.038234056794038754 0.019900443549030533 0.006118192585984744 -0.084509478461022192 -0.040646590749817996 -0.072723144974017453 -0.029802101448984365 -0.0081794183771477565 -0.050180442858106147 -0.0058752008201404032 -0.00064437939672108756 -0.040271627814025004 -0.05608736522998832 -0.059263745737877231 0.059701813213082905 0.06400147935598012 -0.052418434326311353 -0.027108160985380228 -0.059954170800927353 0.060701157037701403 -0.060359621228205707 -0.059332773410729338 0.060576266438182071 -0.061047681372438267 -0.059569114547206363
leaf_count=15064 109 2583 35 20 39 20 23 33 20 30 24 25 21 28 21 20 26 31 574618 6926 35 21 20 48 19709 10438 1942 1131 492 41639
internal_value=0 -1.184732559464289 -0.85571037941943806 0.063916340459318419 -0.15762765589329375 -0.3295003979475245 -0.48853718784288042 -0.63428325575368649 -0.774166057550846 -0.56776936919386722 -0.84471956958535177 -0.10250681927194967 0.29019562845761881 -1.162567244520905 -0.73017947227613789 -0.48403812950184583 -1.1854393756401331 -1.3766014401237434 -1.1862084272970908 1.2010225541030921 1.0994190451972896 -1.2768260593163399 -1.1770767094596715 -0.99730717114724132 1.209073099505571 -1.1955976420064904 -1.1836391961375237 1.1867873688693267 -1.1927554919954366 -1.1917616500823343
internal_count=675191 632361 2591 497 388 333 294 253 220 143 95 48 41 2094 56 50 77 51 629770 42830 55 45 2038 68 26635 55152 1970 16195 44714 42131
shrinkage=0.05
has_categorical=0


Tree=24
num_leaves=31
split_feature=0 0 31 27 2 9 25 25 6 15 1 36 19 4 9 37 5 2 31 9 25 41 25 25 1 8 25 12 1 25
split_gain=29739.01545696643 39.884889904147713 100.71882855231979 22.209093542996136 16.153789991804249 11.783373361324646 5.6182526671981865 5.5592033816705211 3.4346842553741332 3.6925760660233706 4.8293189189491468 2.5030491109724053 2.2426756198911697 2.0892370797675586 1.7863453867969952 0.79017440382895288 0.74676251584736519 0.65223002139965658 0.61097292679187376 0.56890277322145266 0.43860630498313213 0.2359337143607263 0.20728220690580201 0.17879473340258301 0.15040366251633941 0.090123682601188193 0.077157156862085685 0.063974086943744624 0.059067664303711354 0.057746427943584422
threshold=63091 66854.5 9.9999996826552254e-21 609.5 39.5 2.5 199.5 29.5 1.5 5.5 15.5 11.5 22.5 23.5 4.5 9.9999996826552254e-21 2015.5 327.5 9.9999996826552254e-21 2.5 30.5 1.5 30.5 55.5 3.5 2017.5 29.5 240 1.5 30.5
decision_type=0 0 0 0 0 0 0 0 0 0 0 0 0 0 0 0 0 0 0 0 0 0 0 0 0 0 0 0 0 0
default_value=0 0 0 0 0 0 -9.9999996826552254e-21 1.7976931348623157e+308 0 1.7976931348623157e+308 0 0 1.7976931348623157e+308 1.7976931348623157e+308 0 0 0 0 0 0 1.7976931348623157e+308 0 -9.9999996826552254e-21 -9.9999996826552254e-21 0 0 1.7976931348623157e+308 1.7976931348623157e+308 0 -9.9999996826552254e-21
left_child=19 2 3 15 20 -6 7 -7 -9 13 11 -11 -12 -10 -4 -2 23 -15 22 25 -5 27 26 24 -16 -1 -3 28 -21 -30
right_child=1 18 14 4 5 6 -8 8 9 10 12 -13 -14 17 16 -17 -18 -19 -20 21 -22 -23 -24 -25 -26 -27 -28 -29 29 -31
leaf_parent=25 15 26 14 20 5 7 6 8 13 11 12 11 12 17 24 15 16 17 18 28 20 21 22 23 24 25 26 27 29 29
leaf_value=0.058706487199211212 0.032574934935969267 -0.059796009036819787 -0.03008131980359819 0.041093003151185983 0.037868238400800065 0.015088928510344211 0.023448592678565583 -0.071977160819314892 -0.026679583569384949 0.020881167813159449 -0.021344396156167192 -0.025516948416722529 -0.064712453010490709 -0.076378705274250336 -0.049234159409282774 0.060453208217001057 -0.036845385675936919 -0.050630504899908862 -0.058730700293402209 0.059376208522311659 0.063194071976986704 0.059208138700601681 -0.059752946851990944 -0.047969136970582908 -0.058800887329381581 0.059954823717558642 -0.059033593783652083 0.059716536924850808 0.060591465132090828 0.059986924648214451
leaf_count=15064 20 2583 35 20 39 25 22 30 33 35 33 22 34 24 28 99 27 26 574618 1292 35 8013 10438 28 1976 1131 42131 5702 6888 4740
internal_value=0 -1.1739883922309484 -0.84235846870831554 0.061898157979007613 -0.16999298202804822 -0.34280057504088124 -0.50515279296391735 -0.60547862031577193 -0.72304415651646381 -0.61915088827940445 -0.37407199566316368 0.065189242296820035 -0.8257296944360647 -0.99304249892902852 -1.1508722839753458 1.1047108673553803 -1.1629543491161554 -1.2780359698349062 -1.1754858551451799 1.1893159416439611 1.0741612783089931 1.196823235688528 -1.1842505857108463 -1.169608885133278 -1.1728882620465564 1.1760274262421597 -1.1815993881071736 1.2019372467971987 1.2051775611364353 1.2070158224629941
internal_count=675191 632361 2591 497 378 323 284 262 237 207 124 57 67 83 2094 119 2059 50 629770 42830 55 26635 55152 2032 2004 16195 44714 18622 12920 11628
shrinkage=0.05
has_categorical=0


Tree=25
num_leaves=31
split_feature=0 0 31 27 2 9 14 25 29 29 26 4 27 4 10 39 5 9 25 9 1 15 31 9 25 28 25 8 25 1
split_gain=28087.996427128091 35.718068832837162 91.754479133249987 20.17191756550266 10.117731039039302 7.6716883750824136 6.0379991969277587 5.0519734522736979 4.0191960357086698 3.5631596212048651 3.6367084948834334 2.4721747474159166 2.2628326774080634 2.5596934086665373 2.0716648453321334 1.8782836276597497 1.5797778986654976 1.4588257600122849 0.81306054914739434 0.66405515526031422 0.67555030502819591 0.6462947350445134 0.51063937332946807 0.47781328183191363 0.19852181166788796 0.1888775663888751 0.17328344852830924 0.077220929969371355 0.063729508262440504 0.045846314725167758
threshold=63091 66854.5 9.9999996826552254e-21 674.5 51.5 8.5 20170107.5 31.5 1220.5 939.5 4.5 21.5 1358.5 18.5 21.5 33.5 2015.5 9.5 61.5 3.5 3.5 5.5 9.9999996826552254e-21 2.5 7.5 15.5 30.5 2017.5 29.5 1.5
decision_type=0 0 0 0 0 0 0 0 0 0 0 0 0 0 0 0 0 0 0 0 0 0 0 0 0 0 0 0 0 0
default_value=0 0 0 0 0 0 1.7976931348623157e+308 -9.9999996826552254e-21 -9.9999996826552254e-21 -9.9999996826552254e-21 1.7976931348623157e+308 -9.9999996826552254e-21 1.7976931348623157e+308 -9.9999996826552254e-21 1.7976931348623157e+308 0 0 0 -9.9999996826552254e-21 0 0 0 0 0 -9.9999996826552254e-21 0 -9.9999996826552254e-21 0 1.7976931348623157e+308 0
left_child=23 2 3 14 8 6 11 12 -5 -8 -11 -6 21 -14 25 -10 18 -15 19 -4 -21 -7 26 27 -25 -2 28 -1 -3 -30
right_child=1 22 16 4 5 7 9 -9 15 10 -12 -13 13 17 -16 -17 -18 -19 -20 20 -22 -23 -24 24 -26 -27 -28 -29 29 -31
leaf_parent=27 25 28 19 8 11 21 9 7 15 10 10 11 13 17 14 15 16 17 18 20 20 21 22 24 24 25 26 27 29 29
leaf_value=0.058210956554381965 0.059009987487755988 -0.059223458276992394 -0.036662656669556336 0.074199967749761106 0.00666865711395932 -0.06915912242010723 0.017316293093512704 0.0056854732797982036 -0.010264511696212775 -0.060265850454986919 -0.0023980789772877634 0.055653543662417586 -0.061509258621715246 -0.031374340040013826 0.022230516151766265 0.043597444930008417 -0.027173238599039463 0.0065384392387295605 -0.032598194561304986 -0.039047823237901513 -0.058330159203067569 -0.044821867424274749 -0.058232621893825734 0.058614518098914964 0.059488152919254536 0.072640304493929331 -0.059189175271248853 0.059382300731439769 -0.059796244705521244 -0.058499058530611242
leaf_count=15071 65 2583 23 22 22 39 22 30 21 28 22 24 24 39 28 20 30 22 21 32 2062 27 574604 6904 19775 20 10359 1147 504 41601
internal_value=0 -1.1640007024849348 -0.84750632145316596 0.044187138921052485 -0.18557839206689436 -0.34595736010756883 0.055883524992819622 -0.66368411002717576 0.70395407111854547 -0.32535514141240479 -0.65299325964369304 0.65282382401526584 -0.85735063527458932 -0.60680206458657893 1.0523296776544706 0.22834436394464858 -1.1374151547249853 -0.3400389178625432 -1.1473452031511435 -1.1535752248493578 -1.1596475629840224 -1.1935525040354815 -1.1654657599240035 1.1784523403920524 1.1854642101015924 1.2632311336961508 -1.1736539922525546 1.1660248967411604 -1.1711847603683712 -1.1703235077878429
internal_count=675191 632294 2643 475 362 299 118 181 63 72 50 46 151 85 113 41 2168 61 2138 2117 2094 66 629651 42897 26679 85 55047 16218 44688 42105
shrinkage=0.05
has_categorical=0


Tree=26
num_leaves=31
split_feature=0 0 31 27 2 9 14 25 29 29 14 18 27 4 10 39 5 9 25 9 1 10 31 9 41 25 30 8 25 12
split_gain=26495.554147927411 35.30252233594365 87.902942378761196 18.780508558708931 9.2824500581827021 7.0725385814441424 5.4822467694932309 4.7180287897611883 3.8032981609399581 3.2521172927329944 3.2247398181139415 2.4078283289843587 2.19280323172935 2.4171255474553863 2.0436148896308239 1.7463946337871867 1.5912891844453725 1.3444742037762873 0.82969500502468918 0.68531625506830096 0.69260627866259483 0.60487026762682916 0.42860768585524056 0.40077137493699411 0.16662842119512788 0.14516640971487504 0.14494122723945679 0.064745022211809555 0.05342452056993352 0.044803525725910731
threshold=63091 66854.5 9.9999996826552254e-21 674.5 51.5 8.5 20170107.5 31.5 1220.5 939.5 20170204.5 9.9999996826552254e-21 1358.5 18.5 21.5 33.5 2015.5 9.5 61.5 3.5 3.5 6.5 9.9999996826552254e-21 2.5 1.5 30.5 13.5 2017.5 29.5 240
decision_type=0 0 0 0 0 0 0 0 0 0 0 0 0 0 0 0 0 0 0 0 0 0 0 0 0 0 0 0 0 0
default_value=0 0 0 0 0 0 1.7976931348623157e+308 -9.9999996826552254e-21 -9.9999996826552254e-21 -9.9999996826552254e-21 0 0 0 -9.9999996826552254e-21 0 0 0 0 -9.9999996826552254e-21 0 0 0 0 0 0 -9.9999996826552254e-21 -9.9999996826552254e-21 0 1.7976931348623157e+308 1.7976931348623157e+308
left_child=23 2 3 14 8 6 11 12 -5 -8 -11 -6 21 -14 26 -10 18 -15 19 -4 -21 -7 25 27 29 28 -2 -1 -3 -25
right_child=1 22 16 4 5 7 9 -9 15 10 -12 -13 13 17 -16 -17 -18 -19 -20 20 -22 -23 -24 24 -26 -27 -28 -29 -30 -31
leaf_parent=27 26 28 19 8 11 21 9 7 15 10 10 11 13 17 14 15 16 17 18 20 20 21 22 29 24 25 26 27 28 29
leaf_value=0.057746690003692175 0.058603191083473005 -0.058693350455918281 -0.035601873658787843 0.072738941082755124 0.054003897984208828 -0.041063262799728439 0.016455858733588683 0.0053940004851508365 -0.0097290631136222328 -0.057440881389439015 -0.0026479884533095865 0.005561726482342863 -0.059999326457241833 -0.030280676231236665 0.021375296647790424 0.042622255340666042 -0.02627892551892182 0.006196759440328329 -0.031591461807476719 -0.038080531682597583 -0.057858712571968153 -0.066262654926425871 -0.057766911874719808 0.059101801745797579 0.05818392221229516 -0.058661166213717669 0.070653050252178995 0.058841553456376844 -0.05803226691640926 0.05862742485764473
leaf_count=15071 64 2583 23 22 25 20 22 30 21 26 24 21 24 39 28 20 30 22 21 32 2062 46 574604 13071 7987 10359 21 1147 42105 5621
internal_value=0 -1.1546063672476405 -0.83445661833122264 0.042695313077297063 -0.17871143461836483 -0.33284975624260421 0.053335825609994801 -0.64124384902967679 0.68124555894250027 -0.31157847984537806 -0.62738299431398326 0.62312014344417688 -0.83199174379573271 -0.58478908919438721 1.0325593241043474 0.21931758053801986 -1.1267707602970023 -0.32599737401936374 -1.1370644193443062 -1.143560209868256 -1.1499229266148734 -1.1690572390863698 -1.1560993998571025 1.1682490260253759 1.1748024944739939 -1.1637592454476495 1.2481921022424991 1.1566233938695805 -1.1614508408798634 1.1792552930455544
internal_count=675191 632294 2643 475 362 299 118 181 63 72 50 46 151 85 113 41 2168 61 2138 2117 2094 66 629651 42897 26679 55047 85 16218 44688 18692
shrinkage=0.05
has_categorical=0


Tree=27
num_leaves=31
split_feature=0 0 31 27 2 25 9 25 15 29 4 17 10 17 9 27 4 1 15 1 31 9 25 25 30 25 12 8 25 9
split_gain=25005.150279617112 34.955588394310325 84.290127278732712 17.489028213376873 8.5140166556767429 6.7368537348261457 5.9989380450989156 5.9317921321817124 5.7575089012514047 3.6057211782497349 2.8611314322331847 2.546613215094641 2.0185765347258613 2.0100427179109488 1.4290288356028782 1.1175643464970904 1.0758480187455213 0.96539437188463939 0.83244883617508636 0.69594181771083186 0.36033157890778966 0.33661131193184701 0.27186552245223083 0.13963614428394067 0.1232483301951568 0.12178513276921876 0.071250848672537614 0.054365845035135862 0.044848975516288192 0.033209882222763554
threshold=63091 66854.5 9.9999996826552254e-21 674.5 51.5 29.5 8.5 31.5 2.5 1220.5 20.5 8.5 21.5 1.5 4.5 609.5 29.5 16.5 1.5 3.5 9.9999996826552254e-21 2.5 59.5 7.5 13.5 30.5 149.5 2017.5 29.5 8.5
decision_type=0 0 0 0 0 0 0 0 0 0 0 0 0 0 0 0 0 0 0 0 0 0 0 0 0 0 0 0 0 0
default_value=0 0 0 0 0 1.7976931348623157e+308 0 -9.9999996826552254e-21 0 -9.9999996826552254e-21 -9.9999996826552254e-21 1.7976931348623157e+308 0 0 0 0 1.7976931348623157e+308 1.7976931348623157e+308 0 0 0 0 -9.9999996826552254e-21 -9.9999996826552254e-21 -9.9999996826552254e-21 -9.9999996826552254e-21 1.7976931348623157e+308 0 1.7976931348623157e+308 0
left_child=21 2 3 12 9 -6 8 13 10 -5 -7 -10 24 16 18 -16 17 -8 -4 -17 25 27 -21 -23 -2 28 -18 -1 -3 -30
right_child=1 20 14 4 5 6 7 -9 11 -11 -12 -13 -14 -15 15 19 26 -19 -20 22 -22 23 -24 -25 -26 -27 -28 -29 29 -31
leaf_parent=27 24 28 18 9 5 10 17 7 11 9 10 11 12 13 15 19 26 17 18 22 20 23 22 23 24 25 26 27 29 29
leaf_value=0.057312066895383706 0.058116697081895978 -0.05819804238486781 -0.013732131745179295 0.071389120277919063 0.030169289027381002 -0.0027215831303218276 -0.029328120909951412 0.0051178848879369944 -0.0050318642532864444 0.010530240805803594 0.046451444466903441 -0.057077383766043016 0.020545689602516626 -0.022981817819416061 -0.025191037594224364 -0.037128872900653205 -0.073919883330738137 -0.061137619612673257 -0.04927936782835652 -0.057395273382134883 -0.05733095209903763 0.057665694143206485 -0.041521368262496312 0.058429729836721234 0.069428914007612613 -0.058167801431301652 -0.064627080546769966 0.058336467787820478 -0.05777791737370247 -0.057492504054365429
leaf_count=15071 64 2583 20 22 31 27 27 30 22 41 26 20 28 37 20 32 23 33 23 2053 574604 6904 20 19775 21 10359 23 1147 12602 29503
internal_value=0 -1.1458085441174692 -0.8216566811457382 0.041259701215401172 -0.17198249422541628 -0.32000298674746208 -0.44423277808512568 -0.72819050420434384 -0.036108427378335146 0.65941003769030704 0.42790720408276184 -0.62033020289229979 1.0134750416436489 -0.96215933057599157 -1.1166586364351314 -1.1293043523904991 -1.1301070270803764 -0.90102887948293564 -0.65870270709606482 -1.1367450299033712 -1.1473321101451417 1.1587090136294573 -1.1441852149993412 1.1648398965481412 1.2342383096112111 -1.1545051118587537 -1.393203975495418 1.1478237102875162 -1.1523450546768677 -1.1515910042824509
internal_count=675191 632294 2643 475 362 299 268 173 95 63 53 42 113 143 2168 2125 106 60 43 2105 629651 42897 2073 26679 85 55047 46 16218 44688 42105
shrinkage=0.05
has_categorical=0


Tree=28
num_leaves=31
split_feature=0 0 26 40 27 2 3 9 21 20 2 2 5 5 3 1 27 1 9 27 9 40 6 4 29 14 25 25 25 8
split_gain=23608.971313753325 34.676182079230784 48.531921371794255 36.727947297583682 12.137362970987981 7.6861007596387836 5.3474291117019224 4.8857318051782421 4.3451343093296817 2.6649157760071258 2.6011526000817415 4.0673026546011757 2.2340570742935029 1.3388218057103707 1.0403958875681649 1.3036234411188623 0.64030438020892433 0.60478157892259787 0.40219345235021819 1.8336238705236534 0.28315176692649402 0.23519424346159212 0.1924034386272524 0.18178195887600168 0.79460982972803507 0.23218566850705358 0.11722649318653566 0.11503613358672737 0.073404251947067678 0.045714777580997179
threshold=63091 66854.5 3.5 1.5 550.5 297.5 2333127.5 3.5 1108.4929999999999 18.5 264.5 134.5 2015.5 2014.5 2556661 8.5 2347.5 3.5 5.5 1766.5 2.5 1.5 5.5 25.5 3493.5 20170223.5 7.5 30.5 26.5 2017.5
decision_type=0 0 0 0 0 0 0 0 0 0 0 0 0 0 0 0 0 0 0 0 0 0 0 0 0 0 0 0 0 0
default_value=0 0 1.7976931348623157e+308 0 0 0 0 0 0 1.7976931348623157e+308 0 1.7976931348623157e+308 0 1.7976931348623157e+308 0 0 0 0 0 0 0 0 1.7976931348623157e+308 1.7976931348623157e+308 -9.9999996826552254e-21 1.7976931348623157e+308 -9.9999996826552254e-21 -9.9999996826552254e-21 -9.9999996826552254e-21 0
left_child=20 2 3 4 -2 9 -7 -6 -9 14 11 -10 17 16 -4 -16 22 -5 19 -19 29 27 -12 24 25 -20 -22 -3 -23 -1
right_child=1 21 5 12 7 6 -8 8 10 -11 13 -13 -14 -15 15 -17 -18 18 23 -21 26 28 -24 -25 -26 -27 -28 -29 -30 -31
leaf_parent=29 4 27 14 17 7 6 6 8 11 9 22 11 12 13 15 15 16 19 25 19 26 28 22 23 24 25 26 27 28 29
leaf_value=0.056904828780244013 0.058382306453657988 -0.057150822026214958 0.071064456535091358 -0.037671953617369192 0.031062864285508654 0.030152082270485266 -0.033601162612617343 0.013776241641123189 -0.036895592242442737 0.010432888827796683 -0.049236524578592018 0.01772596763972039 -0.019651424333829239 -0.023696136727468269 0.06227343522939513 0.02001848839701606 -0.032911919947565538 -0.063063175664517954 -0.057101761290219682 -0.015807765476827971 0.057236669473785286 -0.057534037112232705 -0.064430710135153932 -0.057009721490326071 -0.027923343399501661 -0.040753759289821584 0.057951767497987139 -0.057710997857279595 -0.056923064526830242 0.057864203774030891
leaf_count=15071 50 40222 35 34 22 24 38 34 39 27 21 27 32 37 29 26 20 40 212 20 6904 4370 38 1793 24 21 19775 10005 575054 1147
internal_value=0 -1.1375614911697189 -0.80905708038187008 -0.9372775962830221 -0.15726819855702334 0.37445969075250768 -0.180314363642749 -0.34076977815660864 -0.45658853643015318 0.81764333740548778 -0.60823447774755401 -0.28400188947882543 -1.1004601479484526 -0.85567496177330682 1.0694494563399284 0.82893860872245706 -1.046393916927842 -1.1136940196389125 -1.1208606500512477 -0.91125117958273227 1.1497817138187094 -1.1391183156541194 -1.1809196661781802 -1.1292148565638549 -1.0542565692186718 -1.1110515354870689 1.1555230712968767 -1.145350397235456 -1.1385590779331121 1.1395798337296013
internal_count=675191 632294 2643 2464 288 179 62 238 216 117 182 66 2176 116 90 55 79 2144 2110 60 42897 629651 59 2050 257 233 26679 50227 579424 16218
shrinkage=0.05
has_categorical=0


Tree=29
num_leaves=31
split_feature=0 0 31 27 9 36 9 6 21 1 25 14 4 27 20 5 10 12 25 9 1 31 9 41 25 20 25 12 1 25
split_gain=22299.890085309948 34.540377973840805 77.911217149881224 15.501828493898852 6.9008528683979176 6.3427527678330264 4.0045126174033987 4.4293996912427271 5.4790779279366122 3.7432139230451473 3.4192396950636876 3.0091738746749459 2.9592705143249844 1.7309870604233577 1.989476596853839 1.6538672004260775 1.454343169936763 1.0278918343448007 0.8857144365386489 0.76356098542942163 0.75018998715165708 0.25572814216138795 0.23849511443404481 0.099186719729459583 0.086131876641957206 0.039443066034083429 0.03205221291500493 0.027246088012816472 0.026172860985525404 0.025465122423383946
threshold=63091 66854.5 9.9999996826552254e-21 550.5 2.5 9.9999996826552254e-21 8.5 8.5 4518.9004999999997 3.5 31.5 20170106.5 30.5 1980.5 53.5 2015.5 8.5 149.5 61.5 3.5 3.5 9.9999996826552254e-21 2.5 1.5 30.5 17.5 29.5 240 1.5 30.5
decision_type=0 0 0 0 0 0 0 0 0 0 0 0 0 0 0 0 0 0 0 0 0 0 0 0 0 0 0 0 0 0
default_value=0 0 0 0 0 0 0 0 1.7976931348623157e+308 1.7976931348623157e+308 -9.9999996826552254e-21 1.7976931348623157e+308 1.7976931348623157e+308 1.7976931348623157e+308 1.7976931348623157e+308 0 0 0 -9.9999996826552254e-21 0 0 0 0 0 -9.9999996826552254e-21 0 1.7976931348623157e+308 1.7976931348623157e+308 0 -9.9999996826552254e-21
left_child=22 2 3 -2 12 -6 7 9 -9 -7 13 -11 -5 14 16 18 -8 -15 19 -4 -21 24 -1 27 26 -18 -3 28 -24 -30
right_child=1 21 15 4 5 6 10 8 -10 11 -12 -13 -14 17 -16 -17 25 -19 -20 20 -22 -23 23 -25 -26 -27 -28 -29 29 -31
leaf_parent=22 3 26 19 12 5 9 16 8 8 11 10 11 12 17 14 15 25 17 18 20 20 21 28 23 24 25 26 27 29 29
leaf_value=0.056592497624637764 0.057518101464895992 -0.057303508603069001 -0.032262995183966435 0.0082389282974495784 0.04717078599125174 0.050963709360492208 -0.033237480471853216 0.0038043066412958315 -0.070518242983663382 0.029549259588693075 0.0030035544027089581 -0.023393944608123413 0.067671389096677054 0.0029334129248955506 -0.0099922992463213085 -0.023397907014566139 -0.067761010958448706 -0.035673703691367568 -0.028527567856826971 -0.0352302595895762 -0.056624303841403573 -0.056539444948620746 0.056984483413531656 0.056882365678761371 -0.057274449640729856 -0.061141343885659817 -0.056758029674684463 0.057244079250884684 0.057880592282599411 0.057438283966653993
leaf_count=16218 97 2583 23 20 34 21 35 25 20 20 31 31 22 20 21 30 30 20 21 32 2062 574604 1293 7987 10359 28 42105 5621 6979 4799
internal_value=0 -1.1298213207554835 -0.79629511330376213 0.039515598849216467 -0.13076750066477719 -0.24498697546310622 -0.33018665144964426 -0.038865052180271094 -0.55540758883613928 0.28956914294930192 -0.56535073858088369 -0.031830615207536786 0.7194778579435126 -0.73438098117520823 -0.89358310149870279 -1.0979406445617175 -1.0482013114733315 -0.30736164364272245 -1.1095018668495971 -1.1168719810286889 -1.1242321350021998 -1.13141635796141 1.1414193769682139 1.1468007601954295 -1.1377235909000665 -1.2982679885847115 -1.1358265028395651 1.1504562700909775 1.1527635060121348 1.1540996954502081
internal_count=675191 632294 2643 475 378 336 302 117 45 72 185 51 42 154 114 2168 93 40 2138 2117 2094 629651 42897 26679 55047 58 44688 18692 13071 11778
shrinkage=0.05
has_categorical=0


Tree=30
num_leaves=31
split_feature=0 0 31 27 41 1 30 4 6 36 4 36 27 9 6 9 25 27 1 36 31 9 25 25 25 9 25 1 11 31
split_gain=21050.453790761756 37.387980761210201 79.497562436700576 14.451040824703496 9.6006324563121019 7.2503407468873391 4.4331373355964487 4.4288581333794514 4.2954536188418126 4.0786935439488481 3.3620435394746249 2.8862136095099631 2.6510462106180324 2.9844744283064029 2.8269386671717536 1.9437803453180607 1.2213536168709425 0.91846150424649409 0.72873833820014511 0.23990194788665953 0.21542608532763552 0.20246194693208963 0.084543538425350562 0.072883914682279283 0.026533154234130052 0.020382421129397699 0.019661643115796323 0.022733036186536992 0.021029368541121585 0.019824400497554961
threshold=63091 66854.5 9.9999996826552254e-21 550.5 1.5 13.5 70.5 20.5 8.5 4.5 37.5 4.5 1488.5 8.5 4.5 3.5 58.5 609.5 3.5 6.5 9.9999996826552254e-21 2.5 15.5 30.5 29.5 8.5 30.5 1.5 12 9.9999996826552254e-21
decision_type=0 0 0 0 0 0 0 0 0 0 0 0 0 0 0 0 0 0 0 0 0 0 0 0 0 0 0 0 0 0
default_value=0 0 0 0 0 0 1.7976931348623157e+308 1.7976931348623157e+308 1.7976931348623157e+308 1.7976931348623157e+308 1.7976931348623157e+308 1.7976931348623157e+308 0 0 1.7976931348623157e+308 0 -9.9999996826552254e-21 0 0 1.7976931348623157e+308 0 0 -9.9999996826552254e-21 -9.9999996826552254e-21 1.7976931348623157e+308 0 -9.9999996826552254e-21 0 0 0
left_child=21 2 3 -2 5 6 7 -5 11 -6 -11 -9 13 -7 -15 -4 17 -17 -19 -14 23 -1 -23 24 -3 -26 27 -24 -29 -28
right_child=1 20 15 4 9 12 -8 8 -10 10 -12 -13 19 14 -16 16 -18 18 -20 -21 -22 22 26 -25 25 -27 29 28 -30 -31
leaf_parent=21 3 24 15 7 9 13 6 11 8 10 10 11 19 14 14 17 16 18 18 19 20 22 27 23 25 25 29 28 28 29
leaf_value=0.056226714309813332 0.057152505668451314 -0.056897859403190143 -0.015199518563127012 -0.026332562218508777 -0.00083844580668785318 0.010721476246988786 -0.039010454667069899 0.014940248103403811 -0.0088560919410545069 0.07465864429761615 0.016676181585233565 0.063978593755164889 -0.049539900472536771 -0.0039483592153053103 -0.063596947283830835 -0.028957827726500976 -0.020830707415674481 -0.035283065961469177 -0.056261581023767597 -0.066969068278579943 -0.056180000400236164 0.056465268059174928 0.056599160518396308 -0.05686865887451778 -0.056549643361043324 -0.056311861463989865 0.056882417169102285 0.05614381097405316 0.057383001081497555 0.05768999219483234
leaf_count=16193 101 2522 20 32 36 21 29 30 34 26 35 30 21 21 36 24 20 33 2035 32 574610 7179 1157 10424 12730 29431 9495 366 7755 713
internal_value=0 -1.1224934638531796 -0.76771964085752309 0.071400414085277988 -0.093650016106124792 -0.30380253378742078 -0.0082895358323722811 0.16842027098547699 0.4093599393716767 0.55162846947319277 0.96420197165567922 0.78231120716435854 -0.76321372435717671 -0.47470237034917395 -0.81784496594496481 -1.0881779159560745 -1.0997642225184383 -1.1082445533720728 -1.1165809524767489 -1.2027562323540153 -1.1241890134352692 1.133557905454418 1.1386219101357782 -1.1301016297310198 -1.1283130515248074 -1.1277013550037089 1.1418194339659753 1.1449699074994573 1.1466820751684925 1.1388656684285043
internal_count=675191 632333 2616 484 383 286 155 126 94 97 61 60 131 78 57 2132 2112 2092 2068 53 629717 42858 26665 55107 44683 42161 19486 9278 8121 10208
shrinkage=0.05
has_categorical=0


Tree=31
num_leaves=31
split_feature=0 0 31 27 40 1 30 4 6 1 36 36 27 9 6 9 2 27 1 25 36 31 9 25 25 8 9 9 25 36
